<?xml version="1.0"?>
<opencv_storage>
<cascade>
  <stageType>BOOST</stageType>
  <featureType>HAAR</featureType>
  <height>24</height>
  <width>24</width>
  <stageParams>
    <boostType>GAB</boostType>
    <minHitRate>9.9500000476837158e-01</minHitRate>
    <maxFalseAlarm>5.0000000000000000e-01</maxFalseAlarm>
    <weightTrimRate>9.4999999999999996e-01</weightTrimRate>
    <maxDepth>1</maxDepth>
    <maxWeakCount>100</maxWeakCount></stageParams>
  <featureParams>
    <maxCatCount>0</maxCatCount>
    <featSize>1</featSize>
    <mode>BASIC</mode></featureParams>
  <stageNum>20</stageNum>
  <stages>
    <!-- stage 0 -->
    <_>
      <maxWeakCount>8</maxWeakCount>
      <stageThreshold>-1.4815533161163330e+00</stageThreshold>
      <weakClassifiers>
        <_>
          <internalNodes>
            0 -1 92 -3.1767405569553375e-02</internalNodes>
          <leafValues>
            8.7473005056381226e-01 -3.3199194073677063e-01</leafValues></_>
        <_>
          <internalNodes>
            0 -1 550 -4.2849557939916849e-04</internalNodes>
          <leafValues>
            4.3304163217544556e-01 -5.6922328472137451e-01</leafValues></_>
        <_>
          <internalNodes>
            0 -1 25 -1.7089098691940308e-01</internalNodes>
          <leafValues>
            9.2275047302246094e-01 -2.3204070329666138e-01</leafValues></_>
        <_>
          <internalNodes>
            0 -1 490 -1.7489115707576275e-03</internalNodes>
          <leafValues>
            -7.3854839801788330e-01 2.4118630588054657e-01</leafValues></_>
        <_>
          <internalNodes>
            0 -1 23 2.7201092243194580e-01</internalNodes>
          <leafValues>
            -2.3039585351943970e-01 7.9197460412979126e-01</leafValues></_>
        <_>
          <internalNodes>
            0 -1 171 -1.9521772861480713e-02</internalNodes>
          <leafValues>
            5.4814529418945312e-01 -2.1961061656475067e-01</leafValues></_>
        <_>
          <internalNodes>
            0 -1 440 1.4913463382981718e-04</internalNodes>
          <leafValues>
            2.5196185708045959e-01 -4.1499114036560059e-01</leafValues></_>
        <_>
          <internalNodes>
            0 -1 609 -5.9828888624906540e-03</internalNodes>
          <leafValues>
            2.5298368930816650e-01 -4.2029744386672974e-01</leafValues></_></weakClassifiers></_>
    <!-- stage 1 -->
    <_>
      <maxWeakCount>13</maxWeakCount>
      <stageThreshold>-1.2929651737213135e+00</stageThreshold>
      <weakClassifiers>
        <_>
          <internalNodes>
            0 -1 111 -3.1358618289232254e-02</internalNodes>
          <leafValues>
            7.5507020950317383e-01 -3.2915920019149780e-01</leafValues></_>
        <_>
          <internalNodes>
            0 -1 38 -2.0241953432559967e-01</internalNodes>
          <leafValues>
            8.6166405677795410e-01 -1.2563180923461914e-01</leafValues></_>
        <_>
          <internalNodes>
            0 -1 272 1.4908123994246125e-03</internalNodes>
          <leafValues>
            -3.9545524120330811e-01 3.8364437222480774e-01</leafValues></_>
        <_>
          <internalNodes>
            0 -1 283 -1.0528917191550136e-03</internalNodes>
          <leafValues>
            4.8718100786209106e-01 -3.2701036334037781e-01</leafValues></_>
        <_>
          <internalNodes>
            0 -1 150 6.6705164499580860e-03</internalNodes>
          <leafValues>
            -2.4053151905536652e-01 5.3249460458755493e-01</leafValues></_>
        <_>
          <internalNodes>
            0 -1 469 -1.2818185496143997e-05</internalNodes>
          <leafValues>
            2.4239160120487213e-01 -4.6893233060836792e-01</leafValues></_>
        <_>
          <internalNodes>
            0 -1 456 -1.4779429184272885e-03</internalNodes>
          <leafValues>
            -5.6107795238494873e-01 1.4950174093246460e-01</leafValues></_>
        <_>
          <internalNodes>
            0 -1 11 2.0794314146041870e-01</internalNodes>
          <leafValues>
            -1.7750404775142670e-01 5.3819769620895386e-01</leafValues></_>
        <_>
          <internalNodes>
            0 -1 612 1.8192518502473831e-02</internalNodes>
          <leafValues>
            -1.4165480434894562e-01 6.4417695999145508e-01</leafValues></_>
        <_>
          <internalNodes>
            0 -1 431 -1.3684723526239395e-03</internalNodes>
          <leafValues>
            1.6065035760402679e-01 -4.5237961411476135e-01</leafValues></_>
        <_>
          <internalNodes>
            0 -1 502 -1.7371894791722298e-03</internalNodes>
          <leafValues>
            3.4769019484519958e-01 -2.8033152222633362e-01</leafValues></_>
        <_>
          <internalNodes>
            0 -1 198 1.0094931349158287e-03</internalNodes>
          <leafValues>
            -1.1268449574708939e-01 5.8949279785156250e-01</leafValues></_>
        <_>
          <internalNodes>
            0 -1 622 1.6354149556718767e-04</internalNodes>
          <leafValues>
            -4.3583044409751892e-01 2.0776014029979706e-01</leafValues></_></weakClassifiers></_>
    <!-- stage 2 -->
    <_>
      <maxWeakCount>16</maxWeakCount>
      <stageThreshold>-1.0311560630798340e+00</stageThreshold>
      <weakClassifiers>
        <_>
          <internalNodes>
            0 -1 92 -4.1396841406822205e-02</internalNodes>
          <leafValues>
            7.9159051179885864e-01 -2.0367534458637238e-01</leafValues></_>
        <_>
          <internalNodes>
            0 -1 277 -2.8836466372013092e-03</internalNodes>
          <leafValues>
            5.6920230388641357e-01 -1.8045984208583832e-01</leafValues></_>
        <_>
          <internalNodes>
            0 -1 164 -5.6858167052268982e-02</internalNodes>
          <leafValues>
            6.2751734256744385e-01 -2.1379388868808746e-01</leafValues></_>
        <_>
          <internalNodes>
            0 -1 382 -1.9672745838761330e-03</internalNodes>
          <leafValues>
            4.6637603640556335e-01 -3.0388578772544861e-01</leafValues></_>
        <_>
          <internalNodes>
            0 -1 625 2.5203460827469826e-03</internalNodes>
          <leafValues>
            -1.6100944578647614e-01 6.1223554611206055e-01</leafValues></_>
        <_>
          <internalNodes>
            0 -1 34 1.5239527821540833e-01</internalNodes>
          <leafValues>
            -1.2063457071781158e-01 7.1972501277923584e-01</leafValues></_>
        <_>
          <internalNodes>
            0 -1 608 -5.6817587465047836e-03</internalNodes>
          <leafValues>
            5.1146799325942993e-01 -1.6801273822784424e-01</leafValues></_>
        <_>
          <internalNodes>
            0 -1 331 -3.3156509744003415e-05</internalNodes>
          <leafValues>
            2.1875241398811340e-01 -3.9462736248970032e-01</leafValues></_>
        <_>
          <internalNodes>
            0 -1 133 -1.6308417543768883e-03</internalNodes>
          <leafValues>
            4.7198787331581116e-01 -1.7075529694557190e-01</leafValues></_>
        <_>
          <internalNodes>
            0 -1 616 -9.2318188399076462e-04</internalNodes>
          <leafValues>
            1.9089214503765106e-01 -4.4409874081611633e-01</leafValues></_>
        <_>
          <internalNodes>
            0 -1 131 1.2957977596670389e-03</internalNodes>
          <leafValues>
            -1.7335310578346252e-01 4.7931176424026489e-01</leafValues></_>
        <_>
          <internalNodes>
            0 -1 448 3.2969232415780425e-04</internalNodes>
          <leafValues>
            1.5762569010257721e-01 -5.1105296611785889e-01</leafValues></_>
        <_>
          <internalNodes>
            0 -1 498 5.0111031159758568e-03</internalNodes>
          <leafValues>
            1.1768902093172073e-01 -6.4574015140533447e-01</leafValues></_>
        <_>
          <internalNodes>
            0 -1 271 -6.4506573835387826e-04</internalNodes>
          <leafValues>
            1.8242274224758148e-01 -4.3553650379180908e-01</leafValues></_>
        <_>
          <internalNodes>
            0 -1 209 -2.1516382694244385e-03</internalNodes>
          <leafValues>
            6.7688643932342529e-01 -1.3138650357723236e-01</leafValues></_>
        <_>
          <internalNodes>
            0 -1 41 8.7127245962619781e-02</internalNodes>
          <leafValues>
            -7.1571603417396545e-02 7.6651453971862793e-01</leafValues></_></weakClassifiers></_>
    <!-- stage 3 -->
    <_>
      <maxWeakCount>19</maxWeakCount>
      <stageThreshold>-1.0787125825881958e+00</stageThreshold>
      <weakClassifiers>
        <_>
          <internalNodes>
            0 -1 55 -1.6664096713066101e-01</internalNodes>
          <leafValues>
            8.7195467948913574e-01 -1.1169686913490295e-01</leafValues></_>
        <_>
          <internalNodes>
            0 -1 332 -1.1637546122074127e-02</internalNodes>
          <leafValues>
            3.7423783540725708e-01 -4.2792543768882751e-01</leafValues></_>
        <_>
          <internalNodes>
            0 -1 212 1.0498508810997009e-02</internalNodes>
          <leafValues>
            -2.7203354239463806e-01 3.9635527133941650e-01</leafValues></_>
        <_>
          <internalNodes>
            0 -1 562 2.7942927554249763e-03</internalNodes>
          <leafValues>
            -4.0113759040832520e-01 2.2251629829406738e-01</leafValues></_>
        <_>
          <internalNodes>
            0 -1 205 -2.2948677651584148e-03</internalNodes>
          <leafValues>
            4.3701371550559998e-01 -2.0925280451774597e-01</leafValues></_>
        <_>
          <internalNodes>
            0 -1 536 7.8286677598953247e-03</internalNodes>
          <leafValues>
            -1.5806978940963745e-01 5.4579818248748779e-01</leafValues></_>
        <_>
          <internalNodes>
            0 -1 641 2.1601019427180290e-02</internalNodes>
          <leafValues>
            -1.5273566544055939e-01 4.8173806071281433e-01</leafValues></_>
        <_>
          <internalNodes>
            0 -1 600 -1.9389111548662186e-02</internalNodes>
          <leafValues>
            7.1452695131301880e-01 -1.4154881238937378e-01</leafValues></_>
        <_>
          <internalNodes>
            0 -1 440 -1.0802250471897423e-05</internalNodes>
          <leafValues>
            2.8732684254646301e-01 -3.2420080900192261e-01</leafValues></_>
        <_>
          <internalNodes>
            0 -1 418 -2.4750612676143646e-02</internalNodes>
          <leafValues>
            4.9105915427207947e-01 -1.6381041705608368e-01</leafValues></_>
        <_>
          <internalNodes>
            0 -1 222 5.2564404904842377e-04</internalNodes>
          <leafValues>
            -1.8455606698989868e-01 4.1949430108070374e-01</leafValues></_>
        <_>
          <internalNodes>
            0 -1 567 -1.0307414922863245e-03</internalNodes>
          <leafValues>
            4.3992480635643005e-01 -1.3726250827312469e-01</leafValues></_>
        <_>
          <internalNodes>
            0 -1 571 2.3739372845739126e-03</internalNodes>
          <leafValues>
            -1.7717382311820984e-01 4.1067045927047729e-01</leafValues></_>
        <_>
          <internalNodes>
            0 -1 566 8.5553532699123025e-05</internalNodes>
          <leafValues>
            -3.2994002103805542e-01 1.8875189125537872e-01</leafValues></_>
        <_>
          <internalNodes>
            0 -1 140 -2.2573238238692284e-02</internalNodes>
          <leafValues>
            2.9862359166145325e-01 -2.3778623342514038e-01</leafValues></_>
        <_>
          <internalNodes>
            0 -1 54 2.6219770312309265e-02</internalNodes>
          <leafValues>
            -1.6246950626373291e-01 4.2227959632873535e-01</leafValues></_>
        <_>
          <internalNodes>
            0 -1 254 -3.2966556318569928e-05</internalNodes>
          <leafValues>
            1.9966590404510498e-01 -3.4196993708610535e-01</leafValues></_>
        <_>
          <internalNodes>
            0 -1 342 -4.7432365827262402e-03</internalNodes>
          <leafValues>
            -6.8670660257339478e-01 8.3640120923519135e-02</leafValues></_>
        <_>
          <internalNodes>
            0 -1 132 -6.1303086113184690e-04</internalNodes>
          <leafValues>
            4.1378596425056458e-01 -1.5311464667320251e-01</leafValues></_></weakClassifiers></_>
    <!-- stage 4 -->
    <_>
      <maxWeakCount>22</maxWeakCount>
      <stageThreshold>-9.4242596626281738e-01</stageThreshold>
      <weakClassifiers>
        <_>
          <internalNodes>
            0 -1 37 -3.0685585737228394e-01</internalNodes>
          <leafValues>
            8.2876330614089966e-01 -9.3262530863285065e-02</leafValues></_>
        <_>
          <internalNodes>
            0 -1 366 -9.4594026450067759e-04</internalNodes>
          <leafValues>
            3.5098299384117126e-01 -2.7977100014686584e-01</leafValues></_>
        <_>
          <internalNodes>
            0 -1 166 -8.8642746210098267e-02</internalNodes>
          <leafValues>
            5.9916341304779053e-01 -1.4802843332290649e-01</leafValues></_>
        <_>
          <internalNodes>
            0 -1 616 -7.8146019950509071e-04</internalNodes>
          <leafValues>
            1.3531476259231567e-01 -5.0370103120803833e-01</leafValues></_>
        <_>
          <internalNodes>
            0 -1 215 -3.2119378447532654e-03</internalNodes>
          <leafValues>
            2.7594432234764099e-01 -2.8177487850189209e-01</leafValues></_>
        <_>
          <internalNodes>
            0 -1 24 3.3925968408584595e-01</internalNodes>
          <leafValues>
            -1.1224282532930374e-01 7.3301482200622559e-01</leafValues></_>
        <_>
          <internalNodes>
            0 -1 553 1.0576790664345026e-03</internalNodes>
          <leafValues>
            1.0855901241302490e-01 -7.2576946020126343e-01</leafValues></_>
        <_>
          <internalNodes>
            0 -1 294 4.5528747141361237e-02</internalNodes>
          <leafValues>
            -1.5012216567993164e-01 4.3451216816902161e-01</leafValues></_>
        <_>
          <internalNodes>
            0 -1 481 2.5041558546945453e-04</internalNodes>
          <leafValues>
            -4.6540653705596924e-01 1.3283090293407440e-01</leafValues></_>
        <_>
          <internalNodes>
            0 -1 610 -8.1619294360280037e-04</internalNodes>
          <leafValues>
            -5.8898150920867920e-01 8.4924854338169098e-02</leafValues></_>
        <_>
          <internalNodes>
            0 -1 666 -2.0416178740561008e-03</internalNodes>
          <leafValues>
            6.1290562152862549e-01 -1.0137297958135605e-01</leafValues></_>
        <_>
          <internalNodes>
            0 -1 460 3.7686342839151621e-03</internalNodes>
          <leafValues>
            7.5913913547992706e-02 -8.9023083448410034e-01</leafValues></_>
        <_>
          <internalNodes>
            0 -1 365 1.1536676902323961e-03</internalNodes>
          <leafValues>
            1.0144296288490295e-01 -4.9172365665435791e-01</leafValues></_>
        <_>
          <internalNodes>
            0 -1 479 -1.0441418737173080e-02</internalNodes>
          <leafValues>
            4.4005712866783142e-01 -1.4558644592761993e-01</leafValues></_>
        <_>
          <internalNodes>
            0 -1 304 8.1647094339132309e-04</internalNodes>
          <leafValues>
            -1.3722701370716095e-01 3.8354429602622986e-01</leafValues></_>
        <_>
          <internalNodes>
            0 -1 451 2.0180751744192094e-04</internalNodes>
          <leafValues>
            1.4943471550941467e-01 -3.5084989666938782e-01</leafValues></_>
        <_>
          <internalNodes>
            0 -1 518 2.0887488499283791e-03</internalNodes>
          <leafValues>
            -1.1721643060445786e-01 4.4166782498359680e-01</leafValues></_>
        <_>
          <internalNodes>
            0 -1 577 2.5099946651607752e-03</internalNodes>
          <leafValues>
            -1.2224874645471573e-01 3.9863353967666626e-01</leafValues></_>
        <_>
          <internalNodes>
            0 -1 531 5.8616686146706343e-04</internalNodes>
          <leafValues>
            1.1048179864883423e-01 -5.0465768575668335e-01</leafValues></_>
        <_>
          <internalNodes>
            0 -1 563 1.0916857718257234e-05</internalNodes>
          <leafValues>
            -2.8429353237152100e-01 1.6613268852233887e-01</leafValues></_>
        <_>
          <internalNodes>
            0 -1 311 3.1143035739660263e-03</internalNodes>
          <leafValues>
            9.7686275839805603e-02 -5.1912665367126465e-01</leafValues></_>
        <_>
          <internalNodes>
            0 -1 494 -6.9254925474524498e-03</internalNodes>
          <leafValues>
            5.0025194883346558e-01 -1.0729955881834030e-01</leafValues></_></weakClassifiers></_>
    <!-- stage 5 -->
    <_>
      <maxWeakCount>27</maxWeakCount>
      <stageThreshold>-1.0275956392288208e+00</stageThreshold>
      <weakClassifiers>
        <_>
          <internalNodes>
            0 -1 56 -2.0159313082695007e-01</internalNodes>
          <leafValues>
            8.0180180072784424e-01 -7.4074074625968933e-02</leafValues></_>
        <_>
          <internalNodes>
            0 -1 276 -1.6357589047402143e-03</internalNodes>
          <leafValues>
            3.9416632056236267e-01 -2.1317185461521149e-01</leafValues></_>
        <_>
          <internalNodes>
            0 -1 52 -3.2623443007469177e-01</internalNodes>
          <leafValues>
            7.9963117837905884e-01 -8.5469536483287811e-02</leafValues></_>
        <_>
          <internalNodes>
            0 -1 419 6.7336902022361755e-02</internalNodes>
          <leafValues>
            -1.2646014988422394e-01 8.0411285161972046e-01</leafValues></_>
        <_>
          <internalNodes>
            0 -1 217 -7.0059439167380333e-03</internalNodes>
          <leafValues>
            -6.5789717435836792e-01 1.4246277511119843e-01</leafValues></_>
        <_>
          <internalNodes>
            0 -1 375 -3.1286871526390314e-03</internalNodes>
          <leafValues>
            2.9203355312347412e-01 -2.3503334820270538e-01</leafValues></_>
        <_>
          <internalNodes>
            0 -1 542 3.8595093064941466e-04</internalNodes>
          <leafValues>
            1.4012917876243591e-01 -4.6824255585670471e-01</leafValues></_>
        <_>
          <internalNodes>
            0 -1 409 -1.0704870874178596e-05</internalNodes>
          <leafValues>
            1.9314524531364441e-01 -3.1018874049186707e-01</leafValues></_>
        <_>
          <internalNodes>
            0 -1 226 -3.3867675811052322e-02</internalNodes>
          <leafValues>
            4.3303382396697998e-01 -1.1344157904386520e-01</leafValues></_>
        <_>
          <internalNodes>
            0 -1 159 -3.1279928516596556e-03</internalNodes>
          <leafValues>
            -3.8147121667861938e-01 1.3990953564643860e-01</leafValues></_>
        <_>
          <internalNodes>
            0 -1 469 -2.4645487428642809e-05</internalNodes>
          <leafValues>
            1.2917938828468323e-01 -3.9174437522888184e-01</leafValues></_>
        <_>
          <internalNodes>
            0 -1 627 3.3016868401318789e-03</internalNodes>
          <leafValues>
            -2.1816395223140717e-01 2.2468177974224091e-01</leafValues></_>
        <_>
          <internalNodes>
            0 -1 546 -9.0194499352946877e-04</internalNodes>
          <leafValues>
            -4.7478207945823669e-01 9.6493065357208252e-02</leafValues></_>
        <_>
          <internalNodes>
            0 -1 541 1.5763170085847378e-04</internalNodes>
          <leafValues>
            1.6775795817375183e-01 -3.9406549930572510e-01</leafValues></_>
        <_>
          <internalNodes>
            0 -1 210 -3.5919137299060822e-03</internalNodes>
          <leafValues>
            4.8741081357002258e-01 -1.2318969517946243e-01</leafValues></_>
        <_>
          <internalNodes>
            0 -1 622 9.3311042292043567e-05</internalNodes>
          <leafValues>
            -4.1422680020332336e-01 1.4294849336147308e-01</leafValues></_>
        <_>
          <internalNodes>
            0 -1 198 1.1272127740085125e-03</internalNodes>
          <leafValues>
            -1.4335568249225616e-01 4.3850359320640564e-01</leafValues></_>
        <_>
          <internalNodes>
            0 -1 67 2.3949424922466278e-01</internalNodes>
          <leafValues>
            -6.4726307988166809e-02 6.9406360387802124e-01</leafValues></_>
        <_>
          <internalNodes>
            0 -1 589 -3.8751989603042603e-02</internalNodes>
          <leafValues>
            2.9706829786300659e-01 -1.8900154531002045e-01</leafValues></_>
        <_>
          <internalNodes>
            0 -1 377 7.5356299057602882e-03</internalNodes>
          <leafValues>
            7.8123934566974640e-02 -5.9507423639297485e-01</leafValues></_>
        <_>
          <internalNodes>
            0 -1 218 1.4134919270873070e-02</internalNodes>
          <leafValues>
            6.6708751022815704e-02 -6.9680327177047729e-01</leafValues></_>
        <_>
          <internalNodes>
            0 -1 500 2.9178474098443985e-02</internalNodes>
          <leafValues>
            4.4195491820573807e-02 -7.8887206315994263e-01</leafValues></_>
        <_>
          <internalNodes>
            0 -1 597 -4.3908651918172836e-02</internalNodes>
          <leafValues>
            6.1537271738052368e-01 -7.7255912125110626e-02</leafValues></_>
        <_>
          <internalNodes>
            0 -1 638 1.3223737478256226e-03</internalNodes>
          <leafValues>
            1.3720779120922089e-01 -3.2061222195625305e-01</leafValues></_>
        <_>
          <internalNodes>
            0 -1 486 -6.2701362185180187e-04</internalNodes>
          <leafValues>
            4.4097161293029785e-01 -1.0470955818891525e-01</leafValues></_>
        <_>
          <internalNodes>
            0 -1 368 2.2568874992430210e-03</internalNodes>
          <leafValues>
            1.7128954827785492e-01 -2.9069584608078003e-01</leafValues></_>
        <_>
          <internalNodes>
            0 -1 483 1.7061101971194148e-05</internalNodes>
          <leafValues>
            -3.1523475050926208e-01 1.7734697461128235e-01</leafValues></_></weakClassifiers></_>
    <!-- stage 6 -->
    <_>
      <maxWeakCount>34</maxWeakCount>
      <stageThreshold>-1.0567623376846313e+00</stageThreshold>
      <weakClassifiers>
        <_>
          <internalNodes>
            0 -1 86 -2.2060152888298035e-01</internalNodes>
          <leafValues>
            7.2209024429321289e-01 -5.1347883418202400e-03</leafValues></_>
        <_>
          <internalNodes>
            0 -1 301 1.9549475982785225e-02</internalNodes>
          <leafValues>
            -1.2797801196575165e-01 4.7786545753479004e-01</leafValues></_>
        <_>
          <internalNodes>
            0 -1 265 -7.5743035413324833e-03</internalNodes>
          <leafValues>
            2.4777722358703613e-01 -3.4296429157257080e-01</leafValues></_>
        <_>
          <internalNodes>
            0 -1 185 -2.8776279650628567e-03</internalNodes>
          <leafValues>
            2.7638319134712219e-01 -2.3699064552783966e-01</leafValues></_>
        <_>
          <internalNodes>
            0 -1 232 2.5090401992201805e-02</internalNodes>
          <leafValues>
            -1.0143913328647614e-01 6.2258428335189819e-01</leafValues></_>
        <_>
          <internalNodes>
            0 -1 229 -2.2038400173187256e-02</internalNodes>
          <leafValues>
            4.4023972749710083e-01 -1.5077638626098633e-01</leafValues></_>
        <_>
          <internalNodes>
            0 -1 110 1.9448664039373398e-02</internalNodes>
          <leafValues>
            -1.0957179963588715e-01 5.7412374019622803e-01</leafValues></_>
        <_>
          <internalNodes>
            0 -1 249 -7.5068805017508566e-05</internalNodes>
          <leafValues>
            1.8614247441291809e-01 -3.2625836133956909e-01</leafValues></_>
        <_>
          <internalNodes>
            0 -1 275 -4.3732253834605217e-04</internalNodes>
          <leafValues>
            1.8946115672588348e-01 -2.6005536317825317e-01</leafValues></_>
        <_>
          <internalNodes>
            0 -1 543 4.8413564218208194e-04</internalNodes>
          <leafValues>
            1.3966849446296692e-01 -3.7763878703117371e-01</leafValues></_>
        <_>
          <internalNodes>
            0 -1 374 -2.2529042325913906e-03</internalNodes>
          <leafValues>
            2.7755150198936462e-01 -1.7107595503330231e-01</leafValues></_>
        <_>
          <internalNodes>
            0 -1 639 -2.1128440275788307e-03</internalNodes>
          <leafValues>
            4.3516620993614197e-01 -1.1807422339916229e-01</leafValues></_>
        <_>
          <internalNodes>
            0 -1 522 -6.6566281020641327e-03</internalNodes>
          <leafValues>
            1.5848183631896973e-01 -3.3340564370155334e-01</leafValues></_>
        <_>
          <internalNodes>
            0 -1 567 -1.2792084598913789e-03</internalNodes>
          <leafValues>
            3.5432985424995422e-01 -1.3205066323280334e-01</leafValues></_>
        <_>
          <internalNodes>
            0 -1 242 4.7922350466251373e-02</internalNodes>
          <leafValues>
            -1.0382342338562012e-01 4.9236708879470825e-01</leafValues></_>
        <_>
          <internalNodes>
            0 -1 128 -5.7562077417969704e-03</internalNodes>
          <leafValues>
            3.4939619898796082e-01 -1.2078043818473816e-01</leafValues></_>
        <_>
          <internalNodes>
            0 -1 430 -7.8153833746910095e-03</internalNodes>
          <leafValues>
            6.0603052377700806e-01 -7.9071708023548126e-02</leafValues></_>
        <_>
          <internalNodes>
            0 -1 637 -1.2402234133332968e-03</internalNodes>
          <leafValues>
            -3.7419334053993225e-01 1.2543043494224548e-01</leafValues></_>
        <_>
          <internalNodes>
            0 -1 279 3.3499520213808864e-05</internalNodes>
          <leafValues>
            -3.4383934736251831e-01 1.1802853643894196e-01</leafValues></_>
        <_>
          <internalNodes>
            0 -1 281 2.4648278951644897e-02</internalNodes>
          <leafValues>
            7.7995106577873230e-02 -5.6963336467742920e-01</leafValues></_>
        <_>
          <internalNodes>
            0 -1 593 1.0881059803068638e-02</internalNodes>
          <leafValues>
            -6.3857942819595337e-02 7.0012086629867554e-01</leafValues></_>
        <_>
          <internalNodes>
            0 -1 539 6.6292588599026203e-04</internalNodes>
          <leafValues>
            1.1023165285587311e-01 -4.5344188809394836e-01</leafValues></_>
        <_>
          <internalNodes>
            0 -1 412 -1.3880684971809387e-02</internalNodes>
          <leafValues>
            3.2409888505935669e-01 -1.3024777173995972e-01</leafValues></_>
        <_>
          <internalNodes>
            0 -1 656 1.0484158992767334e-02</internalNodes>
          <leafValues>
            -1.6314068436622620e-01 2.9627966880798340e-01</leafValues></_>
        <_>
          <internalNodes>
            0 -1 470 1.6764076426625252e-03</internalNodes>
          <leafValues>
            -2.8238669037818909e-01 1.3860826194286346e-01</leafValues></_>
        <_>
          <internalNodes>
            0 -1 349 -9.2037633294239640e-04</internalNodes>
          <leafValues>
            -3.6944180727005005e-01 1.3280040025711060e-01</leafValues></_>
        <_>
          <internalNodes>
            0 -1 400 -2.8050304390490055e-03</internalNodes>
          <leafValues>
            3.1227579712867737e-01 -1.4387327432632446e-01</leafValues></_>
        <_>
          <internalNodes>
            0 -1 59 -7.5965630821883678e-04</internalNodes>
          <leafValues>
            -4.9905693531036377e-01 8.9225694537162781e-02</leafValues></_>
        <_>
          <internalNodes>
            0 -1 395 3.5868054255843163e-03</internalNodes>
          <leafValues>
            -1.1878113448619843e-01 3.7045037746429443e-01</leafValues></_>
        <_>
          <internalNodes>
            0 -1 541 3.3961585722863674e-04</internalNodes>
          <leafValues>
            1.1479907482862473e-01 -3.9615345001220703e-01</leafValues></_>
        <_>
          <internalNodes>
            0 -1 488 1.9845501519739628e-03</internalNodes>
          <leafValues>
            -1.6490998864173889e-01 2.5565555691719055e-01</leafValues></_>
        <_>
          <internalNodes>
            0 -1 28 -1.0817201109603047e-03</internalNodes>
          <leafValues>
            -4.1695651412010193e-01 1.0468932986259460e-01</leafValues></_>
        <_>
          <internalNodes>
            0 -1 468 -9.5850974321365356e-04</internalNodes>
          <leafValues>
            -3.0111679434776306e-01 1.3449268043041229e-01</leafValues></_>
        <_>
          <internalNodes>
            0 -1 592 2.4332795292139053e-03</internalNodes>
          <leafValues>
            -1.1092648655176163e-01 4.2593443393707275e-01</leafValues></_></weakClassifiers></_>
    <!-- stage 7 -->
    <_>
      <maxWeakCount>38</maxWeakCount>
      <stageThreshold>-1.0538862943649292e+00</stageThreshold>
      <weakClassifiers>
        <_>
          <internalNodes>
            0 -1 82 -2.6303905248641968e-01</internalNodes>
          <leafValues>
            6.7437285184860229e-01 -6.1799783259630203e-02</leafValues></_>
        <_>
          <internalNodes>
            0 -1 6 -4.0945011377334595e-01</internalNodes>
          <leafValues>
            6.6298943758010864e-01 -5.3075749427080154e-02</leafValues></_>
        <_>
          <internalNodes>
            0 -1 104 4.3962519615888596e-02</internalNodes>
          <leafValues>
            -7.4520654976367950e-02 7.2293162345886230e-01</leafValues></_>
        <_>
          <internalNodes>
            0 -1 79 -4.8563508316874504e-03</internalNodes>
          <leafValues>
            -4.2338076233863831e-01 1.4938730001449585e-01</leafValues></_>
        <_>
          <internalNodes>
            0 -1 276 -2.4060008581727743e-03</internalNodes>
          <leafValues>
            2.7799421548843384e-01 -2.0934210717678070e-01</leafValues></_>
        <_>
          <internalNodes>
            0 -1 198 8.3048688247799873e-04</internalNodes>
          <leafValues>
            -1.6746783256530762e-01 3.2913067936897278e-01</leafValues></_>
        <_>
          <internalNodes>
            0 -1 550 -5.0416588783264160e-04</internalNodes>
          <leafValues>
            7.6222881674766541e-02 -4.3498581647872925e-01</leafValues></_>
        <_>
          <internalNodes>
            0 -1 209 -2.5564888492226601e-03</internalNodes>
          <leafValues>
            4.9027869105339050e-01 -8.7665580213069916e-02</leafValues></_>
        <_>
          <internalNodes>
            0 -1 531 3.6240095505490899e-04</internalNodes>
          <leafValues>
            9.4357766211032867e-02 -4.5472586154937744e-01</leafValues></_>
        <_>
          <internalNodes>
            0 -1 465 4.1623786091804504e-04</internalNodes>
          <leafValues>
            8.3185546100139618e-02 -4.6534723043441772e-01</leafValues></_>
        <_>
          <internalNodes>
            0 -1 467 -2.0993496291339397e-03</internalNodes>
          <leafValues>
            -4.3782782554626465e-01 8.0737523734569550e-02</leafValues></_>
        <_>
          <internalNodes>
            0 -1 595 1.5084296464920044e-03</internalNodes>
          <leafValues>
            -8.5590273141860962e-02 4.9401718378067017e-01</leafValues></_>
        <_>
          <internalNodes>
            0 -1 396 2.6163090951740742e-03</internalNodes>
          <leafValues>
            -1.4334502816200256e-01 2.5763705372810364e-01</leafValues></_>
        <_>
          <internalNodes>
            0 -1 131 -1.4386930270120502e-03</internalNodes>
          <leafValues>
            3.6537882685661316e-01 -9.6908241510391235e-02</leafValues></_>
        <_>
          <internalNodes>
            0 -1 51 8.4783345460891724e-02</internalNodes>
          <leafValues>
            -8.7052941322326660e-02 4.3975472450256348e-01</leafValues></_>
        <_>
          <internalNodes>
            0 -1 300 2.8913857415318489e-02</internalNodes>
          <leafValues>
            -9.9803224205970764e-02 3.8517081737518311e-01</leafValues></_>
        <_>
          <internalNodes>
            0 -1 655 -1.3083489611744881e-03</internalNodes>
          <leafValues>
            2.3150837421417236e-01 -1.7191749811172485e-01</leafValues></_>
        <_>
          <internalNodes>
            0 -1 44 5.3384825587272644e-03</internalNodes>
          <leafValues>
            1.1216045916080475e-01 -3.5353904962539673e-01</leafValues></_>
        <_>
          <internalNodes>
            0 -1 292 6.0747209936380386e-03</internalNodes>
          <leafValues>
            6.4627096056938171e-02 -5.4032546281814575e-01</leafValues></_>
        <_>
          <internalNodes>
            0 -1 556 -3.8863630034029484e-03</internalNodes>
          <leafValues>
            6.2615799903869629e-01 -6.2423866242170334e-02</leafValues></_>
        <_>
          <internalNodes>
            0 -1 397 1.1178950444445945e-05</internalNodes>
          <leafValues>
            -2.8288283944129944e-01 1.4629201591014862e-01</leafValues></_>
        <_>
          <internalNodes>
            0 -1 20 7.2104251012206078e-03</internalNodes>
          <leafValues>
            8.9121356606483459e-02 -4.0473583340644836e-01</leafValues></_>
        <_>
          <internalNodes>
            0 -1 411 -3.4490978578105569e-04</internalNodes>
          <leafValues>
            2.6496270298957825e-01 -1.4048323035240173e-01</leafValues></_>
        <_>
          <internalNodes>
            0 -1 507 3.5421620123088360e-04</internalNodes>
          <leafValues>
            -2.1681933104991913e-01 1.6707240045070648e-01</leafValues></_>
        <_>
          <internalNodes>
            0 -1 538 1.0918608313659206e-04</internalNodes>
          <leafValues>
            1.3314895331859589e-01 -2.9387876391410828e-01</leafValues></_>
        <_>
          <internalNodes>
            0 -1 282 -7.0760622620582581e-02</internalNodes>
          <leafValues>
            4.6165227890014648e-01 -8.3528846502304077e-02</leafValues></_>
        <_>
          <internalNodes>
            0 -1 236 -1.0116588324308395e-02</internalNodes>
          <leafValues>
            2.4299895763397217e-01 -1.6042374074459076e-01</leafValues></_>
        <_>
          <internalNodes>
            0 -1 425 -2.5352707598358393e-03</internalNodes>
          <leafValues>
            2.8537613153457642e-01 -1.2755747139453888e-01</leafValues></_>
        <_>
          <internalNodes>
            0 -1 546 -1.1405549012124538e-03</internalNodes>
          <leafValues>
            -5.1553881168365479e-01 7.0120118558406830e-02</leafValues></_>
        <_>
          <internalNodes>
            0 -1 541 9.8843840532936156e-05</internalNodes>
          <leafValues>
            1.3029077649116516e-01 -2.9334923624992371e-01</leafValues></_>
        <_>
          <internalNodes>
            0 -1 564 1.1002391111105680e-03</internalNodes>
          <leafValues>
            -1.6145199537277222e-01 2.3631052672863007e-01</leafValues></_>
        <_>
          <internalNodes>
            0 -1 364 1.6745175234973431e-03</internalNodes>
          <leafValues>
            5.5818632245063782e-02 -7.6181334257125854e-01</leafValues></_>
        <_>
          <internalNodes>
            0 -1 264 1.8288742750883102e-02</internalNodes>
          <leafValues>
            -6.9853655993938446e-02 6.7233562469482422e-01</leafValues></_>
        <_>
          <internalNodes>
            0 -1 186 -1.0695762284740340e-05</internalNodes>
          <leafValues>
            1.6306641697883606e-01 -2.7458852529525757e-01</leafValues></_>
        <_>
          <internalNodes>
            0 -1 121 -6.7676007747650146e-02</internalNodes>
          <leafValues>
            1.7487524449825287e-01 -2.0421135425567627e-01</leafValues></_>
        <_>
          <internalNodes>
            0 -1 258 1.5665662940591574e-03</internalNodes>
          <leafValues>
            -7.8490369021892548e-02 4.6382266283035278e-01</leafValues></_>
        <_>
          <internalNodes>
            0 -1 481 8.5947266779839993e-04</internalNodes>
          <leafValues>
            -3.7927702069282532e-01 1.1579162627458572e-01</leafValues></_>
        <_>
          <internalNodes>
            0 -1 499 5.6127132847905159e-03</internalNodes>
          <leafValues>
            1.1598255485296249e-01 -3.6690598726272583e-01</leafValues></_></weakClassifiers></_>
    <!-- stage 8 -->
    <_>
      <maxWeakCount>39</maxWeakCount>
      <stageThreshold>-9.6040433645248413e-01</stageThreshold>
      <weakClassifiers>
        <_>
          <internalNodes>
            0 -1 4 -3.7939819693565369e-01</internalNodes>
          <leafValues>
            6.6998243331909180e-01 1.7793593928217888e-02</leafValues></_>
        <_>
          <internalNodes>
            0 -1 284 -2.1757425274699926e-03</internalNodes>
          <leafValues>
            2.9572355747222900e-01 -1.6481369733810425e-01</leafValues></_>
        <_>
          <internalNodes>
            0 -1 189 -3.8674031384289265e-04</internalNodes>
          <leafValues>
            2.8932926058769226e-01 -1.6929812729358673e-01</leafValues></_>
        <_>
          <internalNodes>
            0 -1 190 -1.6340812435373664e-03</internalNodes>
          <leafValues>
            5.2075111865997314e-01 -1.1982095241546631e-01</leafValues></_>
        <_>
          <internalNodes>
            0 -1 448 4.6467437641695142e-04</internalNodes>
          <leafValues>
            9.2663086950778961e-02 -5.1660048961639404e-01</leafValues></_>
        <_>
          <internalNodes>
            0 -1 452 -4.4899483327753842e-04</internalNodes>
          <leafValues>
            -3.3154055476188660e-01 1.8345269560813904e-01</leafValues></_>
        <_>
          <internalNodes>
            0 -1 3 1.5561786293983459e-01</internalNodes>
          <leafValues>
            -1.0854634642601013e-01 5.4991722106933594e-01</leafValues></_>
        <_>
          <internalNodes>
            0 -1 376 -1.1957981623709202e-03</internalNodes>
          <leafValues>
            1.7666789889335632e-01 -3.5199385881423950e-01</leafValues></_>
        <_>
          <internalNodes>
            0 -1 248 -2.1500682923942804e-03</internalNodes>
          <leafValues>
            2.4521708488464355e-01 -2.1246586740016937e-01</leafValues></_>
        <_>
          <internalNodes>
            0 -1 29 4.2673461139202118e-03</internalNodes>
          <leafValues>
            1.2094752490520477e-01 -3.3553874492645264e-01</leafValues></_>
        <_>
          <internalNodes>
            0 -1 363 -7.4515137821435928e-03</internalNodes>
          <leafValues>
            1.3066339492797852e-01 -2.7265569567680359e-01</leafValues></_>
        <_>
          <internalNodes>
            0 -1 610 1.5283813991118222e-04</internalNodes>
          <leafValues>
            1.2960764765739441e-01 -3.4700757265090942e-01</leafValues></_>
        <_>
          <internalNodes>
            0 -1 339 -2.5230580940842628e-03</internalNodes>
          <leafValues>
            -3.2283166050910950e-01 1.3714838027954102e-01</leafValues></_>
        <_>
          <internalNodes>
            0 -1 325 -1.7233568942174315e-03</internalNodes>
          <leafValues>
            2.9783403873443604e-01 -1.5176633000373840e-01</leafValues></_>
        <_>
          <internalNodes>
            0 -1 391 -3.2119317911565304e-03</internalNodes>
          <leafValues>
            3.1993168592453003e-01 -1.1184457689523697e-01</leafValues></_>
        <_>
          <internalNodes>
            0 -1 302 3.9579086005687714e-02</internalNodes>
          <leafValues>
            -1.0707039386034012e-01 4.1024777293205261e-01</leafValues></_>
        <_>
          <internalNodes>
            0 -1 371 4.8165135085582733e-03</internalNodes>
          <leafValues>
            -3.3142146468162537e-01 1.1471068114042282e-01</leafValues></_>
        <_>
          <internalNodes>
            0 -1 168 2.5010421872138977e-02</internalNodes>
          <leafValues>
            -1.0336886346340179e-01 4.1096475720405579e-01</leafValues></_>
        <_>
          <internalNodes>
            0 -1 252 -1.1289720423519611e-03</internalNodes>
          <leafValues>
            1.8741849064826965e-01 -2.3426863551139832e-01</leafValues></_>
        <_>
          <internalNodes>
            0 -1 114 -5.3610362112522125e-02</internalNodes>
          <leafValues>
            2.2406925261020660e-01 -1.5742179751396179e-01</leafValues></_>
        <_>
          <internalNodes>
            0 -1 547 -4.4608205556869507e-02</internalNodes>
          <leafValues>
            5.3492134809494019e-01 -9.3886844813823700e-02</leafValues></_>
        <_>
          <internalNodes>
            0 -1 540 3.4696524962782860e-03</internalNodes>
          <leafValues>
            6.4406186342239380e-02 -6.9013500213623047e-01</leafValues></_>
        <_>
          <internalNodes>
            0 -1 74 1.1061265831813216e-03</internalNodes>
          <leafValues>
            7.3053494095802307e-02 -3.8538447022438049e-01</leafValues></_>
        <_>
          <internalNodes>
            0 -1 629 -7.0482352748513222e-04</internalNodes>
          <leafValues>
            2.4846555292606354e-01 -1.2983332574367523e-01</leafValues></_>
        <_>
          <internalNodes>
            0 -1 628 1.4864763943478465e-04</internalNodes>
          <leafValues>
            -2.0645438134670258e-01 1.8308219313621521e-01</leafValues></_>
        <_>
          <internalNodes>
            0 -1 53 -2.5259047746658325e-01</internalNodes>
          <leafValues>
            6.8270021677017212e-01 -4.6698436141014099e-02</leafValues></_>
        <_>
          <internalNodes>
            0 -1 622 1.1381362855900079e-04</internalNodes>
          <leafValues>
            -3.3949342370033264e-01 1.0241089016199112e-01</leafValues></_>
        <_>
          <internalNodes>
            0 -1 387 -1.1427522986195982e-04</internalNodes>
          <leafValues>
            3.5242137312889099e-01 -1.0405881702899933e-01</leafValues></_>
        <_>
          <internalNodes>
            0 -1 343 8.8028553873300552e-03</internalNodes>
          <leafValues>
            -2.9355695843696594e-01 1.3092570006847382e-01</leafValues></_>
        <_>
          <internalNodes>
            0 -1 315 -3.4994562156498432e-03</internalNodes>
          <leafValues>
            3.7228530645370483e-01 -9.5407195389270782e-02</leafValues></_>
        <_>
          <internalNodes>
            0 -1 398 4.8960056155920029e-03</internalNodes>
          <leafValues>
            6.9919027388095856e-02 -5.4244810342788696e-01</leafValues></_>
        <_>
          <internalNodes>
            0 -1 278 -1.7191149527207017e-04</internalNodes>
          <leafValues>
            1.7250183224678040e-01 -2.1927465498447418e-01</leafValues></_>
        <_>
          <internalNodes>
            0 -1 636 3.2576052471995354e-03</internalNodes>
          <leafValues>
            7.5033649802207947e-02 -4.3582096695899963e-01</leafValues></_>
        <_>
          <internalNodes>
            0 -1 602 -3.2237106934189796e-03</internalNodes>
          <leafValues>
            3.1889143586158752e-01 -1.0365254431962967e-01</leafValues></_>
        <_>
          <internalNodes>
            0 -1 22 -7.9439003020524979e-03</internalNodes>
          <leafValues>
            -3.9707660675048828e-01 7.9098500311374664e-02</leafValues></_>
        <_>
          <internalNodes>
            0 -1 298 -6.8694882793352008e-04</internalNodes>
          <leafValues>
            2.1132650971412659e-01 -1.4842827618122101e-01</leafValues></_>
        <_>
          <internalNodes>
            0 -1 646 3.4294379875063896e-03</internalNodes>
          <leafValues>
            -9.8902694880962372e-02 3.3759859204292297e-01</leafValues></_>
        <_>
          <internalNodes>
            0 -1 422 8.8516190648078918e-02</internalNodes>
          <leafValues>
            6.7357011139392853e-02 -4.7900015115737915e-01</leafValues></_>
        <_>
          <internalNodes>
            0 -1 307 1.0685776360332966e-03</internalNodes>
          <leafValues>
            -1.4532397687435150e-01 2.3180803656578064e-01</leafValues></_></weakClassifiers></_>
    <!-- stage 9 -->
    <_>
      <maxWeakCount>46</maxWeakCount>
      <stageThreshold>-9.6021068096160889e-01</stageThreshold>
      <weakClassifiers>
        <_>
          <internalNodes>
            0 -1 68 -1.8835940957069397e-01</internalNodes>
          <leafValues>
            6.5672481060028076e-01 1.0916308499872684e-02</leafValues></_>
        <_>
          <internalNodes>
            0 -1 9 -5.9715700149536133e-01</internalNodes>
          <leafValues>
            7.6264929771423340e-01 -3.1012194231152534e-02</leafValues></_>
        <_>
          <internalNodes>
            0 -1 363 -9.7601655870676041e-03</internalNodes>
          <leafValues>
            1.7918406426906586e-01 -2.8157773613929749e-01</leafValues></_>
        <_>
          <internalNodes>
            0 -1 240 2.5465050712227821e-03</internalNodes>
          <leafValues>
            -1.2385554611682892e-01 3.0922654271125793e-01</leafValues></_>
        <_>
          <internalNodes>
            0 -1 253 2.8198508516652510e-05</internalNodes>
          <leafValues>
            -1.8672136962413788e-01 2.2041173279285431e-01</leafValues></_>
        <_>
          <internalNodes>
            0 -1 499 -6.7089153453707695e-03</internalNodes>
          <leafValues>
            -5.8527261018753052e-01 5.7687658816576004e-02</leafValues></_>
        <_>
          <internalNodes>
            0 -1 501 -1.3888389803469181e-03</internalNodes>
          <leafValues>
            1.8381500244140625e-01 -1.9612984359264374e-01</leafValues></_>
        <_>
          <internalNodes>
            0 -1 36 2.3536783456802368e-01</internalNodes>
          <leafValues>
            -6.8138487637042999e-02 6.8614393472671509e-01</leafValues></_>
        <_>
          <internalNodes>
            0 -1 446 3.7158570194151253e-05</internalNodes>
          <leafValues>
            -2.8799769282341003e-01 1.4040717482566833e-01</leafValues></_>
        <_>
          <internalNodes>
            0 -1 361 -7.8436650801450014e-04</internalNodes>
          <leafValues>
            1.2069380283355713e-01 -2.7831113338470459e-01</leafValues></_>
        <_>
          <internalNodes>
            0 -1 193 -2.2278181277215481e-03</internalNodes>
          <leafValues>
            2.2545953094959259e-01 -1.7078801989555359e-01</leafValues></_>
        <_>
          <internalNodes>
            0 -1 677 2.5294063379988074e-04</internalNodes>
          <leafValues>
            1.3762895762920380e-01 -2.7930620312690735e-01</leafValues></_>
        <_>
          <internalNodes>
            0 -1 221 2.5938763283193111e-03</internalNodes>
          <leafValues>
            -1.4217819273471832e-01 2.3064163327217102e-01</leafValues></_>
        <_>
          <internalNodes>
            0 -1 223 -3.2468014396727085e-03</internalNodes>
          <leafValues>
            3.6107015609741211e-01 -9.2819124460220337e-02</leafValues></_>
        <_>
          <internalNodes>
            0 -1 32 -7.6667673420161009e-04</internalNodes>
          <leafValues>
            -2.8128102421760559e-01 1.1687142401933670e-01</leafValues></_>
        <_>
          <internalNodes>
            0 -1 148 4.5026894658803940e-03</internalNodes>
          <leafValues>
            9.6317566931247711e-02 -3.4812441468238831e-01</leafValues></_>
        <_>
          <internalNodes>
            0 -1 261 1.4350258279591799e-03</internalNodes>
          <leafValues>
            -9.3615166842937469e-02 3.9789339900016785e-01</leafValues></_>
        <_>
          <internalNodes>
            0 -1 480 -2.1534035913646221e-03</internalNodes>
          <leafValues>
            -3.3239004015922546e-01 9.2824958264827728e-02</leafValues></_>
        <_>
          <internalNodes>
            0 -1 257 1.3380669988691807e-03</internalNodes>
          <leafValues>
            -2.0191495120525360e-01 1.5052336454391479e-01</leafValues></_>
        <_>
          <internalNodes>
            0 -1 548 -2.7671351563185453e-04</internalNodes>
          <leafValues>
            -2.9715275764465332e-01 1.1182129383087158e-01</leafValues></_>
        <_>
          <internalNodes>
            0 -1 321 -2.1053263917565346e-03</internalNodes>
          <leafValues>
            3.8090464472770691e-01 -9.4836927950382233e-02</leafValues></_>
        <_>
          <internalNodes>
            0 -1 427 6.0680380556732416e-04</internalNodes>
          <leafValues>
            -1.0893256962299347e-01 3.0337262153625488e-01</leafValues></_>
        <_>
          <internalNodes>
            0 -1 448 3.2966976868920028e-04</internalNodes>
          <leafValues>
            8.7190486490726471e-02 -4.1144922375679016e-01</leafValues></_>
        <_>
          <internalNodes>
            0 -1 21 1.0160494130104780e-03</internalNodes>
          <leafValues>
            8.7871775031089783e-02 -3.8933551311492920e-01</leafValues></_>
        <_>
          <internalNodes>
            0 -1 428 -1.3011723756790161e-02</internalNodes>
          <leafValues>
            -7.1443289518356323e-01 4.4138018041849136e-02</leafValues></_>
        <_>
          <internalNodes>
            0 -1 174 1.5559704042971134e-03</internalNodes>
          <leafValues>
            -1.0657557100057602e-01 3.2622316479682922e-01</leafValues></_>
        <_>
          <internalNodes>
            0 -1 161 -1.5156900044530630e-03</internalNodes>
          <leafValues>
            -3.3921068906784058e-01 9.2420265078544617e-02</leafValues></_>
        <_>
          <internalNodes>
            0 -1 272 1.3479371555149555e-03</internalNodes>
          <leafValues>
            -2.6481956243515015e-01 1.1472045630216599e-01</leafValues></_>
        <_>
          <internalNodes>
            0 -1 162 2.5803884491324425e-03</internalNodes>
          <leafValues>
            8.1512488424777985e-02 -3.6667644977569580e-01</leafValues></_>
        <_>
          <internalNodes>
            0 -1 191 3.7735081277787685e-03</internalNodes>
          <leafValues>
            -1.0716722905635834e-01 2.9525935649871826e-01</leafValues></_>
        <_>
          <internalNodes>
            0 -1 578 2.3805769160389900e-03</internalNodes>
          <leafValues>
            -7.4385367333889008e-02 4.0516340732574463e-01</leafValues></_>
        <_>
          <internalNodes>
            0 -1 533 9.3741212040185928e-03</internalNodes>
          <leafValues>
            9.7698129713535309e-02 -3.5771161317825317e-01</leafValues></_>
        <_>
          <internalNodes>
            0 -1 410 1.0827833648363594e-05</internalNodes>
          <leafValues>
            -2.0108823478221893e-01 1.3814511895179749e-01</leafValues></_>
        <_>
          <internalNodes>
            0 -1 621 -1.6748040216043591e-03</internalNodes>
          <leafValues>
            5.1508116722106934e-01 -6.3101992011070251e-02</leafValues></_>
        <_>
          <internalNodes>
            0 -1 544 -5.6551893067080528e-05</internalNodes>
          <leafValues>
            1.1067509651184082e-01 -3.2381927967071533e-01</leafValues></_>
        <_>
          <internalNodes>
            0 -1 541 -3.3587217330932617e-04</internalNodes>
          <leafValues>
            -4.3109494447708130e-01 8.6376562714576721e-02</leafValues></_>
        <_>
          <internalNodes>
            0 -1 445 9.1690160334110260e-03</internalNodes>
          <leafValues>
            -5.1591165363788605e-02 7.1377724409103394e-01</leafValues></_>
        <_>
          <internalNodes>
            0 -1 251 8.9958924800157547e-03</internalNodes>
          <leafValues>
            7.9475812613964081e-02 -5.0579994916915894e-01</leafValues></_>
        <_>
          <internalNodes>
            0 -1 170 -4.2630750685930252e-03</internalNodes>
          <leafValues>
            3.3028921484947205e-01 -9.5126949250698090e-02</leafValues></_>
        <_>
          <internalNodes>
            0 -1 149 -8.2199707627296448e-02</internalNodes>
          <leafValues>
            5.5544978380203247e-01 -5.5035781115293503e-02</leafValues></_>
        <_>
          <internalNodes>
            0 -1 129 -1.2044059112668037e-02</internalNodes>
          <leafValues>
            -7.7495098114013672e-01 4.7028020024299622e-02</leafValues></_>
        <_>
          <internalNodes>
            0 -1 575 -1.1481191031634808e-03</internalNodes>
          <leafValues>
            2.8960749506950378e-01 -1.1294822394847870e-01</leafValues></_>
        <_>
          <internalNodes>
            0 -1 574 1.4530997723340988e-03</internalNodes>
          <leafValues>
            -1.4990045130252838e-01 2.1294195950031281e-01</leafValues></_>
        <_>
          <internalNodes>
            0 -1 629 -9.9389918614178896e-04</internalNodes>
          <leafValues>
            2.4807876348495483e-01 -1.2796592712402344e-01</leafValues></_>
        <_>
          <internalNodes>
            0 -1 310 1.1550141498446465e-03</internalNodes>
          <leafValues>
            7.7355988323688507e-02 -4.4689226150512695e-01</leafValues></_>
        <_>
          <internalNodes>
            0 -1 440 -2.3284363123821095e-05</internalNodes>
          <leafValues>
            1.1397761851549149e-01 -2.7964538335800171e-01</leafValues></_></weakClassifiers></_>
    <!-- stage 10 -->
    <_>
      <maxWeakCount>44</maxWeakCount>
      <stageThreshold>-9.3800073862075806e-01</stageThreshold>
      <weakClassifiers>
        <_>
          <internalNodes>
            0 -1 27 -4.1609786450862885e-02</internalNodes>
          <leafValues>
            6.8814969062805176e-01 6.1662197113037109e-02</leafValues></_>
        <_>
          <internalNodes>
            0 -1 91 -3.7995293736457825e-02</internalNodes>
          <leafValues>
            5.1259994506835938e-01 -8.5465498268604279e-02</leafValues></_>
        <_>
          <internalNodes>
            0 -1 642 -1.9383297767490149e-03</internalNodes>
          <leafValues>
            4.2244312167167664e-01 -1.6624414920806885e-01</leafValues></_>
        <_>
          <internalNodes>
            0 -1 289 5.1727045502047986e-05</internalNodes>
          <leafValues>
            -2.1770778298377991e-01 2.1273505687713623e-01</leafValues></_>
        <_>
          <internalNodes>
            0 -1 206 -7.3602341581135988e-04</internalNodes>
          <leafValues>
            2.2105437517166138e-01 -1.8742093443870544e-01</leafValues></_>
        <_>
          <internalNodes>
            0 -1 31 -2.1632291376590729e-02</internalNodes>
          <leafValues>
            -5.6794035434722900e-01 5.7922102510929108e-02</leafValues></_>
        <_>
          <internalNodes>
            0 -1 417 -5.4679559543728828e-03</internalNodes>
          <leafValues>
            -3.8694548606872559e-01 9.1712005436420441e-02</leafValues></_>
        <_>
          <internalNodes>
            0 -1 477 5.7062678970396519e-03</internalNodes>
          <leafValues>
            -1.1143401265144348e-01 3.1338766217231750e-01</leafValues></_>
        <_>
          <internalNodes>
            0 -1 231 2.8402408584952354e-02</internalNodes>
          <leafValues>
            -1.3146296143531799e-01 2.4471552670001984e-01</leafValues></_>
        <_>
          <internalNodes>
            0 -1 356 -1.2535275891423225e-03</internalNodes>
          <leafValues>
            -3.0985406041145325e-01 9.8520748317241669e-02</leafValues></_>
        <_>
          <internalNodes>
            0 -1 648 -3.9931526407599449e-03</internalNodes>
          <leafValues>
            1.4848273992538452e-01 -2.4395920336246490e-01</leafValues></_>
        <_>
          <internalNodes>
            0 -1 262 -1.2293664040043950e-03</internalNodes>
          <leafValues>
            2.2034595906734467e-01 -1.6536457836627960e-01</leafValues></_>
        <_>
          <internalNodes>
            0 -1 5 4.4578850269317627e-01</internalNodes>
          <leafValues>
            -7.4220202863216400e-02 5.9097886085510254e-01</leafValues></_>
        <_>
          <internalNodes>
            0 -1 508 -4.3844431638717651e-04</internalNodes>
          <leafValues>
            2.1142937242984772e-01 -1.5650689601898193e-01</leafValues></_>
        <_>
          <internalNodes>
            0 -1 498 4.5999037101864815e-03</internalNodes>
          <leafValues>
            8.3441309630870819e-02 -4.2764762043952942e-01</leafValues></_>
        <_>
          <internalNodes>
            0 -1 671 1.6733605880290270e-03</internalNodes>
          <leafValues>
            -9.1072700917720795e-02 4.1306695342063904e-01</leafValues></_>
        <_>
          <internalNodes>
            0 -1 0 -1.9624046981334686e-03</internalNodes>
          <leafValues>
            -3.1720265746116638e-01 9.4944372773170471e-02</leafValues></_>
        <_>
          <internalNodes>
            0 -1 432 -4.7762975096702576e-02</internalNodes>
          <leafValues>
            2.4486257135868073e-01 -1.2202664464712143e-01</leafValues></_>
        <_>
          <internalNodes>
            0 -1 591 -8.2804111298173666e-04</internalNodes>
          <leafValues>
            3.2991391420364380e-01 -9.1809153556823730e-02</leafValues></_>
        <_>
          <internalNodes>
            0 -1 87 -4.7305380576290190e-04</internalNodes>
          <leafValues>
            -2.4253925681114197e-01 1.1135665327310562e-01</leafValues></_>
        <_>
          <internalNodes>
            0 -1 132 -1.0074235033243895e-03</internalNodes>
          <leafValues>
            3.2022708654403687e-01 -8.8896542787551880e-02</leafValues></_>
        <_>
          <internalNodes>
            0 -1 553 -9.4230793183669448e-04</internalNodes>
          <leafValues>
            -4.5658969879150391e-01 7.1122601628303528e-02</leafValues></_>
        <_>
          <internalNodes>
            0 -1 199 2.7591604739427567e-03</internalNodes>
          <leafValues>
            -1.3490116596221924e-01 2.1932187676429749e-01</leafValues></_>
        <_>
          <internalNodes>
            0 -1 492 -1.8107946962118149e-03</internalNodes>
          <leafValues>
            4.1151154041290283e-01 -7.1482032537460327e-02</leafValues></_>
        <_>
          <internalNodes>
            0 -1 390 -1.4481358230113983e-03</internalNodes>
          <leafValues>
            2.5774961709976196e-01 -1.2555868923664093e-01</leafValues></_>
        <_>
          <internalNodes>
            0 -1 443 -1.4611536171287298e-03</internalNodes>
          <leafValues>
            -3.3601567149162292e-01 1.0721046477556229e-01</leafValues></_>
        <_>
          <internalNodes>
            0 -1 620 -4.1509731090627611e-04</internalNodes>
          <leafValues>
            -3.8799890875816345e-01 8.0173864960670471e-02</leafValues></_>
        <_>
          <internalNodes>
            0 -1 237 1.1844844557344913e-03</internalNodes>
          <leafValues>
            -1.1797092854976654e-01 2.8635159134864807e-01</leafValues></_>
        <_>
          <internalNodes>
            0 -1 635 -1.2302094837650657e-03</internalNodes>
          <leafValues>
            -3.2846388220787048e-01 1.0149802267551422e-01</leafValues></_>
        <_>
          <internalNodes>
            0 -1 97 -2.1769003942608833e-02</internalNodes>
          <leafValues>
            -4.9837315082550049e-01 7.8356631100177765e-02</leafValues></_>
        <_>
          <internalNodes>
            0 -1 460 3.1517003662884235e-03</internalNodes>
          <leafValues>
            3.3417146652936935e-02 -7.4063766002655029e-01</leafValues></_>
        <_>
          <internalNodes>
            0 -1 323 2.6189438067376614e-03</internalNodes>
          <leafValues>
            -1.2406232208013535e-01 2.4564111232757568e-01</leafValues></_>
        <_>
          <internalNodes>
            0 -1 124 -4.3654598295688629e-02</internalNodes>
          <leafValues>
            -6.1513882875442505e-01 5.4694600403308868e-02</leafValues></_>
        <_>
          <internalNodes>
            0 -1 152 -7.5066443532705307e-03</internalNodes>
          <leafValues>
            -4.3745246529579163e-01 6.4840041100978851e-02</leafValues></_>
        <_>
          <internalNodes>
            0 -1 203 1.9367074128240347e-03</internalNodes>
          <leafValues>
            -6.0459345579147339e-02 5.4934114217758179e-01</leafValues></_>
        <_>
          <internalNodes>
            0 -1 481 5.8375234948471189e-04</internalNodes>
          <leafValues>
            -4.0776932239532471e-01 1.0361903905868530e-01</leafValues></_>
        <_>
          <internalNodes>
            0 -1 437 4.2036911472678185e-03</internalNodes>
          <leafValues>
            -8.5525847971439362e-02 5.1822710037231445e-01</leafValues></_>
        <_>
          <internalNodes>
            0 -1 145 -1.3420501723885536e-02</internalNodes>
          <leafValues>
            2.8350946307182312e-01 -1.4065963029861450e-01</leafValues></_>
        <_>
          <internalNodes>
            0 -1 459 -2.8407406061887741e-03</internalNodes>
          <leafValues>
            -4.4937118887901306e-01 7.8316852450370789e-02</leafValues></_>
        <_>
          <internalNodes>
            0 -1 463 -5.5682333186268806e-04</internalNodes>
          <leafValues>
            2.4418857693672180e-01 -1.4145192503929138e-01</leafValues></_>
        <_>
          <internalNodes>
            0 -1 462 6.8340813741087914e-03</internalNodes>
          <leafValues>
            1.1883492022752762e-01 -2.6365056633949280e-01</leafValues></_>
        <_>
          <internalNodes>
            0 -1 541 6.1949409428052604e-05</internalNodes>
          <leafValues>
            1.1635006964206696e-01 -2.6653534173965454e-01</leafValues></_>
        <_>
          <internalNodes>
            0 -1 259 -2.8654385823756456e-04</internalNodes>
          <leafValues>
            -2.5315460562705994e-01 1.5231965482234955e-01</leafValues></_>
        <_>
          <internalNodes>
            0 -1 239 2.8484838549047709e-03</internalNodes>
          <leafValues>
            -1.2259917706251144e-01 2.4291795492172241e-01</leafValues></_></weakClassifiers></_>
    <!-- stage 11 -->
    <_>
      <maxWeakCount>45</maxWeakCount>
      <stageThreshold>-8.3555716276168823e-01</stageThreshold>
      <weakClassifiers>
        <_>
          <internalNodes>
            0 -1 33 -3.3657926321029663e-01</internalNodes>
          <leafValues>
            5.6929636001586914e-01 4.5143637806177139e-02</leafValues></_>
        <_>
          <internalNodes>
            0 -1 372 -9.5809155027382076e-06</internalNodes>
          <leafValues>
            2.0023608207702637e-01 -2.0709677040576935e-01</leafValues></_>
        <_>
          <internalNodes>
            0 -1 26 -3.8653194904327393e-01</internalNodes>
          <leafValues>
            6.5101653337478638e-01 -6.2406353652477264e-02</leafValues></_>
        <_>
          <internalNodes>
            0 -1 550 -4.5394874177873135e-04</internalNodes>
          <leafValues>
            6.1692502349615097e-02 -5.0800704956054688e-01</leafValues></_>
        <_>
          <internalNodes>
            0 -1 184 1.9198360387235880e-03</internalNodes>
          <leafValues>
            -1.0220000892877579e-01 2.8964823484420776e-01</leafValues></_>
        <_>
          <internalNodes>
            0 -1 190 -9.6369953826069832e-04</internalNodes>
          <leafValues>
            3.5441944003105164e-01 -1.1989875137805939e-01</leafValues></_>
        <_>
          <internalNodes>
            0 -1 541 1.4984849258325994e-04</internalNodes>
          <leafValues>
            1.2002072483301163e-01 -2.9486510157585144e-01</leafValues></_>
        <_>
          <internalNodes>
            0 -1 94 1.2613007856998593e-04</internalNodes>
          <leafValues>
            -1.8971000611782074e-01 1.6258513927459717e-01</leafValues></_>
        <_>
          <internalNodes>
            0 -1 233 -2.2573333233594894e-02</internalNodes>
          <leafValues>
            2.6011180877685547e-01 -1.3435094058513641e-01</leafValues></_>
        <_>
          <internalNodes>
            0 -1 603 -1.3134608045220375e-02</internalNodes>
          <leafValues>
            4.2045378684997559e-01 -9.6013426780700684e-02</leafValues></_>
        <_>
          <internalNodes>
            0 -1 454 -1.1054945643991232e-03</internalNodes>
          <leafValues>
            -5.3651088476181030e-01 7.7960439026355743e-02</leafValues></_>
        <_>
          <internalNodes>
            0 -1 669 1.5124808996915817e-03</internalNodes>
          <leafValues>
            -9.8572932183742523e-02 3.0225375294685364e-01</leafValues></_>
        <_>
          <internalNodes>
            0 -1 622 2.6108627207577229e-04</internalNodes>
          <leafValues>
            -2.9512289166450500e-01 9.9564924836158752e-02</leafValues></_>
        <_>
          <internalNodes>
            0 -1 300 4.2615629732608795e-02</internalNodes>
          <leafValues>
            -6.4009740948677063e-02 4.9198016524314880e-01</leafValues></_>
        <_>
          <internalNodes>
            0 -1 274 1.5597795136272907e-03</internalNodes>
          <leafValues>
            -5.6493699550628662e-02 5.9277945756912231e-01</leafValues></_>
        <_>
          <internalNodes>
            0 -1 460 -5.5628159316256642e-04</internalNodes>
          <leafValues>
            -2.1905992925167084e-01 1.5322320163249969e-01</leafValues></_>
        <_>
          <internalNodes>
            0 -1 200 -1.1353853158652782e-02</internalNodes>
          <leafValues>
            1.4155566692352295e-01 -2.5103956460952759e-01</leafValues></_>
        <_>
          <internalNodes>
            0 -1 478 -9.5143401995301247e-04</internalNodes>
          <leafValues>
            -2.2450803220272064e-01 1.3629247248172760e-01</leafValues></_>
        <_>
          <internalNodes>
            0 -1 381 4.7185504809021950e-04</internalNodes>
          <leafValues>
            -1.7448922991752625e-01 2.3491324484348297e-01</leafValues></_>
        <_>
          <internalNodes>
            0 -1 291 -2.0867224782705307e-02</internalNodes>
          <leafValues>
            4.5241329073905945e-01 -6.2951199710369110e-02</leafValues></_>
        <_>
          <internalNodes>
            0 -1 402 -1.2599805369973183e-02</internalNodes>
          <leafValues>
            -5.4713952541351318e-01 6.0379337519407272e-02</leafValues></_>
        <_>
          <internalNodes>
            0 -1 109 -1.0863040387630463e-01</internalNodes>
          <leafValues>
            -5.7307088375091553e-01 4.4741045683622360e-02</leafValues></_>
        <_>
          <internalNodes>
            0 -1 420 6.5673291683197021e-03</internalNodes>
          <leafValues>
            7.9139612615108490e-02 -3.7109220027923584e-01</leafValues></_>
        <_>
          <internalNodes>
            0 -1 588 -1.3685467420145869e-03</internalNodes>
          <leafValues>
            -3.3438861370086670e-01 7.7373936772346497e-02</leafValues></_>
        <_>
          <internalNodes>
            0 -1 328 -1.1158155277371407e-02</internalNodes>
          <leafValues>
            -4.9270460009574890e-01 5.1790460944175720e-02</leafValues></_>
        <_>
          <internalNodes>
            0 -1 399 -2.4102011229842901e-03</internalNodes>
          <leafValues>
            2.4423715472221375e-01 -1.2609055638313293e-01</leafValues></_>
        <_>
          <internalNodes>
            0 -1 494 -5.4740523919463158e-03</internalNodes>
          <leafValues>
            3.5268586874008179e-01 -8.9887164533138275e-02</leafValues></_>
        <_>
          <internalNodes>
            0 -1 556 -3.8679905701428652e-03</internalNodes>
          <leafValues>
            5.4081827402114868e-01 -5.1358606666326523e-02</leafValues></_>
        <_>
          <internalNodes>
            0 -1 511 1.0801712051033974e-02</internalNodes>
          <leafValues>
            4.4942721724510193e-02 -7.2170954942703247e-01</leafValues></_>
        <_>
          <internalNodes>
            0 -1 545 4.2291881982237101e-04</internalNodes>
          <leafValues>
            7.7056430280208588e-02 -3.2893234491348267e-01</leafValues></_>
        <_>
          <internalNodes>
            0 -1 355 9.2875066911801696e-05</internalNodes>
          <leafValues>
            -9.8318330943584442e-02 2.9002198576927185e-01</leafValues></_>
        <_>
          <internalNodes>
            0 -1 352 1.5137884765863419e-03</internalNodes>
          <leafValues>
            6.5025150775909424e-02 -4.4499403238296509e-01</leafValues></_>
        <_>
          <internalNodes>
            0 -1 645 2.4656062014400959e-03</internalNodes>
          <leafValues>
            -7.6143950223922729e-02 3.5772338509559631e-01</leafValues></_>
        <_>
          <internalNodes>
            0 -1 146 -2.1192967891693115e-02</internalNodes>
          <leafValues>
            3.6431640386581421e-01 -7.4273012578487396e-02</leafValues></_>
        <_>
          <internalNodes>
            0 -1 77 -1.4056089520454407e-01</internalNodes>
          <leafValues>
            -8.7880373001098633e-01 3.0340580269694328e-02</leafValues></_>
        <_>
          <internalNodes>
            0 -1 207 4.4472292065620422e-03</internalNodes>
          <leafValues>
            -1.3249622285366058e-01 2.1243311464786530e-01</leafValues></_>
        <_>
          <internalNodes>
            0 -1 504 4.0574399754405022e-03</internalNodes>
          <leafValues>
            5.3301807492971420e-02 -5.5183815956115723e-01</leafValues></_>
        <_>
          <internalNodes>
            0 -1 405 2.2728438489139080e-04</internalNodes>
          <leafValues>
            -1.8297044932842255e-01 1.8596443533897400e-01</leafValues></_>
        <_>
          <internalNodes>
            0 -1 187 -5.2592491556424648e-05</internalNodes>
          <leafValues>
            1.0373966395854950e-01 -2.5130140781402588e-01</leafValues></_>
        <_>
          <internalNodes>
            0 -1 441 -2.5815312983468175e-04</internalNodes>
          <leafValues>
            -2.2997641563415527e-01 1.2376128137111664e-01</leafValues></_>
        <_>
          <internalNodes>
            0 -1 424 -6.3379164785146713e-03</internalNodes>
          <leafValues>
            3.1820425391197205e-01 -9.3297615647315979e-02</leafValues></_>
        <_>
          <internalNodes>
            0 -1 594 -8.0232452601194382e-03</internalNodes>
          <leafValues>
            4.4297453761100769e-01 -5.9403009712696075e-02</leafValues></_>
        <_>
          <internalNodes>
            0 -1 508 -5.5256369523704052e-04</internalNodes>
          <leafValues>
            1.9970406591892242e-01 -1.4112538099288940e-01</leafValues></_>
        <_>
          <internalNodes>
            0 -1 682 2.5655967183411121e-03</internalNodes>
          <leafValues>
            7.8373819589614868e-02 -3.5217228531837463e-01</leafValues></_>
        <_>
          <internalNodes>
            0 -1 429 -1.0487751569598913e-03</internalNodes>
          <leafValues>
            1.7917303740978241e-01 -1.5794956684112549e-01</leafValues></_></weakClassifiers></_>
    <!-- stage 12 -->
    <_>
      <maxWeakCount>49</maxWeakCount>
      <stageThreshold>-8.7981981039047241e-01</stageThreshold>
      <weakClassifiers>
        <_>
          <internalNodes>
            0 -1 10 -4.6191942691802979e-01</internalNodes>
          <leafValues>
            6.6967743635177612e-01 4.9846153706312180e-02</leafValues></_>
        <_>
          <internalNodes>
            0 -1 384 1.4101502019912004e-03</internalNodes>
          <leafValues>
            -2.2262768447399139e-01 1.8279629945755005e-01</leafValues></_>
        <_>
          <internalNodes>
            0 -1 7 -6.6518563032150269e-01</internalNodes>
          <leafValues>
            6.6468584537506104e-01 -6.0265824198722839e-02</leafValues></_>
        <_>
          <internalNodes>
            0 -1 169 5.2449055016040802e-02</internalNodes>
          <leafValues>
            -1.0827976465225220e-01 4.5051056146621704e-01</leafValues></_>
        <_>
          <internalNodes>
            0 -1 249 -1.9378523575142026e-04</internalNodes>
          <leafValues>
            1.3340300321578979e-01 -2.8117313981056213e-01</leafValues></_>
        <_>
          <internalNodes>
            0 -1 270 -5.3171329200267792e-03</internalNodes>
          <leafValues>
            2.1085394918918610e-01 -1.6808564960956573e-01</leafValues></_>
        <_>
          <internalNodes>
            0 -1 618 1.2663275992963463e-04</internalNodes>
          <leafValues>
            1.5769144892692566e-01 -2.1558085083961487e-01</leafValues></_>
        <_>
          <internalNodes>
            0 -1 211 -5.8527230285108089e-03</internalNodes>
          <leafValues>
            4.4150486588478088e-01 -6.6715784370899200e-02</leafValues></_>
        <_>
          <internalNodes>
            0 -1 528 1.1628506705164909e-02</internalNodes>
          <leafValues>
            -9.3177385628223419e-02 3.4853303432464600e-01</leafValues></_>
        <_>
          <internalNodes>
            0 -1 388 2.0515560754574835e-04</internalNodes>
          <leafValues>
            -2.2893796861171722e-01 1.6699846088886261e-01</leafValues></_>
        <_>
          <internalNodes>
            0 -1 64 -2.3711819667369127e-03</internalNodes>
          <leafValues>
            -3.0529966950416565e-01 1.0364791750907898e-01</leafValues></_>
        <_>
          <internalNodes>
            0 -1 470 -6.7554810084402561e-03</internalNodes>
          <leafValues>
            5.0226372480392456e-01 -6.1826508492231369e-02</leafValues></_>
        <_>
          <internalNodes>
            0 -1 521 -1.2546498328447342e-03</internalNodes>
          <leafValues>
            1.3212192058563232e-01 -3.1999191641807556e-01</leafValues></_>
        <_>
          <internalNodes>
            0 -1 264 1.4417905360460281e-02</internalNodes>
          <leafValues>
            -5.2714031189680099e-02 4.9888536334037781e-01</leafValues></_>
        <_>
          <internalNodes>
            0 -1 165 -8.6605530232191086e-03</internalNodes>
          <leafValues>
            2.2110357880592346e-01 -1.2132936716079712e-01</leafValues></_>
        <_>
          <internalNodes>
            0 -1 344 -3.2234042882919312e-02</internalNodes>
          <leafValues>
            8.7824046611785889e-01 -4.0161617100238800e-02</leafValues></_>
        <_>
          <internalNodes>
            0 -1 269 -8.5727672558277845e-04</internalNodes>
          <leafValues>
            1.7799495160579681e-01 -1.6659313440322876e-01</leafValues></_>
        <_>
          <internalNodes>
            0 -1 683 2.7216407470405102e-03</internalNodes>
          <leafValues>
            7.1068011224269867e-02 -3.7132939696311951e-01</leafValues></_>
        <_>
          <internalNodes>
            0 -1 213 -1.0060979053378105e-02</internalNodes>
          <leafValues>
            -6.1165159940719604e-01 3.6703955382108688e-02</leafValues></_>
        <_>
          <internalNodes>
            0 -1 362 -1.3965248363092542e-03</internalNodes>
          <leafValues>
            2.6365330815315247e-01 -9.8739795386791229e-02</leafValues></_>
        <_>
          <internalNodes>
            0 -1 527 -7.1744120214134455e-04</internalNodes>
          <leafValues>
            -1.6299372911453247e-01 1.6582928597927094e-01</leafValues></_>
        <_>
          <internalNodes>
            0 -1 163 8.1675216555595398e-02</internalNodes>
          <leafValues>
            4.4061105698347092e-02 -7.8081631660461426e-01</leafValues></_>
        <_>
          <internalNodes>
            0 -1 266 1.1238368460908532e-03</internalNodes>
          <leafValues>
            1.0181513428688049e-01 -2.9475417733192444e-01</leafValues></_>
        <_>
          <internalNodes>
            0 -1 538 2.1679757628589869e-04</internalNodes>
          <leafValues>
            8.6979448795318604e-02 -3.0119237303733826e-01</leafValues></_>
        <_>
          <internalNodes>
            0 -1 632 -1.3523192610591650e-03</internalNodes>
          <leafValues>
            2.5789383053779602e-01 -1.1170417815446854e-01</leafValues></_>
        <_>
          <internalNodes>
            0 -1 581 -3.0933194793760777e-03</internalNodes>
          <leafValues>
            3.2986721396446228e-01 -9.7098641097545624e-02</leafValues></_>
        <_>
          <internalNodes>
            0 -1 582 -1.0678467806428671e-03</internalNodes>
          <leafValues>
            2.3800596594810486e-01 -1.1879236251115799e-01</leafValues></_>
        <_>
          <internalNodes>
            0 -1 414 4.8370080185122788e-04</internalNodes>
          <leafValues>
            8.7356440722942352e-02 -3.2048609852790833e-01</leafValues></_>
        <_>
          <internalNodes>
            0 -1 183 -6.2487949617207050e-04</internalNodes>
          <leafValues>
            1.6785728931427002e-01 -1.5228895843029022e-01</leafValues></_>
        <_>
          <internalNodes>
            0 -1 174 3.7224675179459155e-04</internalNodes>
          <leafValues>
            -1.3998746871948242e-01 2.2804355621337891e-01</leafValues></_>
        <_>
          <internalNodes>
            0 -1 531 2.4794985074549913e-04</internalNodes>
          <leafValues>
            7.4826784431934357e-02 -3.6916026473045349e-01</leafValues></_>
        <_>
          <internalNodes>
            0 -1 46 -2.1434350311756134e-01</internalNodes>
          <leafValues>
            -8.6695361137390137e-01 2.7030531316995621e-02</leafValues></_>
        <_>
          <internalNodes>
            0 -1 675 -9.0316974092274904e-04</internalNodes>
          <leafValues>
            -3.4696936607360840e-01 7.3807649314403534e-02</leafValues></_>
        <_>
          <internalNodes>
            0 -1 647 3.8384008221328259e-03</internalNodes>
          <leafValues>
            -1.2225583195686340e-01 2.1871620416641235e-01</leafValues></_>
        <_>
          <internalNodes>
            0 -1 644 -2.9029215511400253e-05</internalNodes>
          <leafValues>
            2.4332594871520996e-01 -1.5785670280456543e-01</leafValues></_>
        <_>
          <internalNodes>
            0 -1 216 7.2307758964598179e-03</internalNodes>
          <leafValues>
            6.0289837419986725e-02 -4.4271478056907654e-01</leafValues></_>
        <_>
          <internalNodes>
            0 -1 345 -2.4191755801439285e-02</internalNodes>
          <leafValues>
            -3.7508624792098999e-01 7.3980778455734253e-02</leafValues></_>
        <_>
          <internalNodes>
            0 -1 676 2.2404981427825987e-04</internalNodes>
          <leafValues>
            1.0144783556461334e-01 -2.6461967825889587e-01</leafValues></_>
        <_>
          <internalNodes>
            0 -1 403 -3.7117239553481340e-03</internalNodes>
          <leafValues>
            2.2740383446216583e-01 -1.2565360963344574e-01</leafValues></_>
        <_>
          <internalNodes>
            0 -1 525 -1.8125158967450261e-03</internalNodes>
          <leafValues>
            -2.5049147009849548e-01 1.0577907413244247e-01</leafValues></_>
        <_>
          <internalNodes>
            0 -1 689 2.3074487689882517e-03</internalNodes>
          <leafValues>
            6.2282841652631760e-02 -3.7746831774711609e-01</leafValues></_>
        <_>
          <internalNodes>
            0 -1 688 -1.9850414246320724e-03</internalNodes>
          <leafValues>
            -3.2969290018081665e-01 7.7207803726196289e-02</leafValues></_>
        <_>
          <internalNodes>
            0 -1 413 1.3736626133322716e-03</internalNodes>
          <leafValues>
            -8.2019776105880737e-02 3.0324640870094299e-01</leafValues></_>
        <_>
          <internalNodes>
            0 -1 569 2.2400228772312403e-04</internalNodes>
          <leafValues>
            -1.4172314107418060e-01 1.7431192100048065e-01</leafValues></_>
        <_>
          <internalNodes>
            0 -1 58 1.4058968517929316e-03</internalNodes>
          <leafValues>
            6.6167823970317841e-02 -3.6185663938522339e-01</leafValues></_>
        <_>
          <internalNodes>
            0 -1 466 -1.0864672367461026e-04</internalNodes>
          <leafValues>
            1.1830829083919525e-01 -2.1162998676300049e-01</leafValues></_>
        <_>
          <internalNodes>
            0 -1 244 -9.5030700322240591e-04</internalNodes>
          <leafValues>
            1.2246774882078171e-01 -2.1397878229618073e-01</leafValues></_>
        <_>
          <internalNodes>
            0 -1 99 -3.1708773970603943e-01</internalNodes>
          <leafValues>
            -5.9800529479980469e-01 4.5852415263652802e-02</leafValues></_>
        <_>
          <internalNodes>
            0 -1 95 -9.3202248215675354e-02</internalNodes>
          <leafValues>
            -5.9968793392181396e-01 3.6314845085144043e-02</leafValues></_></weakClassifiers></_>
    <!-- stage 13 -->
    <_>
      <maxWeakCount>58</maxWeakCount>
      <stageThreshold>-8.6766576766967773e-01</stageThreshold>
      <weakClassifiers>
        <_>
          <internalNodes>
            0 -1 30 3.1810261309146881e-02</internalNodes>
          <leafValues>
            2.4424778297543526e-02 5.7265824079513550e-01</leafValues></_>
        <_>
          <internalNodes>
            0 -1 8 -3.3814454078674316e-01</internalNodes>
          <leafValues>
            4.7162297368049622e-01 -6.6941492259502411e-02</leafValues></_>
        <_>
          <internalNodes>
            0 -1 570 -1.1608329368755221e-03</internalNodes>
          <leafValues>
            2.2226315736770630e-01 -1.5051507949829102e-01</leafValues></_>
        <_>
          <internalNodes>
            0 -1 78 2.5124067440629005e-02</internalNodes>
          <leafValues>
            -1.0533235967159271e-01 4.3990114331245422e-01</leafValues></_>
        <_>
          <internalNodes>
            0 -1 245 -1.0110014118254185e-03</internalNodes>
          <leafValues>
            1.9162982702255249e-01 -1.9330139458179474e-01</leafValues></_>
        <_>
          <internalNodes>
            0 -1 367 6.4643398218322545e-05</internalNodes>
          <leafValues>
            -2.9478624463081360e-01 9.2364445328712463e-02</leafValues></_>
        <_>
          <internalNodes>
            0 -1 554 -2.2323211305774748e-04</internalNodes>
          <leafValues>
            -2.0108225941658020e-01 1.6807433962821960e-01</leafValues></_>
        <_>
          <internalNodes>
            0 -1 19 -4.4747972860932350e-03</internalNodes>
          <leafValues>
            -3.6581322550773621e-01 7.9689905047416687e-02</leafValues></_>
        <_>
          <internalNodes>
            0 -1 518 -2.5151250883936882e-03</internalNodes>
          <leafValues>
            3.6156401038169861e-01 -6.8790726363658905e-02</leafValues></_>
        <_>
          <internalNodes>
            0 -1 606 2.4943589232861996e-04</internalNodes>
          <leafValues>
            8.0546699464321136e-02 -3.1079143285751343e-01</leafValues></_>
        <_>
          <internalNodes>
            0 -1 134 1.4278881717473269e-03</internalNodes>
          <leafValues>
            -1.1129230260848999e-01 2.3999124765396118e-01</leafValues></_>
        <_>
          <internalNodes>
            0 -1 194 7.7146617695689201e-03</internalNodes>
          <leafValues>
            -6.1181366443634033e-02 4.0218597650527954e-01</leafValues></_>
        <_>
          <internalNodes>
            0 -1 151 9.4062509015202522e-04</internalNodes>
          <leafValues>
            -1.3723245263099670e-01 1.7871282994747162e-01</leafValues></_>
        <_>
          <internalNodes>
            0 -1 250 -1.9975003669969738e-04</internalNodes>
          <leafValues>
            1.0045301914215088e-01 -2.5616076588630676e-01</leafValues></_>
        <_>
          <internalNodes>
            0 -1 668 -1.5905333566479385e-04</internalNodes>
          <leafValues>
            2.1547904610633850e-01 -1.4142745733261108e-01</leafValues></_>
        <_>
          <internalNodes>
            0 -1 623 -1.2669581919908524e-03</internalNodes>
          <leafValues>
            1.8852204084396362e-01 -1.3840392231941223e-01</leafValues></_>
        <_>
          <internalNodes>
            0 -1 674 -2.2025441285222769e-04</internalNodes>
          <leafValues>
            -2.5670942664146423e-01 1.0504482686519623e-01</leafValues></_>
        <_>
          <internalNodes>
            0 -1 456 -1.5200581401586533e-03</internalNodes>
          <leafValues>
            -4.4619092345237732e-01 6.0239329934120178e-02</leafValues></_>
        <_>
          <internalNodes>
            0 -1 449 1.2361048720777035e-04</internalNodes>
          <leafValues>
            1.0560755431652069e-01 -2.4134476482868195e-01</leafValues></_>
        <_>
          <internalNodes>
            0 -1 369 -6.2789104413241148e-04</internalNodes>
          <leafValues>
            1.2723609805107117e-01 -2.2260181605815887e-01</leafValues></_>
        <_>
          <internalNodes>
            0 -1 42 -5.0712227821350098e-03</internalNodes>
          <leafValues>
            -4.4277295470237732e-01 6.6554702818393707e-02</leafValues></_>
        <_>
          <internalNodes>
            0 -1 580 6.5787695348262787e-04</internalNodes>
          <leafValues>
            -2.0690152049064636e-01 1.2557232379913330e-01</leafValues></_>
        <_>
          <internalNodes>
            0 -1 15 -3.1355395913124084e-02</internalNodes>
          <leafValues>
            3.2965376973152161e-01 -1.0183198750019073e-01</leafValues></_>
        <_>
          <internalNodes>
            0 -1 48 -1.7394044995307922e-01</internalNodes>
          <leafValues>
            1.9259312748908997e-01 -1.4659798145294189e-01</leafValues></_>
        <_>
          <internalNodes>
            0 -1 130 7.6427747262641788e-04</internalNodes>
          <leafValues>
            -1.0024268925189972e-01 3.2873979210853577e-01</leafValues></_>
        <_>
          <internalNodes>
            0 -1 440 -1.1901413927262183e-05</internalNodes>
          <leafValues>
            1.0753241926431656e-01 -2.1894018352031708e-01</leafValues></_>
        <_>
          <internalNodes>
            0 -1 280 7.9637663438916206e-03</internalNodes>
          <leafValues>
            9.1064758598804474e-02 -2.8788697719573975e-01</leafValues></_>
        <_>
          <internalNodes>
            0 -1 438 1.3029994443058968e-04</internalNodes>
          <leafValues>
            -1.7063231766223907e-01 1.4988178014755249e-01</leafValues></_>
        <_>
          <internalNodes>
            0 -1 459 2.6999786496162415e-04</internalNodes>
          <leafValues>
            1.0847289115190506e-01 -2.3306688666343689e-01</leafValues></_>
        <_>
          <internalNodes>
            0 -1 661 -2.0596833201125264e-04</internalNodes>
          <leafValues>
            1.7826777696609497e-01 -1.4880387485027313e-01</leafValues></_>
        <_>
          <internalNodes>
            0 -1 195 -7.9523993190377951e-04</internalNodes>
          <leafValues>
            1.7241419851779938e-01 -1.4319111406803131e-01</leafValues></_>
        <_>
          <internalNodes>
            0 -1 394 2.9624840244650841e-03</internalNodes>
          <leafValues>
            -8.8445276021957397e-02 2.8762227296829224e-01</leafValues></_>
        <_>
          <internalNodes>
            0 -1 687 -1.1717561865225434e-03</internalNodes>
          <leafValues>
            -3.9431497454643250e-01 6.9139577448368073e-02</leafValues></_>
        <_>
          <internalNodes>
            0 -1 392 -4.1523985564708710e-03</internalNodes>
          <leafValues>
            2.2160315513610840e-01 -1.1806599795818329e-01</leafValues></_>
        <_>
          <internalNodes>
            0 -1 406 8.4912879392504692e-03</internalNodes>
          <leafValues>
            3.3070322126150131e-02 -7.7970319986343384e-01</leafValues></_>
        <_>
          <internalNodes>
            0 -1 84 -9.3550145626068115e-02</internalNodes>
          <leafValues>
            -5.8691382408142090e-01 3.1920108944177628e-02</leafValues></_>
        <_>
          <internalNodes>
            0 -1 181 1.1171946302056313e-02</internalNodes>
          <leafValues>
            5.6160587817430496e-02 -3.9582264423370361e-01</leafValues></_>
        <_>
          <internalNodes>
            0 -1 260 -1.1009853333234787e-03</internalNodes>
          <leafValues>
            2.8020891547203064e-01 -8.6827397346496582e-02</leafValues></_>
        <_>
          <internalNodes>
            0 -1 341 2.5916371494531631e-02</internalNodes>
          <leafValues>
            -3.7233799695968628e-02 6.5363126993179321e-01</leafValues></_>
        <_>
          <internalNodes>
            0 -1 464 1.1839424259960651e-03</internalNodes>
          <leafValues>
            -3.1571093201637268e-01 9.6922114491462708e-02</leafValues></_>
        <_>
          <internalNodes>
            0 -1 434 -1.4619317371398211e-03</internalNodes>
          <leafValues>
            -2.2856047749519348e-01 1.0913293063640594e-01</leafValues></_>
        <_>
          <internalNodes>
            0 -1 370 9.5834387466311455e-03</internalNodes>
          <leafValues>
            1.0986636579036713e-01 -2.2862912714481354e-01</leafValues></_>
        <_>
          <internalNodes>
            0 -1 421 -4.8770923167467117e-03</internalNodes>
          <leafValues>
            3.9725652337074280e-01 -7.2510577738285065e-02</leafValues></_>
        <_>
          <internalNodes>
            0 -1 139 -1.4843093231320381e-03</internalNodes>
          <leafValues>
            2.2939008474349976e-01 -1.1124048382043839e-01</leafValues></_>
        <_>
          <internalNodes>
            0 -1 73 7.1860775351524353e-03</internalNodes>
          <leafValues>
            -7.8794665634632111e-02 3.2110837101936340e-01</leafValues></_>
        <_>
          <internalNodes>
            0 -1 57 -3.2281707972288132e-03</internalNodes>
          <leafValues>
            -3.8431861996650696e-01 6.5933346748352051e-02</leafValues></_>
        <_>
          <internalNodes>
            0 -1 542 1.9012117991223931e-04</internalNodes>
          <leafValues>
            8.5614398121833801e-02 -2.8467124700546265e-01</leafValues></_>
        <_>
          <internalNodes>
            0 -1 579 -6.7437975667417049e-04</internalNodes>
          <leafValues>
            1.6642376780509949e-01 -1.3646335899829865e-01</leafValues></_>
        <_>
          <internalNodes>
            0 -1 319 1.6542952507734299e-03</internalNodes>
          <leafValues>
            -1.1410225182771683e-01 2.0929871499538422e-01</leafValues></_>
        <_>
          <internalNodes>
            0 -1 541 1.6957381740212440e-04</internalNodes>
          <leafValues>
            9.0900093317031860e-02 -2.7698209881782532e-01</leafValues></_>
        <_>
          <internalNodes>
            0 -1 379 -3.8855960592627525e-03</internalNodes>
          <leafValues>
            4.2195788025856018e-01 -6.5871253609657288e-02</leafValues></_>
        <_>
          <internalNodes>
            0 -1 538 -5.4663344053551555e-04</internalNodes>
          <leafValues>
            -3.6046338081359863e-01 7.2717778384685516e-02</leafValues></_>
        <_>
          <internalNodes>
            0 -1 540 1.2569084065034986e-03</internalNodes>
          <leafValues>
            7.0942692458629608e-02 -3.2890784740447998e-01</leafValues></_>
        <_>
          <internalNodes>
            0 -1 112 2.0358681213110685e-03</internalNodes>
          <leafValues>
            -1.3475571572780609e-01 1.7535914480686188e-01</leafValues></_>
        <_>
          <internalNodes>
            0 -1 560 -3.0271161813288927e-04</internalNodes>
          <leafValues>
            1.0931016504764557e-01 -2.0890441536903381e-01</leafValues></_>
        <_>
          <internalNodes>
            0 -1 50 -2.1464778110384941e-03</internalNodes>
          <leafValues>
            -4.6124958992004395e-01 4.7789398580789566e-02</leafValues></_>
        <_>
          <internalNodes>
            0 -1 172 -3.0635173898190260e-03</internalNodes>
          <leafValues>
            2.7219676971435547e-01 -8.8747739791870117e-02</leafValues></_>
        <_>
          <internalNodes>
            0 -1 316 8.2055889070034027e-03</internalNodes>
          <leafValues>
            -8.2311645150184631e-02 3.4738233685493469e-01</leafValues></_></weakClassifiers></_>
    <!-- stage 14 -->
    <_>
      <maxWeakCount>55</maxWeakCount>
      <stageThreshold>-8.6094379425048828e-01</stageThreshold>
      <weakClassifiers>
        <_>
          <internalNodes>
            0 -1 650 2.5057841092348099e-02</internalNodes>
          <leafValues>
            3.0470913276076317e-02 4.9406072497367859e-01</leafValues></_>
        <_>
          <internalNodes>
            0 -1 567 -9.6108182333409786e-04</internalNodes>
          <leafValues>
            2.4977904558181763e-01 -1.3157546520233154e-01</leafValues></_>
        <_>
          <internalNodes>
            0 -1 230 -5.4396569728851318e-02</internalNodes>
          <leafValues>
            3.5106405615806580e-01 -9.9745549261569977e-02</leafValues></_>
        <_>
          <internalNodes>
            0 -1 649 -1.5740948729217052e-03</internalNodes>
          <leafValues>
            3.7492895126342773e-01 -1.1397389322519302e-01</leafValues></_>
        <_>
          <internalNodes>
            0 -1 116 3.0888973269611597e-03</internalNodes>
          <leafValues>
            6.5879113972187042e-02 -4.4248586893081665e-01</leafValues></_>
        <_>
          <internalNodes>
            0 -1 271 -1.3855916913598776e-03</internalNodes>
          <leafValues>
            1.2495423108339310e-01 -3.1257620453834534e-01</leafValues></_>
        <_>
          <internalNodes>
            0 -1 604 1.6380334272980690e-04</internalNodes>
          <leafValues>
            7.9211741685867310e-02 -3.4711199998855591e-01</leafValues></_>
        <_>
          <internalNodes>
            0 -1 351 1.3000756553083193e-05</internalNodes>
          <leafValues>
            -1.5684382617473602e-01 2.2637183964252472e-01</leafValues></_>
        <_>
          <internalNodes>
            0 -1 617 8.4397592581808567e-04</internalNodes>
          <leafValues>
            -2.5458598136901855e-01 1.0796958953142166e-01</leafValues></_>
        <_>
          <internalNodes>
            0 -1 670 1.4672953402623534e-03</internalNodes>
          <leafValues>
            -1.0311026126146317e-01 2.8480225801467896e-01</leafValues></_>
        <_>
          <internalNodes>
            0 -1 119 6.7046657204627991e-03</internalNodes>
          <leafValues>
            7.0779867470264435e-02 -3.9098736643791199e-01</leafValues></_>
        <_>
          <internalNodes>
            0 -1 39 4.0634888410568237e-01</internalNodes>
          <leafValues>
            -4.8861861228942871e-02 6.7354834079742432e-01</leafValues></_>
        <_>
          <internalNodes>
            0 -1 16 2.9544129967689514e-02</internalNodes>
          <leafValues>
            -1.1583056300878525e-01 2.5249090790748596e-01</leafValues></_>
        <_>
          <internalNodes>
            0 -1 673 -5.7198414579033852e-03</internalNodes>
          <leafValues>
            3.1661307811737061e-01 -8.8023863732814789e-02</leafValues></_>
        <_>
          <internalNodes>
            0 -1 640 -5.6072254665195942e-04</internalNodes>
          <leafValues>
            2.7171313762664795e-01 -1.1415251344442368e-01</leafValues></_>
        <_>
          <internalNodes>
            0 -1 416 -6.7885965108871460e-03</internalNodes>
          <leafValues>
            -4.2097890377044678e-01 6.8651154637336731e-02</leafValues></_>
        <_>
          <internalNodes>
            0 -1 397 8.0273079220205545e-04</internalNodes>
          <leafValues>
            -2.4187220633029938e-01 1.0826487094163895e-01</leafValues></_>
        <_>
          <internalNodes>
            0 -1 559 -1.6796416603028774e-03</internalNodes>
          <leafValues>
            2.6731967926025391e-01 -1.2259659171104431e-01</leafValues></_>
        <_>
          <internalNodes>
            0 -1 458 -1.3328422792255878e-03</internalNodes>
          <leafValues>
            -3.3161243796348572e-01 9.7112327814102173e-02</leafValues></_>
        <_>
          <internalNodes>
            0 -1 565 4.8118019476532936e-03</internalNodes>
          <leafValues>
            -7.6613612473011017e-02 3.8077342510223389e-01</leafValues></_>
        <_>
          <internalNodes>
            0 -1 106 1.2264549732208252e-03</internalNodes>
          <leafValues>
            -9.7042165696620941e-02 2.8446993231773376e-01</leafValues></_>
        <_>
          <internalNodes>
            0 -1 568 -1.2252003216417506e-05</internalNodes>
          <leafValues>
            1.7856332659721375e-01 -1.4695557951927185e-01</leafValues></_>
        <_>
          <internalNodes>
            0 -1 151 2.4900622665882111e-03</internalNodes>
          <leafValues>
            -1.1579980701208115e-01 2.2912760078907013e-01</leafValues></_>
        <_>
          <internalNodes>
            0 -1 448 4.2710051639005542e-04</internalNodes>
          <leafValues>
            6.9531567394733429e-02 -4.1297960281372070e-01</leafValues></_>
        <_>
          <internalNodes>
            0 -1 347 2.2655613720417023e-03</internalNodes>
          <leafValues>
            -7.0929914712905884e-02 4.4306516647338867e-01</leafValues></_>
        <_>
          <internalNodes>
            0 -1 317 3.2818606123328209e-03</internalNodes>
          <leafValues>
            -1.0964976996183395e-01 2.4315972626209259e-01</leafValues></_>
        <_>
          <internalNodes>
            0 -1 318 3.3814546186476946e-03</internalNodes>
          <leafValues>
            -1.2286633253097534e-01 2.3272164165973663e-01</leafValues></_>
        <_>
          <internalNodes>
            0 -1 634 1.2420453131198883e-03</internalNodes>
          <leafValues>
            6.9875277578830719e-02 -4.1885361075401306e-01</leafValues></_>
        <_>
          <internalNodes>
            0 -1 531 -5.5236136540770531e-04</internalNodes>
          <leafValues>
            -2.3972664773464203e-01 1.0422886908054352e-01</leafValues></_>
        <_>
          <internalNodes>
            0 -1 224 -1.4952304773032665e-03</internalNodes>
          <leafValues>
            1.3076433539390564e-01 -2.0793242752552032e-01</leafValues></_>
        <_>
          <internalNodes>
            0 -1 510 -5.0587537698447704e-03</internalNodes>
          <leafValues>
            2.5789543986320496e-01 -9.7890846431255341e-02</leafValues></_>
        <_>
          <internalNodes>
            0 -1 523 -2.5322861620225012e-04</internalNodes>
          <leafValues>
            1.0589458048343658e-01 -2.4466398358345032e-01</leafValues></_>
        <_>
          <internalNodes>
