<?xml version="1.0"?>
<opencv_storage>
<cascade>
  <stageType>BOOST</stageType>
  <featureType>HAAR</featureType>
  <height>50</height>
  <width>50</width>
  <stageParams>
    <boostType>GAB</boostType>
    <minHitRate>9.9500000476837158e-01</minHitRate>
    <maxFalseAlarm>5.0000000000000000e-01</maxFalseAlarm>
    <weightTrimRate>9.4999999999999996e-01</weightTrimRate>
    <maxDepth>1</maxDepth>
    <maxWeakCount>100</maxWeakCount></stageParams>
  <featureParams>
    <maxCatCount>0</maxCatCount>
    <featSize>1</featSize>
    <mode>BASIC</mode></featureParams>
  <stageNum>20</stageNum>
  <stages>
    <!-- stage 0 -->
    <_>
      <maxWeakCount>5</maxWeakCount>
      <stageThreshold>-2.6324188709259033e-01</stageThreshold>
      <weakClassifiers>
        <_>
          <internalNodes>
            0 -1 222 7.1158683858811855e-03</internalNodes>
          <leafValues>
            7.9122179746627808e-01 -7.2972971200942993e-01</leafValues></_>
        <_>
          <internalNodes>
            0 -1 116 -3.2170265913009644e-02</internalNodes>
          <leafValues>
            7.1292525529861450e-01 -3.0937117338180542e-01</leafValues></_>
        <_>
          <internalNodes>
            0 -1 350 -1.0966533591272309e-04</internalNodes>
          <leafValues>
            5.7320177555084229e-01 -3.8697361946105957e-01</leafValues></_>
        <_>
          <internalNodes>
            0 -1 323 -2.3543162387795746e-04</internalNodes>
          <leafValues>
            5.5165582895278931e-01 -3.3313781023025513e-01</leafValues></_>
        <_>
          <internalNodes>
            0 -1 192 9.6031394787132740e-04</internalNodes>
          <leafValues>
            -3.3740469813346863e-01 6.1117678880691528e-01</leafValues></_></weakClassifiers></_>
    <!-- stage 1 -->
    <_>
      <maxWeakCount>10</maxWeakCount>
      <stageThreshold>-3.8094204664230347e-01</stageThreshold>
      <weakClassifiers>
        <_>
          <internalNodes>
            0 -1 376 1.7531996127218008e-03</internalNodes>
          <leafValues>
            7.7626001834869385e-01 -6.2337660789489746e-01</leafValues></_>
        <_>
          <internalNodes>
            0 -1 114 -5.1780134439468384e-02</internalNodes>
          <leafValues>
            6.1859393119812012e-01 -1.5074922144412994e-01</leafValues></_>
        <_>
          <internalNodes>
            0 -1 332 -5.3795985877513885e-04</internalNodes>
          <leafValues>
            6.3013631105422974e-01 -2.0317032933235168e-01</leafValues></_>
        <_>
          <internalNodes>
            0 -1 349 -1.2518436415120959e-04</internalNodes>
          <leafValues>
            4.6502017974853516e-01 -2.8183481097221375e-01</leafValues></_>
        <_>
          <internalNodes>
            0 -1 329 -4.8562104348093271e-04</internalNodes>
          <leafValues>
            3.0216345191001892e-01 -4.4756716489791870e-01</leafValues></_>
        <_>
          <internalNodes>
            0 -1 387 -6.3864756375551224e-03</internalNodes>
          <leafValues>
            4.7206392884254456e-01 -2.8008514642715454e-01</leafValues></_>
        <_>
          <internalNodes>
            0 -1 267 -2.8221616521477699e-03</internalNodes>
          <leafValues>
            6.0911315679550171e-01 -1.9902759790420532e-01</leafValues></_>
        <_>
          <internalNodes>
            0 -1 186 1.1131372302770615e-03</internalNodes>
          <leafValues>
            1.5617936849594116e-01 -8.1501650810241699e-01</leafValues></_>
        <_>
          <internalNodes>
            0 -1 3 -5.6396417319774628e-02</internalNodes>
          <leafValues>
            7.3197871446609497e-01 -1.9566147029399872e-01</leafValues></_>
        <_>
          <internalNodes>
            0 -1 379 -4.9253867473453283e-04</internalNodes>
          <leafValues>
            3.1087324023246765e-01 -3.8859233260154724e-01</leafValues></_></weakClassifiers></_>
    <!-- stage 2 -->
    <_>
      <maxWeakCount>12</maxWeakCount>
      <stageThreshold>-5.3718245029449463e-01</stageThreshold>
      <weakClassifiers>
        <_>
          <internalNodes>
            0 -1 0 -5.8778142929077148e-01</internalNodes>
          <leafValues>
            -4.1782729327678680e-02 7.9559516906738281e-01</leafValues></_>
        <_>
          <internalNodes>
            0 -1 98 -1.3784179091453552e-01</internalNodes>
          <leafValues>
            8.0053251981735229e-01 -6.7044101655483246e-02</leafValues></_>
        <_>
          <internalNodes>
            0 -1 399 5.2602164447307587e-02</internalNodes>
          <leafValues>
            -1.1820762604475021e-01 7.1476340293884277e-01</leafValues></_>
        <_>
          <internalNodes>
            0 -1 101 1.3509117998182774e-02</internalNodes>
          <leafValues>
            -1.5989761054515839e-01 6.9611984491348267e-01</leafValues></_>
        <_>
          <internalNodes>
            0 -1 304 -7.7206996502354741e-04</internalNodes>
          <leafValues>
            -5.9191334247589111e-01 2.6622375845909119e-01</leafValues></_>
        <_>
          <internalNodes>
            0 -1 113 2.8611453250050545e-02</internalNodes>
          <leafValues>
            -1.8909905850887299e-01 7.7947628498077393e-01</leafValues></_>
        <_>
          <internalNodes>
            0 -1 72 1.1492488533258438e-01</internalNodes>
          <leafValues>
            -1.4151006937026978e-01 7.5830292701721191e-01</leafValues></_>
        <_>
          <internalNodes>
            0 -1 245 2.9785535298287868e-03</internalNodes>
          <leafValues>
            1.8929244577884674e-01 -7.1784406900405884e-01</leafValues></_>
        <_>
          <internalNodes>
            0 -1 142 -2.2344108670949936e-02</internalNodes>
          <leafValues>
            5.0444948673248291e-01 -2.2040733695030212e-01</leafValues></_>
        <_>
          <internalNodes>
            0 -1 172 -1.0493576526641846e-02</internalNodes>
          <leafValues>
            4.5538827776908875e-01 -2.7122345566749573e-01</leafValues></_>
        <_>
          <internalNodes>
            0 -1 71 -1.4477633521892130e-04</internalNodes>
          <leafValues>
            -5.0176650285720825e-01 2.1924050152301788e-01</leafValues></_>
        <_>
          <internalNodes>
            0 -1 86 1.6047216951847076e-02</internalNodes>
          <leafValues>
            -1.8057690560817719e-01 5.9593224525451660e-01</leafValues></_></weakClassifiers></_>
    <!-- stage 3 -->
    <_>
      <maxWeakCount>12</maxWeakCount>
      <stageThreshold>-4.9904400110244751e-01</stageThreshold>
      <weakClassifiers>
        <_>
          <internalNodes>
            0 -1 64 -5.5228613317012787e-02</internalNodes>
          <leafValues>
            -3.2203391194343567e-01 7.8674352169036865e-01</leafValues></_>
        <_>
          <internalNodes>
            0 -1 302 -2.1495486726053059e-04</internalNodes>
          <leafValues>
            5.9716880321502686e-01 -1.3281852006912231e-01</leafValues></_>
        <_>
          <internalNodes>
            0 -1 121 -1.3741049915552139e-02</internalNodes>
          <leafValues>
            5.4055511951446533e-01 -2.4420970678329468e-01</leafValues></_>
        <_>
          <internalNodes>
            0 -1 187 5.9647508896887302e-04</internalNodes>
          <leafValues>
            -3.4112975001335144e-01 3.6764228343963623e-01</leafValues></_>
        <_>
          <internalNodes>
            0 -1 211 -3.4012529067695141e-03</internalNodes>
          <leafValues>
            4.6592846512794495e-01 -2.9941606521606445e-01</leafValues></_>
        <_>
          <internalNodes>
            0 -1 158 5.1168501377105713e-03</internalNodes>
          <leafValues>
            -1.9733999669551849e-01 6.6397434473037720e-01</leafValues></_>
        <_>
          <internalNodes>
            0 -1 425 4.0531955659389496e-02</internalNodes>
          <leafValues>
            -1.6753128170967102e-01 6.2419098615646362e-01</leafValues></_>
        <_>
          <internalNodes>
            0 -1 395 -4.2377883801236749e-05</internalNodes>
          <leafValues>
            2.8268864750862122e-01 -4.1926616430282593e-01</leafValues></_>
        <_>
          <internalNodes>
            0 -1 59 5.2901455201208591e-03</internalNodes>
          <leafValues>
            -2.2304141521453857e-01 5.6694722175598145e-01</leafValues></_>
        <_>
          <internalNodes>
            0 -1 358 -5.6309597566723824e-03</internalNodes>
          <leafValues>
            6.3495409488677979e-01 -1.6598993539810181e-01</leafValues></_>
        <_>
          <internalNodes>
            0 -1 228 3.3622677619860042e-06</internalNodes>
          <leafValues>
            -4.1483497619628906e-01 2.6919883489608765e-01</leafValues></_>
        <_>
          <internalNodes>
            0 -1 377 1.1358398478478193e-03</internalNodes>
          <leafValues>
            -1.4750902354717255e-01 8.1932580471038818e-01</leafValues></_></weakClassifiers></_>
    <!-- stage 4 -->
    <_>
      <maxWeakCount>17</maxWeakCount>
      <stageThreshold>-2.5256487727165222e-01</stageThreshold>
      <weakClassifiers>
        <_>
          <internalNodes>
            0 -1 190 3.7881620228290558e-03</internalNodes>
          <leafValues>
            7.5434529781341553e-01 -6.4705884456634521e-01</leafValues></_>
        <_>
          <internalNodes>
            0 -1 96 -1.8699514865875244e-01</internalNodes>
          <leafValues>
            7.0806205272674561e-01 -2.9551252722740173e-02</leafValues></_>
        <_>
          <internalNodes>
            0 -1 275 -2.7226412203162909e-03</internalNodes>
          <leafValues>
            5.5380767583847046e-01 -1.6521824896335602e-01</leafValues></_>
        <_>
          <internalNodes>
            0 -1 319 -2.4230158887803555e-03</internalNodes>
          <leafValues>
            6.5853595733642578e-01 -2.1323001384735107e-01</leafValues></_>
        <_>
          <internalNodes>
            0 -1 298 -7.8544730786234140e-04</internalNodes>
          <leafValues>
            3.4561467170715332e-01 -2.8191870450973511e-01</leafValues></_>
        <_>
          <internalNodes>
            0 -1 367 -9.9608302116394043e-04</internalNodes>
          <leafValues>
            3.1027826666831970e-01 -3.1217098236083984e-01</leafValues></_>
        <_>
          <internalNodes>
            0 -1 128 -3.1251646578311920e-02</internalNodes>
          <leafValues>
            5.7519024610519409e-01 -1.8359243869781494e-01</leafValues></_>
        <_>
          <internalNodes>
            0 -1 81 -2.7827355079352856e-03</internalNodes>
          <leafValues>
            4.0081983804702759e-01 -2.1364754438400269e-01</leafValues></_>
        <_>
          <internalNodes>
            0 -1 295 -1.4753945288248360e-04</internalNodes>
          <leafValues>
            3.0069941282272339e-01 -2.8948432207107544e-01</leafValues></_>
        <_>
          <internalNodes>
            0 -1 62 9.5159877091646194e-03</internalNodes>
          <leafValues>
            -1.5050199627876282e-01 5.1616406440734863e-01</leafValues></_>
        <_>
          <internalNodes>
            0 -1 336 1.0793426772579551e-03</internalNodes>
          <leafValues>
            1.2063755095005035e-01 -6.8582624197006226e-01</leafValues></_>
        <_>
          <internalNodes>
            0 -1 22 -9.9168270826339722e-03</internalNodes>
          <leafValues>
            7.7373182773590088e-01 -1.1995656788349152e-01</leafValues></_>
        <_>
          <internalNodes>
            0 -1 4 -3.7822481244802475e-02</internalNodes>
          <leafValues>
            4.8444309830665588e-01 -1.5507423877716064e-01</leafValues></_>
        <_>
          <internalNodes>
            0 -1 314 9.4341824296861887e-04</internalNodes>
          <leafValues>
            -1.8544203042984009e-01 4.6634766459465027e-01</leafValues></_>
        <_>
          <internalNodes>
            0 -1 260 -7.6137902215123177e-03</internalNodes>
          <leafValues>
            7.7174693346023560e-01 -1.1068087816238403e-01</leafValues></_>
        <_>
          <internalNodes>
            0 -1 268 7.4799131834879518e-04</internalNodes>
          <leafValues>
            1.5828573703765869e-01 -6.1753416061401367e-01</leafValues></_>
        <_>
          <internalNodes>
            0 -1 91 -2.1312979515641928e-03</internalNodes>
          <leafValues>
            6.6416823863983154e-01 -1.3221405446529388e-01</leafValues></_></weakClassifiers></_>
    <!-- stage 5 -->
    <_>
      <maxWeakCount>20</maxWeakCount>
      <stageThreshold>-1.8522024154663086e-01</stageThreshold>
      <weakClassifiers>
        <_>
          <internalNodes>
            0 -1 365 1.9144851248711348e-03</internalNodes>
          <leafValues>
            7.6073187589645386e-01 -3.1386861205101013e-01</leafValues></_>
        <_>
          <internalNodes>
            0 -1 446 2.1796870976686478e-02</internalNodes>
          <leafValues>
            -1.5162498690187931e-02 6.2621814012527466e-01</leafValues></_>
        <_>
          <internalNodes>
            0 -1 289 -8.3672925829887390e-03</internalNodes>
          <leafValues>
            8.0233073234558105e-01 -7.2661474347114563e-02</leafValues></_>
        <_>
          <internalNodes>
            0 -1 276 -1.8058851128444076e-03</internalNodes>
          <leafValues>
            3.2056766748428345e-01 -3.4322562813758850e-01</leafValues></_>
        <_>
          <internalNodes>
            0 -1 230 -2.8141777962446213e-02</internalNodes>
          <leafValues>
            5.2398800849914551e-01 -1.4147645235061646e-01</leafValues></_>
        <_>
          <internalNodes>
            0 -1 408 2.0322632044553757e-03</internalNodes>
          <leafValues>
            1.7356956005096436e-01 -4.9885550141334534e-01</leafValues></_>
        <_>
          <internalNodes>
            0 -1 215 -2.8165148105472326e-03</internalNodes>
          <leafValues>
            5.0599199533462524e-01 -1.4282886683940887e-01</leafValues></_>
        <_>
          <internalNodes>
            0 -1 130 -4.1087638586759567e-02</internalNodes>
          <leafValues>
            6.2290275096893311e-01 -1.3252782821655273e-01</leafValues></_>
        <_>
          <internalNodes>
            0 -1 288 2.6818108744919300e-03</internalNodes>
          <leafValues>
            -1.5006215870380402e-01 4.3914261460304260e-01</leafValues></_>
        <_>
          <internalNodes>
            0 -1 254 -1.2331793084740639e-02</internalNodes>
          <leafValues>
            4.9028882384300232e-01 -1.5962064266204834e-01</leafValues></_>
        <_>
          <internalNodes>
            0 -1 467 1.5748097212053835e-04</internalNodes>
          <leafValues>
            1.8390634655952454e-01 -3.8248953223228455e-01</leafValues></_>
        <_>
          <internalNodes>
            0 -1 21 -2.4960048496723175e-02</internalNodes>
          <leafValues>
            3.1564426422119141e-01 -2.1908290684223175e-01</leafValues></_>
        <_>
          <internalNodes>
            0 -1 36 -2.7969514951109886e-02</internalNodes>
          <leafValues>
            6.6227841377258301e-01 -1.3073799014091492e-01</leafValues></_>
        <_>
          <internalNodes>
            0 -1 296 -1.6840769676491618e-03</internalNodes>
          <leafValues>
            2.6522648334503174e-01 -2.8058961033821106e-01</leafValues></_>
        <_>
          <internalNodes>
            0 -1 46 8.6671030148863792e-03</internalNodes>
          <leafValues>
            -1.2203031033277512e-01 5.8927929401397705e-01</leafValues></_>
        <_>
          <internalNodes>
            0 -1 177 -8.7153050117194653e-04</internalNodes>
          <leafValues>
            5.5489534139633179e-01 -1.3372953236103058e-01</leafValues></_>
        <_>
          <internalNodes>
            0 -1 255 -2.1510804072022438e-03</internalNodes>
          <leafValues>
            -6.4367848634719849e-01 1.2402226030826569e-01</leafValues></_>
        <_>
          <internalNodes>
            0 -1 38 -2.9350074008107185e-02</internalNodes>
          <leafValues>
            4.9549776315689087e-01 -1.5208140015602112e-01</leafValues></_>
        <_>
          <internalNodes>
            0 -1 348 -1.8950549419969320e-03</internalNodes>
          <leafValues>
            -7.1014398336410522e-01 1.0399828851222992e-01</leafValues></_>
        <_>
          <internalNodes>
            0 -1 324 -1.5224376693367958e-04</internalNodes>
          <leafValues>
            2.3354901373386383e-01 -3.1622979044914246e-01</leafValues></_></weakClassifiers></_>
    <!-- stage 6 -->
    <_>
      <maxWeakCount>20</maxWeakCount>
      <stageThreshold>-2.1762840449810028e-01</stageThreshold>
      <weakClassifiers>
        <_>
          <internalNodes>
            0 -1 346 5.6860009208321571e-03</internalNodes>
          <leafValues>
            7.5057846307754517e-01 -5.6410259008407593e-01</leafValues></_>
        <_>
          <internalNodes>
            0 -1 197 6.6058302763849497e-04</internalNodes>
          <leafValues>
            -6.5743833780288696e-02 5.2985781431198120e-01</leafValues></_>
        <_>
          <internalNodes>
            0 -1 224 -1.0634070262312889e-02</internalNodes>
          <leafValues>
            3.5301211476325989e-01 -2.7309721708297729e-01</leafValues></_>
        <_>
          <internalNodes>
            0 -1 137 -7.3317503556609154e-03</internalNodes>
          <leafValues>
            4.2122042179107666e-01 -1.9002737104892731e-01</leafValues></_>
        <_>
          <internalNodes>
            0 -1 99 -1.3203494250774384e-02</internalNodes>
          <leafValues>
            5.0247341394424438e-01 -1.9579784572124481e-01</leafValues></_>
        <_>
          <internalNodes>
            0 -1 212 -5.5292518809437752e-03</internalNodes>
          <leafValues>
            4.8394221067428589e-01 -1.6170537471771240e-01</leafValues></_>
        <_>
          <internalNodes>
            0 -1 389 -4.2131684720516205e-02</internalNodes>
          <leafValues>
            7.8828996419906616e-01 -1.1306758224964142e-01</leafValues></_>
        <_>
          <internalNodes>
            0 -1 256 -1.0793283581733704e-03</internalNodes>
          <leafValues>
            4.7014236450195312e-01 -1.4033666253089905e-01</leafValues></_>
        <_>
          <internalNodes>
            0 -1 320 -5.2391095086932182e-03</internalNodes>
          <leafValues>
            -6.5365117788314819e-01 1.2465497851371765e-01</leafValues></_>
        <_>
          <internalNodes>
            0 -1 339 -2.4257958866655827e-03</internalNodes>
          <leafValues>
            3.0663588643074036e-01 -2.5993022322654724e-01</leafValues></_>
        <_>
          <internalNodes>
            0 -1 25 5.7030157186090946e-03</internalNodes>
          <leafValues>
            -1.8600548803806305e-01 4.2217952013015747e-01</leafValues></_>
        <_>
          <internalNodes>
            0 -1 8 -1.7861921340227127e-02</internalNodes>
          <leafValues>
            5.4435503482818604e-01 -1.3355772197246552e-01</leafValues></_>
        <_>
          <internalNodes>
            0 -1 152 2.8250222094357014e-03</internalNodes>
          <leafValues>
            -1.7282630503177643e-01 4.3043091893196106e-01</leafValues></_>
        <_>
          <internalNodes>
            0 -1 258 4.1968323290348053e-02</internalNodes>
          <leafValues>
            -1.7404139041900635e-01 4.1366642713546753e-01</leafValues></_>
        <_>
          <internalNodes>
            0 -1 291 -4.2037695646286011e-02</internalNodes>
          <leafValues>
            6.7927598953247070e-01 -9.8911114037036896e-02</leafValues></_>
        <_>
          <internalNodes>
            0 -1 182 1.2741403188556433e-03</internalNodes>
          <leafValues>
            -8.4110595285892487e-02 7.5806123018264771e-01</leafValues></_>
        <_>
          <internalNodes>
            0 -1 169 7.2725291829556227e-04</internalNodes>
          <leafValues>
            -1.5137386322021484e-01 4.5918157696723938e-01</leafValues></_>
        <_>
          <internalNodes>
            0 -1 238 1.4348216354846954e-02</internalNodes>
          <leafValues>
            -1.0957842320203781e-01 6.6170191764831543e-01</leafValues></_>
        <_>
          <internalNodes>
            0 -1 138 -1.9250083714723587e-02</internalNodes>
          <leafValues>
            -4.5575895905494690e-01 1.8991933763027191e-01</leafValues></_>
        <_>
          <internalNodes>
            0 -1 139 2.6665572077035904e-02</internalNodes>
          <leafValues>
            1.1843799054622650e-01 -8.0624753236770630e-01</leafValues></_></weakClassifiers></_>
    <!-- stage 7 -->
    <_>
      <maxWeakCount>20</maxWeakCount>
      <stageThreshold>-2.2267483174800873e-01</stageThreshold>
      <weakClassifiers>
        <_>
          <internalNodes>
            0 -1 219 8.2441642880439758e-03</internalNodes>
          <leafValues>
            7.4982720613479614e-01 -9.3220341205596924e-01</leafValues></_>
        <_>
          <internalNodes>
            0 -1 335 3.6742083728313446e-02</internalNodes>
          <leafValues>
            -3.5966496914625168e-02 6.5548282861709595e-01</leafValues></_>
        <_>
          <internalNodes>
            0 -1 14 -4.2207375168800354e-02</internalNodes>
          <leafValues>
            5.1393699645996094e-01 -1.3916021585464478e-01</leafValues></_>
        <_>
          <internalNodes>
            0 -1 436 -1.1381949298083782e-02</internalNodes>
          <leafValues>
            7.5255084037780762e-01 -9.8127610981464386e-02</leafValues></_>
        <_>
          <internalNodes>
            0 -1 78 -1.8023492302745581e-03</internalNodes>
          <leafValues>
            3.5843279957771301e-01 -2.0746327936649323e-01</leafValues></_>
        <_>
          <internalNodes>
            0 -1 315 -5.7968276087194681e-04</internalNodes>
          <leafValues>
            -5.7401025295257568e-01 1.2405504286289215e-01</leafValues></_>
        <_>
          <internalNodes>
            0 -1 228 2.1529183140955865e-04</internalNodes>
          <leafValues>
            -3.5214155912399292e-01 2.3929943144321442e-01</leafValues></_>
        <_>
          <internalNodes>
            0 -1 58 1.0371952317655087e-02</internalNodes>
          <leafValues>
            -1.3074034452438354e-01 6.4412271976470947e-01</leafValues></_>
        <_>
          <internalNodes>
            0 -1 342 1.7528024036437273e-03</internalNodes>
          <leafValues>
            -8.1014379858970642e-02 7.7489596605300903e-01</leafValues></_>
        <_>
          <internalNodes>
            0 -1 384 -1.6623180359601974e-02</internalNodes>
          <leafValues>
            5.0464314222335815e-01 -1.4200179278850555e-01</leafValues></_>
        <_>
          <internalNodes>
            0 -1 316 1.8565740901976824e-03</internalNodes>
          <leafValues>
            -1.0491625219583511e-01 6.4553475379943848e-01</leafValues></_>
        <_>
          <internalNodes>
            0 -1 34 7.0622179191559553e-04</internalNodes>
          <leafValues>
            1.8517163395881653e-01 -4.4122555851936340e-01</leafValues></_>
        <_>
          <internalNodes>
            0 -1 171 -6.5908429678529501e-04</internalNodes>
          <leafValues>
            -4.6391624212265015e-01 1.6635447740554810e-01</leafValues></_>
        <_>
          <internalNodes>
            0 -1 454 1.7189538106322289e-02</internalNodes>
          <leafValues>
            -1.2435369193553925e-01 5.9943026304244995e-01</leafValues></_>
        <_>
          <internalNodes>
            0 -1 445 -1.1299286037683487e-02</internalNodes>
          <leafValues>
            5.5734747648239136e-01 -1.3096173107624054e-01</leafValues></_>
        <_>
          <internalNodes>
            0 -1 318 3.4967061132192612e-02</internalNodes>
          <leafValues>
            -1.6291551291942596e-01 4.5995354652404785e-01</leafValues></_>
        <_>
          <internalNodes>
            0 -1 15 -4.0823068469762802e-02</internalNodes>
          <leafValues>
            4.8741737008094788e-01 -1.3767650723457336e-01</leafValues></_>
        <_>
          <internalNodes>
            0 -1 68 -1.3749669305980206e-03</internalNodes>
          <leafValues>
            2.9340103268623352e-01 -2.2170914709568024e-01</leafValues></_>
        <_>
          <internalNodes>
            0 -1 83 -3.3926323056221008e-02</internalNodes>
          <leafValues>
            4.4504347443580627e-01 -1.5788833796977997e-01</leafValues></_>
        <_>
          <internalNodes>
            0 -1 353 -2.8542429208755493e-04</internalNodes>
          <leafValues>
            -4.3673509359359741e-01 1.6081258654594421e-01</leafValues></_></weakClassifiers></_>
    <!-- stage 8 -->
    <_>
      <maxWeakCount>27</maxWeakCount>
      <stageThreshold>-3.3453750610351562e-01</stageThreshold>
      <weakClassifiers>
        <_>
          <internalNodes>
            0 -1 129 -2.8396461158990860e-02</internalNodes>
          <leafValues>
            -2.5000000000000000e-01 7.4907064437866211e-01</leafValues></_>
        <_>
          <internalNodes>
            0 -1 63 -4.8167370259761810e-02</internalNodes>
          <leafValues>
            5.3863888978958130e-01 -5.9061020612716675e-02</leafValues></_>
        <_>
          <internalNodes>
            0 -1 294 8.9860183652490377e-04</internalNodes>
          <leafValues>
            -1.2398179620504379e-01 4.6432515978813171e-01</leafValues></_>
        <_>
          <internalNodes>
            0 -1 257 9.9447229877114296e-04</internalNodes>
          <leafValues>
            1.3544856011867523e-01 -5.3443729877471924e-01</leafValues></_>
        <_>
          <internalNodes>
            0 -1 253 5.3630792535841465e-04</internalNodes>
          <leafValues>
            -2.3695878684520721e-01 4.0392678976058960e-01</leafValues></_>
        <_>
          <internalNodes>
            0 -1 407 -2.0502011466305703e-04</internalNodes>
          <leafValues>
            2.6282003521919250e-01 -2.6406848430633545e-01</leafValues></_>
        <_>
          <internalNodes>
            0 -1 70 1.3034634292125702e-02</internalNodes>
          <leafValues>
            -1.6652269661426544e-01 5.0914806127548218e-01</leafValues></_>
        <_>
          <internalNodes>
            0 -1 147 6.5486470703035593e-04</internalNodes>
          <leafValues>
            -1.2301769852638245e-01 4.4581785798072815e-01</leafValues></_>
        <_>
          <internalNodes>
            0 -1 149 -7.2742968797683716e-02</internalNodes>
          <leafValues>
            6.7873007059097290e-01 -8.6267836391925812e-02</leafValues></_>
        <_>
          <internalNodes>
            0 -1 143 -9.7827997524291277e-04</internalNodes>
          <leafValues>
            5.3221231698989868e-01 -1.1656393855810165e-01</leafValues></_>
        <_>
          <internalNodes>
            0 -1 270 5.5277522187680006e-04</internalNodes>
          <leafValues>
            9.6891067922115326e-02 -7.2619307041168213e-01</leafValues></_>
        <_>
          <internalNodes>
            0 -1 344 -2.5153160095214844e-03</internalNodes>
          <leafValues>
            8.0164289474487305e-01 -9.8678857088088989e-02</leafValues></_>
        <_>
          <internalNodes>
            0 -1 390 8.9442572789266706e-04</internalNodes>
          <leafValues>
            -7.9605810344219208e-02 7.2277134656906128e-01</leafValues></_>
        <_>
          <internalNodes>
            0 -1 57 6.2688556499779224e-03</internalNodes>
          <leafValues>
            -1.2313564121723175e-01 4.4528257846832275e-01</leafValues></_>
        <_>
          <internalNodes>
            0 -1 31 -1.7333328723907471e-02</internalNodes>
          <leafValues>
            5.3438144922256470e-01 -1.1411792039871216e-01</leafValues></_>
        <_>
          <internalNodes>
            0 -1 475 -1.0430249385535717e-03</internalNodes>
          <leafValues>
            -5.6389713287353516e-01 1.2228783220052719e-01</leafValues></_>
        <_>
          <internalNodes>
            0 -1 380 -1.8177826423197985e-03</internalNodes>
          <leafValues>
            6.3381105661392212e-01 -1.0830037295818329e-01</leafValues></_>
        <_>
          <internalNodes>
            0 -1 151 5.1066754385828972e-03</internalNodes>
          <leafValues>
            -1.3587248325347900e-01 4.4688713550567627e-01</leafValues></_>
        <_>
          <internalNodes>
            0 -1 157 1.4736738521605730e-03</internalNodes>
          <leafValues>
            -6.8283557891845703e-02 8.2027679681777954e-01</leafValues></_>
        <_>
          <internalNodes>
            0 -1 43 3.2205530442297459e-04</internalNodes>
          <leafValues>
            1.6176906228065491e-01 -4.1264048218727112e-01</leafValues></_>
        <_>
          <internalNodes>
            0 -1 174 -4.2652426054701209e-04</internalNodes>
          <leafValues>
            4.0244361758232117e-01 -1.6200874745845795e-01</leafValues></_>
        <_>
          <internalNodes>
            0 -1 400 -2.1725259721279144e-03</internalNodes>
          <leafValues>
            -4.9179163575172424e-01 1.2836061418056488e-01</leafValues></_>
        <_>
          <internalNodes>
            0 -1 118 -1.7129458487033844e-02</internalNodes>
          <leafValues>
            4.7805023193359375e-01 -1.4046566188335419e-01</leafValues></_>
        <_>
          <internalNodes>
            0 -1 401 1.5535363927483559e-03</internalNodes>
          <leafValues>
            -1.8006427586078644e-01 3.9624464511871338e-01</leafValues></_>
        <_>
          <internalNodes>
            0 -1 218 -7.2064239066094160e-04</internalNodes>
          <leafValues>
            3.2811218500137329e-01 -1.9291959702968597e-01</leafValues></_>
        <_>
          <internalNodes>
            0 -1 170 -9.0170057956129313e-04</internalNodes>
          <leafValues>
            3.9757639169692993e-01 -1.5658995509147644e-01</leafValues></_>
        <_>
          <internalNodes>
            0 -1 176 -3.6588953807950020e-03</internalNodes>
          <leafValues>
            5.4715210199356079e-01 -1.2235539406538010e-01</leafValues></_></weakClassifiers></_>
    <!-- stage 9 -->
    <_>
      <maxWeakCount>28</maxWeakCount>
      <stageThreshold>-3.7961629033088684e-01</stageThreshold>
      <weakClassifiers>
        <_>
          <internalNodes>
            0 -1 222 7.5574358925223351e-03</internalNodes>
          <leafValues>
            7.4647885560989380e-01 -4.7826087474822998e-01</leafValues></_>
        <_>
          <internalNodes>
            0 -1 77 -6.1826437711715698e-02</internalNodes>
          <leafValues>
            5.2361112833023071e-01 -1.0925116948783398e-02</leafValues></_>
        <_>
          <internalNodes>
            0 -1 249 1.5712915046606213e-04</internalNodes>
          <leafValues>
            -2.5860434770584106e-01 2.4290844798088074e-01</leafValues></_>
        <_>
          <internalNodes>
            0 -1 24 -3.1074558501131833e-04</internalNodes>
          <leafValues>
            -4.7861075401306152e-01 1.2822751700878143e-01</leafValues></_>
        <_>
          <internalNodes>
            0 -1 108 -2.0687822252511978e-03</internalNodes>
          <leafValues>
            5.8246695995330811e-01 -1.1109486222267151e-01</leafValues></_>
        <_>
          <internalNodes>
            0 -1 281 -6.4228277187794447e-04</internalNodes>
          <leafValues>
            2.4198454618453979e-01 -3.0712932348251343e-01</leafValues></_>
        <_>
          <internalNodes>
            0 -1 165 -4.2836065404117107e-04</internalNodes>
          <leafValues>
            3.7872654199600220e-01 -1.7357876896858215e-01</leafValues></_>
        <_>
          <internalNodes>
            0 -1 364 -6.5831397660076618e-04</internalNodes>
          <leafValues>
            -4.6365165710449219e-01 1.5442611277103424e-01</leafValues></_>
        <_>
          <internalNodes>
            0 -1 442 3.3604398369789124e-02</internalNodes>
          <leafValues>
            -1.2146397680044174e-01 5.6135988235473633e-01</leafValues></_>
        <_>
          <internalNodes>
            0 -1 89 2.1669976413249969e-03</internalNodes>
          <leafValues>
            -1.3627360761165619e-01 4.6497312188148499e-01</leafValues></_>
        <_>
          <internalNodes>
            0 -1 333 -7.5393577571958303e-04</internalNodes>
          <leafValues>
            3.7787812948226929e-01 -1.9103261828422546e-01</leafValues></_>
        <_>
          <internalNodes>
            0 -1 361 -8.6614757310599089e-04</internalNodes>
          <leafValues>
            -7.8305327892303467e-01 9.1935098171234131e-02</leafValues></_>
        <_>
          <internalNodes>
            0 -1 458 -3.0614328570663929e-03</internalNodes>
          <leafValues>
            4.7758030891418457e-01 -1.5559343993663788e-01</leafValues></_>
        <_>
          <internalNodes>
            0 -1 167 -2.0436922204680741e-04</internalNodes>
          <leafValues>
            -3.3119484782218933e-01 1.7714217305183411e-01</leafValues></_>
        <_>
          <internalNodes>
            0 -1 20 -1.2099943705834448e-04</internalNodes>
          <leafValues>
            -4.6799555420875549e-01 1.2085530906915665e-01</leafValues></_>
        <_>
          <internalNodes>
            0 -1 396 1.4621684385929257e-04</internalNodes>
          <leafValues>
            9.2697978019714355e-02 -5.7126682996749878e-01</leafValues></_>
        <_>
          <internalNodes>
            0 -1 369 7.6455518137663603e-04</internalNodes>
          <leafValues>
            -1.1855830252170563e-01 5.6859266757965088e-01</leafValues></_>
        <_>
          <internalNodes>
            0 -1 69 -2.5357007980346680e-03</internalNodes>
          <leafValues>
            3.8297042250633240e-01 -1.4296106994152069e-01</leafValues></_>
        <_>
          <internalNodes>
            0 -1 150 -2.2148333489894867e-02</internalNodes>
          <leafValues>
            4.7712588310241699e-01 -1.2721817195415497e-01</leafValues></_>
        <_>
          <internalNodes>
            0 -1 278 -1.0054297745227814e-03</internalNodes>
          <leafValues>
            2.6113897562026978e-01 -2.4633984267711639e-01</leafValues></_>
        <_>
          <internalNodes>
            0 -1 360 2.5572229060344398e-04</internalNodes>
          <leafValues>
            1.0143218189477921e-01 -5.5212426185607910e-01</leafValues></_>
        <_>
          <internalNodes>
            0 -1 92 2.2894423454999924e-04</internalNodes>
          <leafValues>
            1.4965084195137024e-01 -3.4022277593612671e-01</leafValues></_>
        <_>
          <internalNodes>
            0 -1 470 -1.5210597775876522e-02</internalNodes>
          <leafValues>
            -5.0959897041320801e-01 1.0031092166900635e-01</leafValues></_>
        <_>
          <internalNodes>
            0 -1 474 -1.2311522732488811e-04</internalNodes>
          <leafValues>
            -4.0259021520614624e-01 1.2801671028137207e-01</leafValues></_>
        <_>
          <internalNodes>
            0 -1 110 -5.7183747412636876e-04</internalNodes>
          <leafValues>
            5.2944272756576538e-01 -1.1555284261703491e-01</leafValues></_>
        <_>
          <internalNodes>
            0 -1 419 9.8382064606994390e-05</internalNodes>
          <leafValues>
            2.1150329709053040e-01 -3.1355640292167664e-01</leafValues></_>
        <_>
          <internalNodes>
            0 -1 402 -2.3798306756361853e-06</internalNodes>
          <leafValues>
            2.1483366191387177e-01 -2.7182593941688538e-01</leafValues></_>
        <_>
          <internalNodes>
            0 -1 422 -1.5744681004434824e-03</internalNodes>
          <leafValues>
            3.1900244951248169e-01 -2.0245410501956940e-01</leafValues></_></weakClassifiers></_>
    <!-- stage 10 -->
    <_>
      <maxWeakCount>27</maxWeakCount>
      <stageThreshold>-2.1092152595520020e-01</stageThreshold>
      <weakClassifiers>
        <_>
          <internalNodes>
            0 -1 103 1.7776269465684891e-02</internalNodes>
          <leafValues>
            7.4867421388626099e-01 -7.4603176116943359e-01</leafValues></_>
        <_>
          <internalNodes>
            0 -1 112 -1.1125651001930237e-01</internalNodes>
          <leafValues>
            7.6210927963256836e-01 5.4957956075668335e-02</leafValues></_>
        <_>
          <internalNodes>
            0 -1 117 4.6686800196766853e-03</internalNodes>
          <leafValues>
            -2.3623530566692352e-01 2.2579638659954071e-01</leafValues></_>
        <_>
          <internalNodes>
            0 -1 49 7.6329978182911873e-03</internalNodes>
          <leafValues>
            -1.2608602643013000e-01 4.4790655374526978e-01</leafValues></_>
        <_>
          <internalNodes>
            0 -1 55 -7.3360484093427658e-03</internalNodes>
          <leafValues>
            5.0126379728317261e-01 -1.5282812714576721e-01</leafValues></_>
        <_>
          <internalNodes>
            0 -1 424 -2.5016728788614273e-02</internalNodes>
          <leafValues>
            6.5635538101196289e-01 -1.1105307191610336e-01</leafValues></_>
        <_>
          <internalNodes>
            0 -1 443 1.7074123024940491e-02</internalNodes>
          <leafValues>
            -1.3422159850597382e-01 4.2224228382110596e-01</leafValues></_>
        <_>
          <internalNodes>
            0 -1 52 1.3472815975546837e-02</internalNodes>
          <leafValues>
            -1.2622989714145660e-01 4.6558675169944763e-01</leafValues></_>
        <_>
          <internalNodes>
            0 -1 61 -2.1856602281332016e-02</internalNodes>
          <leafValues>
            -6.8673473596572876e-01 9.0720452368259430e-02</leafValues></_>
        <_>
          <internalNodes>
            0 -1 5 -4.2142122983932495e-03</internalNodes>
          <leafValues>
            -3.8666969537734985e-01 1.3715684413909912e-01</leafValues></_>
        <_>
          <internalNodes>
            0 -1 13 -1.0109275579452515e-01</internalNodes>
          <leafValues>
            5.5762583017349243e-01 -1.1685211956501007e-01</leafValues></_>
        <_>
          <internalNodes>
            0 -1 421 -3.8545276038348675e-04</internalNodes>
          <leafValues>
            2.3803916573524475e-01 -2.2154201567173004e-01</leafValues></_>
        <_>
          <internalNodes>
            0 -1 406 -4.8763090744614601e-03</internalNodes>
          <leafValues>
            3.3482635021209717e-01 -1.8115970492362976e-01</leafValues></_>
        <_>
          <internalNodes>
            0 -1 131 -5.6969873607158661e-02</internalNodes>
          <leafValues>
            3.1209814548492432e-01 -2.1368356049060822e-01</leafValues></_>
        <_>
          <internalNodes>
            0 -1 323 -1.4978225226514041e-04</internalNodes>
          <leafValues>
            2.1291406452655792e-01 -2.8037512302398682e-01</leafValues></_>
        <_>
          <internalNodes>
            0 -1 451 -2.4251903596450575e-06</internalNodes>
          <leafValues>
            2.2769623994827271e-01 -2.3547749221324921e-01</leafValues></_>
        <_>
          <internalNodes>
            0 -1 164 3.2937237992882729e-03</internalNodes>
          <leafValues>
            7.3814496397972107e-02 -7.0710468292236328e-01</leafValues></_>
        <_>
          <internalNodes>
            0 -1 201 3.7879161536693573e-03</internalNodes>
          <leafValues>
            -1.4032667875289917e-01 4.0310314297676086e-01</leafValues></_>
        <_>
          <internalNodes>
            0 -1 340 -1.3580122962594032e-02</internalNodes>
          <leafValues>
            -6.0300368070602417e-01 9.9396251142024994e-02</leafValues></_>
        <_>
          <internalNodes>
            0 -1 469 5.3811108227819204e-04</internalNodes>
          <leafValues>
            1.2408424168825150e-01 -4.0645635128021240e-01</leafValues></_>
        <_>
          <internalNodes>
            0 -1 269 -2.7111754752695560e-03</internalNodes>
          <leafValues>
            2.0605766773223877e-01 -2.6027101278305054e-01</leafValues></_>
        <_>
          <internalNodes>
            0 -1 216 7.3727208655327559e-04</internalNodes>
          <leafValues>
            -2.2359511256217957e-01 3.1309437751770020e-01</leafValues></_>
        <_>
          <internalNodes>
            0 -1 263 -2.1603854838758707e-04</internalNodes>
          <leafValues>
            2.7966254949569702e-01 -2.1943117678165436e-01</leafValues></_>
        <_>
          <internalNodes>
            0 -1 133 1.2406922876834869e-02</internalNodes>
          <leafValues>
            -8.9990220963954926e-02 5.8126103878021240e-01</leafValues></_>
        <_>
          <internalNodes>
            0 -1 80 -6.4809754258021712e-04</internalNodes>
          <leafValues>
            3.6388403177261353e-01 -1.4737544953823090e-01</leafValues></_>
        <_>
          <internalNodes>
            0 -1 383 4.4522155076265335e-04</internalNodes>
          <leafValues>
            1.5072830021381378e-01 -4.0142530202865601e-01</leafValues></_>
        <_>
          <internalNodes>
            0 -1 248 -3.9366155397146940e-04</internalNodes>
          <leafValues>
            4.4747951626777649e-01 -1.4157536625862122e-01</leafValues></_></weakClassifiers></_>
    <!-- stage 11 -->
    <_>
      <maxWeakCount>29</maxWeakCount>
      <stageThreshold>-2.6185745000839233e-01</stageThreshold>
      <weakClassifiers>
        <_>
          <internalNodes>
            0 -1 261 -6.8003498017787933e-03</internalNodes>
          <leafValues>
            -2.9113924503326416e-01 7.4589216709136963e-01</leafValues></_>
        <_>
          <internalNodes>
            0 -1 19 1.9387247040867805e-02</internalNodes>
          <leafValues>
            9.9378330633044243e-03 5.8307737112045288e-01</leafValues></_>
        <_>
          <internalNodes>
            0 -1 297 -2.2671967744827271e-03</internalNodes>
          <leafValues>
            2.7123707532882690e-01 -2.1591959893703461e-01</leafValues></_>
        <_>
          <internalNodes>
            0 -1 439 -9.0588591992855072e-03</internalNodes>
          <leafValues>
            6.3963240385055542e-01 -9.0406686067581177e-02</leafValues></_>
        <_>
          <internalNodes>
            0 -1 411 2.1561399102210999e-02</internalNodes>
          <leafValues>
            -2.2810004651546478e-01 2.9550439119338989e-01</leafValues></_>
        <_>
          <internalNodes>
            0 -1 357 4.5445727300830185e-04</internalNodes>
          <leafValues>
            -1.4763239026069641e-01 3.5292696952819824e-01</leafValues></_>
        <_>
          <internalNodes>
            0 -1 148 6.6896729171276093e-02</internalNodes>
          <leafValues>
            -1.1221537739038467e-01 7.2021126747131348e-01</leafValues></_>
        <_>
          <internalNodes>
            0 -1 235 1.2204681988805532e-03</internalNodes>
          <leafValues>
            -7.6119966804981232e-02 6.5166372060775757e-01</leafValues></_>
        <_>
          <internalNodes>
            0 -1 16 3.1699032988399267e-03</internalNodes>
          <leafValues>
            1.3013625144958496e-01 -4.2709651589393616e-01</leafValues></_>
        <_>
          <internalNodes>
            0 -1 205 -6.9602439180016518e-03</internalNodes>
          <leafValues>
            6.2693572044372559e-01 -9.5236733555793762e-02</leafValues></_>
        <_>
          <internalNodes>
            0 -1 381 -6.4064608886837959e-04</internalNodes>
          <leafValues>
            -4.2313182353973389e-01 1.2959308922290802e-01</leafValues></_>
        <_>
          <internalNodes>
            0 -1 465 5.5432436056435108e-04</internalNodes>
          <leafValues>
            1.2277186661958694e-01 -4.1543740034103394e-01</leafValues></_>
        <_>
          <internalNodes>
            0 -1 75 -1.2002295115962625e-03</internalNodes>
          <leafValues>
            3.4116548299789429e-01 -1.5510445833206177e-01</leafValues></_>
        <_>
          <internalNodes>
            0 -1 457 -5.9821116738021374e-03</internalNodes>
          <leafValues>
            1.8538247048854828e-01 -2.6703619956970215e-01</leafValues></_>
        <_>
          <internalNodes>
            0 -1 283 -3.7360316491685808e-04</internalNodes>
          <leafValues>
            4.1618081927299500e-01 -1.2095382064580917e-01</leafValues></_>
        <_>
          <internalNodes>
            0 -1 374 -4.0441185235977173e-02</internalNodes>
          <leafValues>
            -7.4209600687026978e-01 7.8962907195091248e-02</leafValues></_>
        <_>
          <internalNodes>
            0 -1 368 -8.0613174941390753e-04</internalNodes>
          <leafValues>
            6.7657065391540527e-01 -9.3036174774169922e-02</leafValues></_>
        <_>
          <internalNodes>
            0 -1 423 -1.9667213200591505e-04</internalNodes>
          <leafValues>
            -5.3558576107025146e-01 1.1942157149314880e-01</leafValues></_>
        <_>
          <internalNodes>
            0 -1 466 2.2659813985228539e-03</internalNodes>
          <leafValues>
            1.0619586706161499e-01 -4.7518423199653625e-01</leafValues></_>
        <_>
          <internalNodes>
            0 -1 386 -1.6282247379422188e-03</internalNodes>
          <leafValues>
            3.4603554010391235e-01 -1.5074416995048523e-01</leafValues></_>
        <_>
          <internalNodes>
            0 -1 109 -8.5260462947189808e-04</internalNodes>
          <leafValues>
            2.8558179736137390e-01 -1.7814464867115021e-01</leafValues></_>
        <_>
          <internalNodes>
            0 -1 280 -1.3346927007660270e-03</internalNodes>
          <leafValues>
            3.0056282877922058e-01 -1.6474449634552002e-01</leafValues></_>
        <_>
          <internalNodes>
            0 -1 354 -4.2317062616348267e-04</internalNodes>
          <leafValues>
            3.8327869772911072e-01 -1.5357977151870728e-01</leafValues></_>
        <_>
          <internalNodes>
            0 -1 284 -1.1689660459524021e-04</internalNodes>
          <leafValues>
            -3.9796531200408936e-01 1.5096573531627655e-01</leafValues></_>
        <_>
          <internalNodes>
            0 -1 410 -4.9136309826280922e-05</internalNodes>
          <leafValues>
            1.5593267977237701e-01 -3.3119532465934753e-01</leafValues></_>
        <_>
          <internalNodes>
            0 -1 247 2.9762955382466316e-03</internalNodes>
          <leafValues>
            7.2122752666473389e-02 -7.1352243423461914e-01</leafValues></_>
        <_>
          <internalNodes>
            0 -1 225 9.3600858235731721e-05</internalNodes>
          <leafValues>
            -3.0301460623741150e-01 1.9790300726890564e-01</leafValues></_>
        <_>
          <internalNodes>
            0 -1 65 -5.3943810053169727e-03</internalNodes>
          <leafValues>
            5.6556111574172974e-01 -1.0741740465164185e-01</leafValues></_>
        <_>
          <internalNodes>
            0 -1 134 -4.2282845824956894e-03</internalNodes>
          <leafValues>
            4.3754830956459045e-01 -1.3917700946331024e-01</leafValues></_></weakClassifiers></_>
    <!-- stage 12 -->
    <_>
      <maxWeakCount>33</maxWeakCount>
      <stageThreshold>-3.1702071428298950e-01</stageThreshold>
      <weakClassifiers>
        <_>
          <internalNodes>
            0 -1 140 1.6337601467967033e-02</internalNodes>
          <leafValues>
            7.3934954404830933e-01 -8.2352942228317261e-01</leafValues></_>
        <_>
          <internalNodes>
            0 -1 23 -3.6059997975826263e-02</internalNodes>
          <leafValues>
            5.9033685922622681e-01 4.5736897736787796e-02</leafValues></_>
        <_>
          <internalNodes>
            0 -1 378 -8.5197640582919121e-03</internalNodes>
          <leafValues>
            5.8497208356857300e-01 -9.0879179537296295e-02</leafValues></_>
        <_>
          <internalNodes>
            0 -1 372 -3.6570488009601831e-04</internalNodes>
          <leafValues>
            2.5433108210563660e-01 -2.4149267375469208e-01</leafValues></_>
        <_>
          <internalNodes>
            0 -1 331 1.6129706054925919e-02</internalNodes>
          <leafValues>
            -1.2379910796880722e-01 7.0179301500320435e-01</leafValues></_>
        <_>
          <internalNodes>
            0 -1 473 3.6145333433523774e-04</internalNodes>
          <leafValues>
            1.4446327090263367e-01 -4.9894240498542786e-01</leafValues></_>
        <_>
          <internalNodes>
            0 -1 50 1.0613000951707363e-02</internalNodes>
          <leafValues>
            -1.6721712052822113e-01 3.4519675374031067e-01</leafValues></_>
        <_>
          <internalNodes>
            0 -1 450 -2.8733415529131889e-03</internalNodes>
          <leafValues>
            3.7916728854179382e-01 -1.3210143148899078e-01</leafValues></_>
        <_>
          <internalNodes>
            0 -1 180 -2.3717798292636871e-02</internalNodes>
          <leafValues>
            2.4688880145549774e-01 -2.1016651391983032e-01</leafValues></_>
        <_>
          <internalNodes>
            0 -1 60 -2.5802829768508673e-03</internalNodes>
          <leafValues>
            3.6783134937286377e-01 -1.6550815105438232e-01</leafValues></_>
        <_>
          <internalNodes>
            0 -1 194 -5.1064537838101387e-03</internalNodes>
          <leafValues>
            5.5014187097549438e-01 -9.6082180738449097e-02</leafValues></_>
        <_>
          <internalNodes>
            0 -1 273 -1.3768619392067194e-03</internalNodes>
          <leafValues>
            5.2297794818878174e-01 -1.0787529498338699e-01</leafValues></_>
        <_>
          <internalNodes>
            0 -1 343 -6.7559746094048023e-03</internalNodes>
          <leafValues>
            -4.1305676102638245e-01 1.5098448097705841e-01</leafValues></_>
        <_>
          <internalNodes>
            0 -1 262 -2.0404483657330275e-03</internalNodes>
          <leafValues>
            6.2121677398681641e-01 -1.0535595566034317e-01</leafValues></_>
        <_>
          <internalNodes>
            0 -1 97 -1.0853283107280731e-02</internalNodes>
          <leafValues>
            -5.3233963251113892e-01 1.0253499448299408e-01</leafValues></_>
        <_>
          <internalNodes>
            0 -1 321 2.7781266908277757e-05</internalNodes>
          <leafValues>
            1.5772078931331635e-01 -3.0903878808021545e-01</leafValues></_>
        <_>
          <internalNodes>
            0 -1 327 -1.6506560496054590e-04</internalNodes>
          <leafValues>
            3.0115234851837158e-01 -1.6625569760799408e-01</leafValues></_>
        <_>
          <internalNodes>
            0 -1 11 2.4065244942903519e-03</internalNodes>
          <leafValues>
            1.0146276652812958e-01 -5.4353535175323486e-01</leafValues></_>
        <_>
          <internalNodes>
            0 -1 232 3.0846272129565477e-03</internalNodes>
          <leafValues>
            -7.9607002437114716e-02 6.8328779935836792e-01</leafValues></_>
        <_>
          <internalNodes>
            0 -1 325 -1.7159929499030113e-02</internalNodes>
          <leafValues>
            -6.5129852294921875e-01 9.1323994100093842e-02</leafValues></_>
        <_>
          <internalNodes>
            0 -1 198 -5.2423693705350161e-04</internalNodes>
          <leafValues>
            4.4249597191810608e-01 -1.2615679204463959e-01</leafValues></_>
        <_>
          <internalNodes>
            0 -1 178 -3.8274631369858980e-03</internalNodes>
          <leafValues>
            3.5152485966682434e-01 -1.4314104616641998e-01</leafValues></_>
        <_>
          <internalNodes>
            0 -1 206 -1.1514964513480663e-02</internalNodes>
          <leafValues>
            3.5098657011985779e-01 -1.5599603950977325e-01</leafValues></_>
        <_>
          <internalNodes>
            0 -1 382 8.9879045845009387e-05</internalNodes>
          <leafValues>
            1.3571779429912567e-01 -4.1148978471755981e-01</leafValues></_>
        <_>
          <internalNodes>
            0 -1 426 -1.0515800677239895e-03</internalNodes>
          <leafValues>
            3.1755593419075012e-01 -1.7083264887332916e-01</leafValues></_>
        <_>
          <internalNodes>
            0 -1 155 -1.3832473196089268e-03</internalNodes>
          <leafValues>
            2.7041658759117126e-01 -1.9370850920677185e-01</leafValues></_>
        <_>
          <internalNodes>
            0 -1 12 7.7385880285874009e-04</internalNodes>
          <leafValues>
            1.2438706308603287e-01 -4.4467779994010925e-01</leafValues></_>
        <_>
          <internalNodes>
            0 -1 362 2.3703745100647211e-03</internalNodes>
          <leafValues>
            -1.0761807113885880e-01 5.7732832431793213e-01</leafValues></_>
        <_>
          <internalNodes>
            0 -1 345 -9.5104728825390339e-04</internalNodes>
          <leafValues>
            1.7038257420063019e-01 -3.6036762595176697e-01</leafValues></_>
        <_>
          <internalNodes>
            0 -1 90 -2.1224347874522209e-02</internalNodes>
          <leafValues>
            3.4272214770317078e-01 -1.7132019996643066e-01</leafValues></_>
        <_>
          <internalNodes>
            0 -1 41 -3.2421309500932693e-02</internalNodes>
          <leafValues>
            -5.8642965555191040e-01 1.1090521514415741e-01</leafValues></_>
        <_>
          <internalNodes>
            0 -1 433 1.0657828301191330e-02</internalNodes>
          <leafValues>
            -1.0244571417570114e-01 6.2269216775894165e-01</leafValues></_>
        <_>
          <internalNodes>
            0 -1 42 -7.4165396392345428e-02</internalNodes>
          <leafValues>
            -7.9876953363418579e-01 7.8327946364879608e-02</leafValues></_></weakClassifiers></_>
    <!-- stage 13 -->
    <_>
      <maxWeakCount>30</maxWeakCount>
      <stageThreshold>-1.6636115312576294e-01</stageThreshold>
      <weakClassifiers>
        <_>
          <internalNodes>
            0 -1 29 -7.7130362391471863e-02</internalNodes>
          <leafValues>
            -3.8461539149284363e-01 7.4394464492797852e-01</leafValues></_>
        <_>
          <internalNodes>
            0 -1 309 -3.7554875598289073e-04</internalNodes>
          <leafValues>
            5.0998377799987793e-01 2.5543566793203354e-02</leafValues></_>
        <_>
          <internalNodes>
            0 -1 441 -4.3115124106407166e-02</internalNodes>
          <leafValues>
            4.3127980828285217e-01 -1.1086249351501465e-01</leafValues></_>
        <_>
          <internalNodes>
            0 -1 282 -4.9986888188868761e-04</internalNodes>
          <leafValues>
            3.4689471125602722e-01 -1.6462910175323486e-01</leafValues></_>
        <_>
          <internalNodes>
            0 -1 290 1.2621240690350533e-02</internalNodes>
          <leafValues>
            -1.4108537137508392e-01 4.4343554973602295e-01</leafValues></_>
        <_>
          <internalNodes>
            0 -1 37 -4.1516028344631195e-02</internalNodes>
          <leafValues>
            4.1640344262123108e-01 -1.4238519966602325e-01</leafValues></_>
        <_>
          <internalNodes>
            0 -1 153 8.6536034941673279e-03</internalNodes>
          <leafValues>
            -1.0529875755310059e-01 6.1094683408737183e-01</leafValues></_>
        <_>
          <internalNodes>
            0 -1 214 -2.6124736759811640e-03</internalNodes>
          <leafValues>
            5.0209814310073853e-01 -8.2759283483028412e-02</leafValues></_>
        <_>
          <internalNodes>
            0 -1 162 -3.2128694001585245e-03</internalNodes>
          <leafValues>
            4.0936079621315002e-01 -1.2950929999351501e-01</leafValues></_>
        <_>
          <internalNodes>
            0 -1 417 2.0929746096953750e-04</internalNodes>
          <leafValues>
            1.5311768651008606e-01 -4.7363847494125366e-01</leafValues></_>
        <_>
          <internalNodes>
            0 -1 208 2.5050654076039791e-03</internalNodes>
          <leafValues>
            -2.2760419547557831e-01 2.1667578816413879e-01</leafValues></_>
        <_>
          <internalNodes>
            0 -1 286 1.1025111598428339e-04</internalNodes>
          <leafValues>
            1.4850823581218719e-01 -3.6293888092041016e-01</leafValues></_>
        <_>
          <internalNodes>
            0 -1 87 -6.1118248850107193e-03</internalNodes>
          <leafValues>
            4.4202080368995667e-01 -1.3133935630321503e-01</leafValues></_>
        <_>
          <internalNodes>
            0 -1 84 -3.5336893051862717e-04</internalNodes>
          <leafValues>
            2.3747472465038300e-01 -2.3041269183158875e-01</leafValues></_>
        <_>
          <internalNodes>
            0 -1 66 -1.5935002011246979e-04</internalNodes>
          <leafValues>
            -3.7374064326286316e-01 1.4604417979717255e-01</leafValues></_>
        <_>
          <internalNodes>
            0 -1 413 2.7527676138561219e-05</internalNodes>
          <leafValues>
            1.7801880836486816e-01 -2.6891583204269409e-01</leafValues></_>
        <_>
          <internalNodes>
            0 -1 244 8.2151011156383902e-05</internalNodes>
          <leafValues>
            1.2931905686855316e-01 -3.9066678285598755e-01</leafValues></_>
        <_>
          <internalNodes>
            0 -1 144 -3.9598747389391065e-04</internalNodes>
          <leafValues>
            3.9377695322036743e-01 -1.3866083323955536e-01</leafValues></_>
        <_>
          <internalNodes>
            0 -1 126 1.2796901864930987e-03</internalNodes>
          <leafValues>
            -8.5764072835445404e-02 5.8634734153747559e-01</leafValues></_>
        <_>
          <internalNodes>
            0 -1 227 7.5723379268310964e-05</internalNodes>
          <leafValues>
            -3.0019858479499817e-01 1.8075191974639893e-01</leafValues></_>
        <_>
          <internalNodes>
            0 -1 240 1.0156305506825447e-02</internalNodes>
          <leafValues>
            -1.3873483240604401e-01 3.8001456856727600e-01</leafValues></_>
        <_>
          <internalNodes>
            0 -1 18 -2.9981404542922974e-02</internalNodes>
          <leafValues>
            -6.8745523691177368e-01 8.4599263966083527e-02</leafValues></_>
        <_>
          <internalNodes>
            0 -1 447 -1.3108463026583195e-03</internalNodes>
          <leafValues>
            -7.9004806280136108e-01 5.4630115628242493e-02</leafValues></_>
        <_>
          <internalNodes>
            0 -1 311 9.7028939053416252e-03</internalNodes>
          <leafValues>
            -9.7915954887866974e-02 6.3456058502197266e-01</leafValues></_>
        <_>
          <internalNodes>
            0 -1 17 -3.1808708445169032e-04</internalNodes>
          <leafValues>
            -5.5335146188735962e-01 9.7820423543453217e-02</leafValues></_>
        <_>
          <internalNodes>
            0 -1 236 -8.2571175880730152e-05</internalNodes>
          <leafValues>
            3.0123770236968994e-01 -1.6601724922657013e-01</leafValues></_>
        <_>
          <internalNodes>
            0 -1 229 1.7344685271382332e-02</internalNodes>
          <leafValues>
            -1.1725820600986481e-01 4.8119792342185974e-01</leafValues></_>
        <_>
          <internalNodes>
            0 -1 33 -3.1046700314618647e-04</internalNodes>
          <leafValues>
            -4.1151696443557739e-01 1.2056810408830643e-01</leafValues></_>
        <_>
          <internalNodes>
            0 -1 26 1.5593347139656544e-02</internalNodes>
          <leafValues>
            -8.0275125801563263e-02 6.4597296714782715e-01</leafValues></_>
        <_>
          <internalNodes>
            0 -1 120 -1.1644624173641205e-02</internalNodes>
          <leafValues>
            -2.6361528038978577e-01 1.9798915088176727e-01</leafValues></_></weakClassifiers></_>
    <!-- stage 14 -->
    <_>
      <maxWeakCount>32</maxWeakCount>
      <stageThreshold>-1.8606121838092804e-01</stageThreshold>
      <weakClassifiers>
        <_>
          <internalNodes>
            0 -1 53 2.4144150316715240e-02</internalNodes>
          <leafValues>
            7.3815518617630005e-01 -8.0645161867141724e-01</leafValues></_>
        <_>
          <internalNodes>
            0 -1 132 -1.8279394507408142e-01</internalNodes>
          <leafValues>
            5.6570458412170410e-01 5.0989054143428802e-02</leafValues></_>
        <_>
          <internalNodes>
            0 -1 251 5.7257426669821143e-04</internalNodes>
          <leafValues>
            -2.3231619596481323e-01 2.8128656744956970e-01</leafValues></_>
        <_>
          <internalNodes>
            0 -1 313 4.7861668281257153e-03</internalNodes>
          <leafValues>
            -1.2337808310985565e-01 4.3607684969902039e-01</leafValues></_>
        <_>
          <internalNodes>
            0 -1 359 -6.3998391851782799e-04</internalNodes>
          <leafValues>
            2.1498928964138031e-01 -2.6613017916679382e-01</leafValues></_>
        <_>
          <internalNodes>
            0 -1 105 8.4309577941894531e-03</internalNodes>
          <leafValues>
            1.4763188362121582e-01 -4.1456460952758789e-01</leafValues></_>
        <_>
          <internalNodes>
            0 -1 2 -2.9748434200882912e-02</internalNodes>
          <leafValues>
            3.9586606621742249e-01 -1.3005714118480682e-01</leafValues></_>
        <_>
          <internalNodes>
            0 -1 347 -6.0931593179702759e-04</internalNodes>
          <leafValues>
            1.5094453096389771e-01 -3.2927948236465454e-01</leafValues></_>
        <_>
          <internalNodes>
            0 -1 125 -4.9123484641313553e-03</internalNodes>
          <leafValues>
            5.6544446945190430e-01 -9.4672434031963348e-02</leafValues></_>
        <_>
          <internalNodes>
            0 -1 45 -2.1773688495159149e-02</internalNodes>
          <leafValues>
            6.8731784820556641e-01 -7.5703822076320648e-02</leafValues></_>
        <_>
          <internalNodes>
            0 -1 210 -3.5435231402516365e-03</internalNodes>
          <leafValues>
            2.9264152050018311e-01 -1.6633833944797516e-01</leafValues></_>
        <_>
          <internalNodes>
            0 -1 398 -1.4571324572898448e-04</internalNodes>
          <leafValues>
            -3.0720281600952148e-01 1.7825764417648315e-01</leafValues></_>
        <_>
          <internalNodes>
            0 -1 166 7.6214128057472408e-05</internalNodes>
          <leafValues>
            -2.1469078958034515e-01 2.6750266551971436e-01</leafValues></_>
        <_>
          <internalNodes>
            0 -1 76 -1.0556778870522976e-03</internalNodes>
          <leafValues>
            3.9865466952323914e-01 -1.2309448421001434e-01</leafValues></_>
        <_>
          <internalNodes>
            0 -1 385 6.4924429170787334e-04</internalNodes>
          <leafValues>
            1.0857789218425751e-01 -4.7374302148818970e-01</leafValues></_>
        <_>
          <internalNodes>
            0 -1 455 4.2568269418552518e-04</internalNodes>
          <leafValues>
            -9.0532436966896057e-02 6.0475730895996094e-01</leafValues></_>
        <_>
          <internalNodes>
            0 -1 40 -3.0014095827937126e-02</internalNodes>
          <leafValues>
            2.4691370129585266e-01 -1.8225581943988800e-01</leafValues></_>
        <_>
          <internalNodes>
            0 -1 44 2.3856602609157562e-02</internalNodes>
          <leafValues>
            -1.0263919085264206e-01 4.9722823500633240e-01</leafValues></_>
        <_>
          <internalNodes>
            0 -1 243 -4.9010384827852249e-04</internalNodes>
          <leafValues>
            4.2476260662078857e-01 -1.0032419115304947e-01</leafValues></_>
        <_>
          <internalNodes>
            0 -1 437 -5.2594885346479714e-05</internalNodes>
          <leafValues>
            -3.0650207400321960e-01 1.6834102571010590e-01</leafValues></_>
        <_>
          <internalNodes>
            0 -1 312 2.1802652918267995e-04</internalNodes>
          <leafValues>
            -1.5920484066009521e-01 3.1121262907981873e-01</leafValues></_>
        <_>
          <internalNodes>
            0 -1 107 -1.7296124715358019e-03</internalNodes>
          <leafValues>
            3.9967978000640869e-01 -1.3879165053367615e-01</leafValues></_>
        <_>
          <internalNodes>
            0 -1 472 -8.2245242083445191e-05</internalNodes>
          <leafValues>
            -2.7835255861282349e-01 1.8542098999023438e-01</leafValues></_>
        <_>
          <internalNodes>
            0 -1 231 -1.6377260908484459e-04</internalNodes>
          <leafValues>
            -3.6181721091270447e-01 1.3288085162639618e-01</leafValues></_>
        <_>
          <internalNodes>
            0 -1 322 -3.0471965146716684e-05</internalNodes>
          <leafValues>
            1.5104311704635620e-01 -3.0263257026672363e-01</leafValues></_>
        <_>
          <internalNodes>
            0 -1 161 -8.6974509758874774e-04</internalNodes>
          <leafValues>
            2.3229302465915680e-01 -2.2831754386425018e-01</leafValues></_>
        <_>
          <internalNodes>
            0 -1 428 -2.9584268759208499e-06</internalNodes>
          <leafValues>
            1.7949214577674866e-01 -2.7182126045227051e-01</leafValues></_>
        <_>
          <internalNodes>
            0 -1 393 1.2523056939244270e-03</internalNodes>
          <leafValues>
            -1.5075352787971497e-01 3.1600144505500793e-01</leafValues></_>
        <_>
          <internalNodes>
            0 -1 355 -8.2606484647840261e-04</internalNodes>
          <leafValues>
            3.8588318228721619e-01 -1.3438370823860168e-01</leafValues></_>
        <_>
          <internalNodes>
            0 -1 265 -5.4662954062223434e-03</internalNodes>
          <leafValues>
            2.8516152501106262e-01 -1.6474847495555878e-01</leafValues></_>
        <_>
          <internalNodes>
            0 -1 304 -5.1149830687791109e-04</internalNodes>
          <leafValues>
            -3.5655325651168823e-01 1.8656758964061737e-01</leafValues></_>
        <_>
          <internalNodes>
            0 -1 305 -6.9500785320997238e-04</internalNodes>
          <leafValues>
            2.1106722950935364e-01 -2.6465383172035217e-01</leafValues></_></weakClassifiers></_>
    <!-- stage 15 -->
    <_>
      <maxWeakCount>35</maxWeakCount>
      <stageThreshold>-1.5457125008106232e-01</stageThreshold>
      <weakClassifiers>
        <_>
          <internalNodes>
            0 -1 213 1.5258761122822762e-03</internalNodes>
          <leafValues>
            7.3757725954055786e-01 -6.3636362552642822e-01</leafValues></_>
        <_>
          <internalNodes>
            0 -1 146 3.8842201232910156e-02</internalNodes>
          <leafValues>
            1.4333282597362995e-02 4.7121328115463257e-01</leafValues></_>
        <_>
          <internalNodes>
            0 -1 115 3.9641174953430891e-04</internalNodes>
          <leafValues>
            -3.1458863615989685e-01 1.5305544435977936e-01</leafValues></_>
        <_>
          <internalNodes>
            0 -1 73 1.1173526290804148e-03</internalNodes>
          <leafValues>
            -1.8069054186344147e-01 2.3935540020465851e-01</leafValues></_>
        <_>
          <internalNodes>
            0 -1 459 1.8471438437700272e-02</internalNodes>
          <leafValues>
            8.3439677953720093e-02 -4.3747866153717041e-01</leafValues></_>
        <_>
          <internalNodes>
            0 -1 183 -2.0547502208501101e-03</internalNodes>
          <leafValues>
            7.2533470392227173e-01 -4.9085877835750580e-02</leafValues></_>
        <_>
          <internalNodes>
            0 -1 416 2.1829851903021336e-03</internalNodes>
          <leafValues>
            -5.8622788637876511e-02 9.0092569589614868e-01</leafValues></_>
        <_>
          <internalNodes>
            0 -1 47 -2.6983690261840820e-01</internalNodes>
          <leafValues>
            3.6711937189102173e-01 -9.4570651650428772e-02</leafValues></_>
        <_>
          <internalNodes>
            0 -1 127 -3.1267628073692322e-02</internalNodes>
          <leafValues>
            4.7580572962760925e-01 -1.2881138920783997e-01</leafValues></_>
        <_>
          <internalNodes>
            0 -1 303 -5.1969567721243948e-05</internalNodes>
          <leafValues>
            1.9985733926296234e-01 -2.0620752871036530e-01</leafValues></_>
        <_>
          <internalNodes>
            0 -1 169 6.7979114828631282e-04</internalNodes>
          <leafValues>
            -1.4035238325595856e-01 3.4697607159614563e-01</leafValues></_>
        <_>
          <internalNodes>
            0 -1 397 -1.5603928477503359e-04</internalNodes>
          <leafValues>
            -4.5908212661743164e-01 1.1112172156572342e-01</leafValues></_>
        <_>
          <internalNodes>
            0 -1 220 2.9727006331086159e-03</internalNodes>
          <leafValues>
            7.6963268220424652e-02 -5.2465486526489258e-01</leafValues></_>
        <_>
          <internalNodes>
            0 -1 54 1.9126520492136478e-03</internalNodes>
          <leafValues>
            7.7762171626091003e-02 -5.2466839551925659e-01</leafValues></_>
        <_>
          <internalNodes>
            0 -1 352 -2.4057054542936385e-04</internalNodes>
          <leafValues>
            2.1414425969123840e-01 -1.9508111476898193e-01</leafValues></_>
        <_>
          <internalNodes>
            0 -1 191 -6.6433520987629890e-04</internalNodes>
          <leafValues>
            -3.5413715243339539e-01 1.4134354889392853e-01</leafValues></_>
        <_>
          <internalNodes>
            0 -1 185 5.6405053328489885e-05</internalNodes>
          <leafValues>
            -2.6943424344062805e-01 1.7359037697315216e-01</leafValues></_>
        <_>
          <internalNodes>
            0 -1 123 4.2878415115410462e-05</internalNodes>
          <leafValues>
            -1.9667863845825195e-01 2.3788982629776001e-01</leafValues></_>
        <_>
          <internalNodes>
            0 -1 93 1.1295591248199344e-03</internalNodes>
          <leafValues>
            1.3832451403141022e-01 -3.3309957385063171e-01</leafValues></_>
        <_>
          <internalNodes>
            0 -1 330 -2.9477798379957676e-03</internalNodes>
          <leafValues>
            2.2740930318832397e-01 -2.0272661745548248e-01</leafValues></_>
        <_>
          <internalNodes>
            0 -1 306 1.9810257945209742e-03</internalNodes>
          <leafValues>
            8.6670517921447754e-02 -5.4667955636978149e-01</leafValues></_>
        <_>
          <internalNodes>
            0 -1 82 2.9227063059806824e-03</internalNodes>
          <leafValues>
            -1.6494059562683105e-01 2.7743011713027954e-01</leafValues></_>
        <_>
          <internalNodes>
            0 -1 237 2.8680334798991680e-03</internalNodes>
          <leafValues>
            8.7294451892375946e-02 -5.4567193984985352e-01</leafValues></_>
        <_>
          <internalNodes>
            0 -1 453 -4.0335606172448024e-05</internalNodes>
          <leafValues>
            2.7082759141921997e-01 -1.7909695208072662e-01</leafValues></_>
        <_>
          <internalNodes>
            0 -1 10 4.7638669610023499e-02</internalNodes>
          <leafValues>
            -1.5944600105285645e-01 3.0628871917724609e-01</leafValues></_>
        <_>
          <internalNodes>
            0 -1 221 3.7033442640677094e-04</internalNodes>
          <leafValues>
            -2.0654642581939697e-01 2.2406060993671417e-01</leafValues></_>
        <_>
          <internalNodes>
            0 -1 85 4.5697428286075592e-02</internalNodes>
          <leafValues>
            8.4639132022857666e-02 -5.6454604864120483e-01</leafValues></_>
        <_>
          <internalNodes>
            0 -1 159 3.3760992810130119e-03</internalNodes>
          <leafValues>
            -1.4626954495906830e-01 3.5822728276252747e-01</leafValues></_>
        <_>
          <internalNodes>
            0 -1 392 9.1486121527850628e-04</internalNodes>
          <leafValues>
            -1.0173305869102478e-01 3.8559895753860474e-01</leafValues></_>
        <_>
          <internalNodes>
            0 -1 370 1.2164616055088118e-04</internalNodes>
          <leafValues>
            1.8722470104694366e-01 -2.1669550240039825e-01</leafValues></_>
        <_>
          <internalNodes>
            0 -1 287 1.0905738454312086e-03</internalNodes>
          <leafValues>
            9.6718892455101013e-02 -4.4167450070381165e-01</leafValues></_>
        <_>
          <internalNodes>
            0 -1 334 3.8277299609035254e-04</internalNodes>
          <leafValues>
            -1.2369168549776077e-01 3.7946140766143799e-01</leafValues></_>
        <_>
          <internalNodes>
            0 -1 226 8.1963893026113510e-03</internalNodes>
          <leafValues>
            -1.0472817718982697e-01 3.9593634009361267e-01</leafValues></_>
        <_>
          <internalNodes>
            0 -1 464 -1.8196782330051064e-03</internalNodes>
          <leafValues>
            -6.5972846746444702e-01 6.9715499877929688e-02</leafValues></_>
        <_>
          <internalNodes>
            0 -1 277 -2.3408477136399597e-04</internalNodes>
          <leafValues>
            3.1962305307388306e-01 -1.4064855873584747e-01</leafValues></_></weakClassifiers></_>
    <!-- stage 16 -->
    <_>
      <maxWeakCount>30</maxWeakCount>
      <stageThreshold>-1.6090887784957886e-01</stageThreshold>
      <weakClassifiers>
        <_>
          <internalNodes>
            0 -1 200 -1.2465675827115774e-03</internalNodes>
          <leafValues>
            8.4693474437197804e-17 7.5082123279571533e-01</leafValues></_>
        <_>
          <internalNodes>
            0 -1 7 -4.8895288258790970e-02</internalNodes>
          <leafValues>
            5.7549095153808594e-01 6.6300511360168457e-02</leafValues></_>
        <_>
          <internalNodes>
            0 -1 239 1.1806676629930735e-03</internalNodes>
          <leafValues>
            -7.8135296702384949e-02 5.2466440200805664e-01</leafValues></_>
        <_>
          <internalNodes>
            0 -1 468 -3.7444666959345341e-03</internalNodes>
          <leafValues>
            -4.5647826790809631e-01 9.9947907030582428e-02</leafValues></_>
        <_>
          <internalNodes>
            0 -1 102 -1.2865116819739342e-02</internalNodes>
          <leafValues>
            5.4168891906738281e-01 -7.7457949519157410e-02</leafValues></_>
        <_>
          <internalNodes>
            0 -1 173 -4.5995615422725677e-02</internalNodes>
          <leafValues>
            8.8017523288726807e-01 -5.3795803338289261e-02</leafValues></_>
        <_>
          <internalNodes>
            0 -1 250 -3.8675786927342415e-03</internalNodes>
          <leafValues>
            2.1816185116767883e-01 -2.3466771841049194e-01</leafValues></_>
        <_>
          <internalNodes>
            0 -1 188 1.1029565706849098e-02</internalNodes>
          <leafValues>
            1.1083042621612549e-01 -5.0960916280746460e-01</leafValues></_>
        <_>
          <internalNodes>
            0 -1 264 -7.2386963292956352e-03</internalNodes>
          <leafValues>
            5.5269432067871094e-01 -9.3527384102344513e-02</leafValues></_>
        <_>
          <internalNodes>
            0 -1 104 1.7828417476266623e-03</internalNodes>
          <leafValues>
            -3.0375820398330688e-01 1.6957600414752960e-01</leafValues></_>
        <_>
          <internalNodes>
            0 -1 199 6.3736457377672195e-03</internalNodes>
          <leafValues>
            8.5832834243774414e-02 -6.6097581386566162e-01</leafValues></_>
        <_>
          <internalNodes>
            0 -1 394 -5.2639358909800649e-04</internalNodes>
          <leafValues>
            4.4793844223022461e-01 -1.0852771997451782e-01</leafValues></_>
        <_>
          <internalNodes>
            0 -1 203 9.0675067622214556e-04</internalNodes>
          <leafValues>
            -1.0814371705055237e-01 4.5833650231361389e-01</leafValues></_>
        <_>
          <internalNodes>
            0 -1 462 2.5714031653478742e-04</internalNodes>
          <leafValues>
            1.3936950266361237e-01 -3.8289159536361694e-01</leafValues></_>
        <_>
          <internalNodes>
            0 -1 156 -4.2830262100324035e-04</internalNodes>
          <leafValues>
            3.4053474664688110e-01 -1.5776309370994568e-01</leafValues></_>
        <_>
          <internalNodes>
            0 -1 94 -9.1568723320960999e-02</internalNodes>
          <leafValues>
            5.3139126300811768e-01 -8.0403171479701996e-02</leafValues></_>
        <_>
          <internalNodes>
            0 -1 209 -2.8817163547500968e-04</internalNodes>
          <leafValues>
            2.6474761962890625e-01 -2.0645156502723694e-01</leafValues></_>
        <_>
          <internalNodes>
            0 -1 279 -5.9590273303911090e-04</internalNodes>
          <leafValues>
            3.0192765593528748e-01 -1.6141892969608307e-01</leafValues></_>
        <_>
          <internalNodes>
            0 -1 74 -4.8714969307184219e-03</internalNodes>
          <leafValues>
            2.5611162185668945e-01 -1.9331619143486023e-01</leafValues></_>
        <_>
          <internalNodes>
            0 -1 67 4.3526999652385712e-03</internalNodes>
          <leafValues>
            -1.4236216247081757e-01 3.4235620498657227e-01</leafValues></_>
        <_>
          <internalNodes>
            0 -1 6 -2.0447660237550735e-02</internalNodes>
          <leafValues>
            4.9354737997055054e-01 -8.9627094566822052e-02</leafValues></_>
        <_>
          <internalNodes>
            0 -1 135 -4.2128651402890682e-03</internalNodes>
          <leafValues>
            -3.3453512191772461e-01 1.5259744226932526e-01</leafValues></_>
        <_>
          <internalNodes>
            0 -1 241 -2.4341009557247162e-03</internalNodes>
          <leafValues>
            2.3128433525562286e-01 -2.1319891512393951e-01</leafValues></_>
        <_>
          <internalNodes>
            0 -1 418 -3.1747148022986948e-04</internalNodes>
          <leafValues>
            2.9973495006561279e-01 -1.7055322229862213e-01</leafValues></_>
        <_>
          <internalNodes>
            0 -1 460 5.0267102196812630e-03</internalNodes>
          <leafValues>
            -4.3447859585285187e-02 8.9498299360275269e-01</leafValues></_>
        <_>
          <internalNodes>
            0 -1 179 3.0729761347174644e-03</internalNodes>
          <leafValues>
            -7.9995892941951752e-02 5.0759679079055786e-01</leafValues></_>
        <_>
          <internalNodes>
            0 -1 274 4.7663985751569271e-03</internalNodes>
          <leafValues>
            7.8497223556041718e-02 -6.4939516782760620e-01</leafValues></_>
        <_>
          <internalNodes>
            0 -1 275 1.8852637731470168e-04</internalNodes>
          <leafValues>
            -1.6326650977134705e-01 3.2397517561912537e-01</leafValues></_>
        <_>
          <internalNodes>
            0 -1 242 -4.2842878028750420e-03</internalNodes>
          <leafValues>
            2.1092426776885986e-01 -2.3567679524421692e-01</leafValues></_>
        <_>
          <internalNodes>
            0 -1 444 7.1491971611976624e-03</internalNodes>
          <leafValues>
            -9.8224207758903503e-02 5.4219967126846313e-01</leafValues></_></weakClassifiers></_>
    <!-- stage 17 -->
    <_>
      <maxWeakCount>33</maxWeakCount>
      <stageThreshold>-1.7832879722118378e-01</stageThreshold>
      <weakClassifiers>
        <_>
          <internalNodes>
            0 -1 106 1.1313192546367645e-02</internalNodes>
          <leafValues>
            7.2801995277404785e-01 -2.7058824896812439e-01</leafValues></_>
        <_>
          <internalNodes>
            0 -1 373 1.0688414331525564e-03</internalNodes>
          <leafValues>
            2.5010508298873901e-01 -4.6023929119110107e-01</leafValues></_>
        <_>
          <internalNodes>
            0 -1 412 -2.9990794137120247e-03</internalNodes>
          <leafValues>
            7.0380127429962158e-01 -7.3970228433609009e-02</leafValues></_>
        <_>
          <internalNodes>
            0 -1 160 -1.2456253170967102e-03</internalNodes>
          <leafValues>
            -3.0875840783119202e-01 1.4934973418712616e-01</leafValues></_>
        <_>
          <internalNodes>
            0 -1 246 -2.1582795307040215e-04</internalNodes>
          <leafValues>
            -4.9513030052185059e-01 8.5406325757503510e-02</leafValues></_>
        <_>
          <internalNodes>
            0 -1 271 9.5512461848556995e-04</internalNodes>
          <leafValues>
            -9.3788020312786102e-02 4.5546507835388184e-01</leafValues></_>
        <_>
          <internalNodes>
            0 -1 195 -2.5560352951288223e-03</internalNodes>
          <leafValues>
            4.0658539533615112e-01 -1.4273697137832642e-01</leafValues></_>
        <_>
          <internalNodes>
            0 -1 308 -1.0937865590676665e-03</internalNodes>
          <leafValues>
            -5.3358304500579834e-01 1.3287454843521118e-01</leafValues></_>
        <_>
          <internalNodes>
            0 -1 28 -1.1847018264234066e-02</internalNodes>
          <leafValues>
            1.7463439702987671e-01 -2.8255489468574524e-01</leafValues></_>
        <_>
          <internalNodes>
            0 -1 163 3.9568126201629639e-02</internalNodes>
          <leafValues>
            -7.2689406573772430e-02 7.4425476789474487e-01</leafValues></_>
        <_>
          <internalNodes>
            0 -1 181 5.4761301726102829e-04</internalNodes>
          <leafValues>
            -2.6511636376380920e-01 1.9432727992534637e-01</leafValues></_>
        <_>
          <internalNodes>
            0 -1 300 1.2432223884388804e-03</internalNodes>
          <leafValues>
            1.1182073503732681e-01 -3.9789152145385742e-01</leafValues></_>
        <_>
          <internalNodes>
            0 -1 391 -1.0390561074018478e-03</internalNodes>
          <leafValues>
            6.1036342382431030e-01 -7.9163506627082825e-02</leafValues></_>
        <_>
          <internalNodes>
            0 -1 351 2.5964219821617007e-04</internalNodes>
          <leafValues>
            1.3425515592098236e-01 -4.0268978476524353e-01</leafValues></_>
        <_>
          <internalNodes>
            0 -1 154 -2.8599211946129799e-03</internalNodes>
          <leafValues>
            4.1105601191520691e-01 -1.3364452123641968e-01</leafValues></_>
        <_>
          <internalNodes>
            0 -1 233 4.9895420670509338e-03</internalNodes>
          <leafValues>
            -6.4407862722873688e-02 6.5627169609069824e-01</leafValues></_>
        <_>
          <internalNodes>
            0 -1 234 1.5080417506396770e-03</internalNodes>
          <leafValues>
            -8.8210046291351318e-02 5.2716791629791260e-01</leafValues></_>
        <_>
          <internalNodes>
            0 -1 189 3.6039482802152634e-03</internalNodes>
          <leafValues>
            7.3528505861759186e-02 -7.7779179811477661e-01</leafValues></_>
        <_>
          <internalNodes>
            0 -1 79 -2.3130748420953751e-02</internalNodes>
          <leafValues>
            -6.6374188661575317e-01 6.9033540785312653e-02</leafValues></_>
        <_>
          <internalNodes>
            0 -1 111 -2.9081110842525959e-03</internalNodes>
          <leafValues>
            -4.3048903346061707e-01 1.1287975311279297e-01</leafValues></_>
        <_>
          <internalNodes>
            0 -1 204 -4.1217420948669314e-04</internalNodes>
          <leafValues>
            2.0108342170715332e-01 -2.4170148372650146e-01</leafValues></_>
        <_>
          <internalNodes>
            0 -1 39 2.9836404137313366e-03</internalNodes>
          <leafValues>
            9.1275632381439209e-02 -5.2261185646057129e-01</leafValues></_>
        <_>
          <internalNodes>
            0 -1 371 2.0762104541063309e-03</internalNodes>
          <leafValues>
            -9.2001557350158691e-02 5.9146189689636230e-01</leafValues></_>
        <_>
          <internalNodes>
            0 -1 48 -2.0224317908287048e-02</internalNodes>
          <leafValues>
            5.5581474304199219e-01 -7.6536081731319427e-02</leafValues></_>
        <_>
          <internalNodes>
            0 -1 338 -4.2196991853415966e-03</internalNodes>
          <leafValues>
            2.6394090056419373e-01 -1.7395165562629700e-01</leafValues></_>
        <_>
          <internalNodes>
            0 -1 366 -7.7119492925703526e-04</internalNodes>
          <leafValues>
            2.4895097315311432e-01 -2.0164145529270172e-01</leafValues></_>
        <_>
          <internalNodes>
            0 -1 409 1.0012239217758179e-03</internalNodes>
          <leafValues>
            1.3076703250408173e-01 -3.7592536211013794e-01</leafValues></_>
        <_>
          <internalNodes>
            0 -1 193 -8.7047589477151632e-04</internalNodes>
          <leafValues>
            -3.3760124444961548e-01 1.5080396831035614e-01</leafValues></_>
        <_>
          <internalNodes>
            0 -1 337 -7.3745264671742916e-03</internalNodes>
          <leafValues>
            8.1169897317886353e-01 -5.8765623718500137e-02</leafValues></_>
        <_>
          <internalNodes>
            0 -1 461 -1.1873312294483185e-02</internalNodes>
          <leafValues>
            5.7601165771484375e-01 -7.4817635118961334e-02</leafValues></_>
        <_>
          <internalNodes>
            0 -1 32 -1.0152819595532492e-04</internalNodes>
          <leafValues>
            -4.1774937510490417e-01 1.2813876569271088e-01</leafValues></_>
        <_>
          <internalNodes>
            0 -1 317 1.1529843322932720e-03</internalNodes>
          <leafValues>
            -1.6250696778297424e-01 2.9251259565353394e-01</leafValues></_>
        <_>
          <internalNodes>
            0 -1 440 -2.6794318728207145e-06</internalNodes>
          <leafValues>
            2.3397883772850037e-01 -2.1364049613475800e-01</leafValues></_></weakClassifiers></_>
    <!-- stage 18 -->
    <_>
      <maxWeakCount>32</maxWeakCount>
      <stageThreshold>-1.6065259277820587e-01</stageThreshold>
      <weakClassifiers>
        <_>
          <internalNodes>
            0 -1 293 -8.0146014690399170e-02</internalNodes>
          <leafValues>
            -4.0845069289207458e-01 7.2697937488555908e-01</leafValues></_>
        <_>
          <internalNodes>
            0 -1 420 -5.3351715207099915e-02</internalNodes>
          <leafValues>
            5.8468222618103027e-01 7.0244103670120239e-02</leafValues></_>
        <_>
          <internalNodes>
            0 -1 403 -3.6416988587006927e-04</internalNodes>
          <leafValues>
            2.3351061344146729e-01 -2.1359494328498840e-01</leafValues></_>
        <_>
          <internalNodes>
            0 -1 432 3.3186219632625580e-02</internalNodes>
          <leafValues>
            -6.4504794776439667e-02 7.7328628301620483e-01</leafValues></_>
        <_>
          <internalNodes>
            0 -1 207 6.7573362030088902e-03</internalNodes>
          <leafValues>
            1.0548075288534164e-01 -5.2628755569458008e-01</leafValues></_>
        <_>
          <internalNodes>
            0 -1 141 1.2319402769207954e-02</internalNodes>
          <leafValues>
            -1.4175485074520111e-01 3.1483587622642517e-01</leafValues></_>
        <_>
          <internalNodes>
            0 -1 404 1.7424332909286022e-03</internalNodes>
          <leafValues>
            -1.8535156548023224e-01 2.9243698716163635e-01</leafValues></_>
        <_>
          <internalNodes>
            0 -1 438 6.6241627791896462e-05</internalNodes>
          <leafValues>
            1.2248872965574265e-01 -4.1756996512413025e-01</leafValues></_>
        <_>
          <internalNodes>
            0 -1 175 -1.4149800408631563e-03</internalNodes>
          <leafValues>
            3.4313809871673584e-01 -1.5501262247562408e-01</leafValues></_>
        <_>
          <internalNodes>
            0 -1 326 1.4767794637009501e-03</internalNodes>
          <leafValues>
            -1.0198484361171722e-01 4.9213713407516479e-01</leafValues></_>
        <_>
          <internalNodes>
            0 -1 217 -1.2033931910991669e-02</internalNodes>
          <leafValues>
            -4.7541359066963196e-01 1.1638919264078140e-01</leafValues></_>
        <_>
          <internalNodes>
            0 -1 363 1.8650884740054607e-03</internalNodes>
          <leafValues>
            -1.6900031268596649e-01 3.4401929378509521e-01</leafValues></_>
        <_>
          <internalNodes>
            0 -1 285 7.5371994171291590e-04</internalNodes>
          <leafValues>
            1.2828303873538971e-01 -4.5385777950286865e-01</leafValues></_>
        <_>
          <internalNodes>
            0 -1 30 9.3359046149998903e-04</internalNodes>
          <leafValues>
            8.4424197673797607e-02 -6.0671007633209229e-01</leafValues></_>
        <_>
          <internalNodes>
            0 -1 259 1.2122599873691797e-03</internalNodes>
          <leafValues>
            -8.3316355943679810e-02 6.8129509687423706e-01</leafValues></_>
        <_>
          <internalNodes>
            0 -1 1 5.3567066788673401e-04</internalNodes>
          <leafValues>
            1.2320179492235184e-01 -4.3585819005966187e-01</leafValues></_>
        <_>
          <internalNodes>
            0 -1 430 1.5917002747301012e-04</internalNodes>
          <leafValues>
            7.6925352215766907e-02 -6.2921714782714844e-01</leafValues></_>
        <_>
          <internalNodes>
            0 -1 452 -1.0623249690979719e-03</internalNodes>
          <leafValues>
            -4.2947036027908325e-01 1.0798653215169907e-01</leafValues></_>
        <_>
          <internalNodes>
            0 -1 56 8.6148612899705768e-04</internalNodes>
          <leafValues>
            -1.4866776764392853e-01 2.9579281806945801e-01</leafValues></_>
        <_>
          <internalNodes>
            0 -1 145 -1.6615644097328186e-02</internalNodes>
          <leafValues>
            3.0415260791778564e-01 -1.7368583381175995e-01</leafValues></_>
        <_>
          <internalNodes>
            0 -1 124 -4.9387617036700249e-03</internalNodes>
          <leafValues>
            2.8540313243865967e-01 -1.6630700230598450e-01</leafValues></_>
        <_>
          <internalNodes>
            0 -1 341 1.0846997611224651e-03</internalNodes>
          <leafValues>
            -1.0005702823400497e-01 4.4308155775070190e-01</leafValues></_>
        <_>
          <internalNodes>
            0 -1 119 -1.0903187096118927e-02</internalNodes>
          <leafValues>
            5.3588426113128662e-01 -7.5600139796733856e-02</leafValues></_>
        <_>
          <internalNodes>
            0 -1 266 -2.8697985690087080e-03</internalNodes>
          <leafValues>
            -5.7582563161849976e-01 1.0062018036842346e-01</leafValues></_>
        <_>
          <internalNodes>
            0 -1 35 -2.2225171327590942e-02</internalNodes>
          <leafValues>
            4.7058886289596558e-01 -1.3155351579189301e-01</leafValues></_>
        <_>
          <internalNodes>
            0 -1 88 4.9673730973154306e-04</internalNodes>
          <leafValues>
            -1.4817638695240021e-01 3.0678975582122803e-01</leafValues></_>
        <_>
          <internalNodes>
            0 -1 252 -4.3568678665906191e-04</internalNodes>
          <leafValues>
            3.4532910585403442e-01 -1.2827695906162262e-01</leafValues></_>
        <_>
          <internalNodes>
            0 -1 328 -1.7074760398827493e-04</internalNodes>
          <leafValues>
            -5.4363495111465454e-01 9.7822286188602448e-02</leafValues></_>
        <_>
          <internalNodes>
            0 -1 405 1.1558828875422478e-02</internalNodes>
          <leafValues>
            6.7378789186477661e-02 -6.9329869747161865e-01</leafValues></_>
        <_>
          <internalNodes>
            0 -1 415 -1.2528605759143829e-02</internalNodes>
          <leafValues>
            4.7106134891510010e-01 -1.1003570258617401e-01</leafValues></_>
        <_>
          <internalNodes>
            0 -1 51 -8.7012127041816711e-02</internalNodes>
          <leafValues>
            3.1833013892173767e-01 -1.5451310575008392e-01</leafValues></_>
        <_>
          <internalNodes>
            0 -1 471 6.8997294874861836e-04</internalNodes>
          <leafValues>
            8.0871857702732086e-02 -5.7142269611358643e-01</leafValues></_></weakClassifiers></_>
    <!-- stage 19 -->
    <_>
      <maxWeakCount>32</maxWeakCount>
      <stageThreshold>-2.4340334534645081e-01</stageThreshold>
      <weakClassifiers>
        <_>
          <internalNodes>
            0 -1 196 7.8039113432168961e-03</internalNodes>
          <leafValues>
            7.2589838504791260e-01 -4.4615384936332703e-01</leafValues></_>
        <_>
          <internalNodes>
            0 -1 456 1.8529612571001053e-03</internalNodes>
          <leafValues>
            2.7225199341773987e-01 -3.7187129259109497e-01</leafValues></_>
        <_>
          <internalNodes>
            0 -1 27 -8.0051831901073456e-03</internalNodes>
          <leafValues>
            5.2912884950637817e-01 -8.5918731987476349e-02</leafValues></_>
        <_>
          <internalNodes>
            0 -1 202 1.0968669084832072e-03</internalNodes>
          <leafValues>
            -1.3653321564197540e-01 3.4699884057044983e-01</leafValues></_>
        <_>
          <internalNodes>
            0 -1 168 -4.6567507088184357e-03</internalNodes>
          <leafValues>
            3.9827254414558411e-01 -1.6138294339179993e-01</leafValues></_>
        <_>
          <internalNodes>
            0 -1 434 4.0876656770706177e-02</internalNodes>
          <leafValues>
            -1.0611992329359055e-01 5.6293618679046631e-01</leafValues></_>
        <_>
          <internalNodes>
            0 -1 307 -3.1069756951183081e-03</internalNodes>
          <leafValues>
            -6.5847343206405640e-01 8.0055139958858490e-02</leafValues></_>
        <_>
          <internalNodes>
            0 -1 272 7.0771598257124424e-04</internalNodes>
          <leafValues>
            -1.5652778744697571e-01 3.3811146020889282e-01</leafValues></_>
        <_>
          <internalNodes>
            0 -1 431 2.9205102473497391e-03</internalNodes>
          <leafValues>
            -9.4444058835506439e-02 4.6009379625320435e-01</leafValues></_>
        <_>
          <internalNodes>
            0 -1 95 -1.4105665683746338e-01</internalNodes>
          <leafValues>
            3.5475078225135803e-01 -1.4671456813812256e-01</leafValues></_>
        <_>
          <internalNodes>
            0 -1 375 -2.2542193619301543e-05</internalNodes>
          <leafValues>
            1.7019024491310120e-01 -2.8755930066108704e-01</leafValues></_>
        <_>
          <internalNodes>
            0 -1 292 -2.2386824712157249e-03</internalNodes>
          <leafValues>
            7.1103191375732422e-01 -7.9886801540851593e-02</leafValues></_>
        <_>
          <internalNodes>
            0 -1 223 -1.2354407226666808e-04</internalNodes>
          <leafValues>
            -3.6864936351776123e-01 1.2854088842868805e-01</leafValues></_>
        <_>
          <internalNodes>
            0 -1 448 5.6514074094593525e-04</internalNodes>
          <leafValues>
            -1.6063226759433746e-01 3.3351424336433411e-01</leafValues></_>
        <_>
          <internalNodes>
            0 -1 356 -1.3409326493274420e-04</internalNodes>
          <leafValues>
            3.1712928414344788e-01 -1.7029464244842529e-01</leafValues></_>
        <_>
          <internalNodes>
            0 -1 429 -1.6842817422002554e-04</internalNodes>
          <leafValues>
            -4.4085735082626343e-01 1.6506509482860565e-01</leafValues></_>
        <_>
          <internalNodes>
            0 -1 463 -5.6182285770773888e-03</internalNodes>
          <leafValues>
            -6.4224982261657715e-01 7.5329259037971497e-02</leafValues></_>
        <_>
          <internalNodes>
            0 -1 388 -2.4632019922137260e-03</internalNodes>
          <leafValues>
            2.6537850499153137e-01 -1.9262591004371643e-01</leafValues></_>
        <_>
          <internalNodes>
            0 -1 192 2.9592926148325205e-04</internalNodes>
          <leafValues>
            -2.3669575154781342e-01 2.3535025119781494e-01</leafValues></_>
        <_>
          <internalNodes>
            0 -1 184 -5.3707735787611455e-05</internalNodes>
          <leafValues>
            2.2282879054546356e-01 -2.2155159711837769e-01</leafValues></_>
        <_>
          <internalNodes>
            0 -1 310 -3.3805496059358120e-04</internalNodes>
          <leafValues>
            2.7395030856132507e-01 -1.8469615280628204e-01</leafValues></_>
        <_>
          <internalNodes>
            0 -1 301 -2.1221817587502301e-04</internalNodes>
          <leafValues>
            3.6664056777954102e-01 -1.4613883197307587e-01</leafValues></_>
        <_>
          <internalNodes>
            0 -1 299 1.0567752178758383e-03</internalNodes>
          <leafValues>
            -1.9594252109527588e-01 2.6212987303733826e-01</leafValues></_>
        <_>
          <internalNodes>
            0 -1 414 -1.9861701875925064e-03</internalNodes>
          <leafValues>
            -4.1532748937606812e-01 1.3111428916454315e-01</leafValues></_>
        <_>
          <internalNodes>
            0 -1 122 3.9386185817420483e-03</internalNodes>
          <leafValues>
            -1.0311644524335861e-01 5.6022733449935913e-01</leafValues></_>
        <_>
          <internalNodes>
            0 -1 100 -1.7855383455753326e-02</internalNodes>
          <leafValues>
            -6.8461585044860840e-01 9.7360633313655853e-02</leafValues></_>
        <_>
          <internalNodes>
            0 -1 9 1.2585980584844947e-04</internalNodes>
          <leafValues>
            1.6526746749877930e-01 -3.3015963435173035e-01</leafValues></_>
        <_>
          <internalNodes>
            0 -1 435 -1.6120222862809896e-03</internalNodes>
          <leafValues>
            3.1211259961128235e-01 -1.6817076504230499e-01</leafValues></_>
        <_>
          <internalNodes>
            0 -1 449 -5.3178393281996250e-03</internalNodes>
          <leafValues>
            3.4502941370010376e-01 -1.3814431428909302e-01</leafValues></_>
        <_>
          <internalNodes>
            0 -1 427 3.8687413325533271e-04</internalNodes>
          <leafValues>
            1.0864236205816269e-01 -4.5295917987823486e-01</leafValues></_>
        <_>
          <internalNodes>
            0 -1 136 1.3291940093040466e-02</internalNodes>
          <leafValues>
            -5.6192938238382339e-02 9.0184384584426880e-01</leafValues></_>
        <_>
          <internalNodes>
            0 -1 246 3.5440511419437826e-04</internalNodes>
          <leafValues>
            9.6095025539398193e-02 -6.3194406032562256e-01</leafValues></_></weakClassifiers></_></stages>
  <features>
    <_>
      <rects>
        <_>
          0 4 50 46 -1.</_>
        <_>
          0 27 50 23 2.</_></rects>
      <tilted>0</tilted></_>
    <_>
      <rects>
        <_>
          0 8 6 4 -1.</_>
        <_>
          0 8 3 2 2.</_>
        <_>
          3 10 3 2 2.</_></rects>
      <tilted>0</tilted></_>
    <_>
      <rects>
